3413 100
</s> 0.004003 0.004419 -0.003830 -0.003278 0.001367 0.003021 0.000941 0.000211 -0.003604 0.002218 -0.004356 0.001250 -0.000751 -0.000957 -0.003316 -0.001882 0.002579 0.003025 0.002969 0.001597 0.001545 -0.003803 -0.004096 0.004970 0.003801 0.003090 -0.000604 0.004016 -0.000495 0.000735 -0.000149 -0.002983 0.001312 -0.001337 -0.003825 0.004754 0.004379 -0.001095 -0.000226 0.000509 -0.003638 -0.004007 0.004555 0.000063 -0.002582 -0.003042 -0.003076 0.001697 0.000201 0.001331 -0.004214 -0.003808 -0.000130 0.001144 0.002550 -0.003170 0.004080 0.000927 0.001120 -0.000608 0.002986 -0.002288 -0.002097 0.002158 -0.000753 0.001031 0.001805 -0.004089 -0.001983 0.002914 0.004232 0.003932 -0.003047 -0.002108 -0.000909 0.002001 -0.003788 0.002998 0.002788 -0.001599 -0.001552 -0.002238 0.004229 0.003912 -0.001180 0.004215 0.004820 0.001815 0.004983 -0.003111 -0.001532 -0.002107 -0.002907 0.002815 0.001579 0.000425 -0.002194 0.001524 0.003059 0.000194 
the -0.144343 -0.106455 0.343427 -0.039698 0.241213 -0.122391 -0.049249 0.246322 -0.168608 -0.004264 0.411158 -0.012148 -0.287412 -0.092245 0.148307 0.246401 -0.176692 0.136131 -0.022431 0.009620 -0.192900 -0.062918 0.191526 -0.177311 -0.140263 -0.216884 -0.006069 0.072604 0.295625 -0.118876 0.014623 0.005173 -0.310135 -0.032051 0.015734 -0.104325 0.131801 0.225232 -0.177167 -0.443185 -0.052223 -0.227553 -0.132862 0.144483 0.095548 0.022585 0.180236 -0.147693 -0.169484 -0.088997 -0.106459 -0.351112 -0.088581 0.228329 0.334089 -0.157836 -0.024658 0.068991 0.105461 -0.002255 -0.122856 0.192428 0.199925 -0.042660 0.016111 0.023069 0.463856 -0.005728 0.396545 0.068587 -0.050492 -0.076501 0.051359 0.051451 -0.119602 0.101953 -0.190734 -0.026675 -0.105202 -0.227425 -0.053391 0.056707 -0.060955 -0.103998 -0.216543 0.117699 0.236502 0.031373 0.379273 -0.030493 0.015803 0.048029 -0.242413 -0.004620 -0.053539 -0.271139 0.056611 0.044898 0.070110 0.155854 
of -0.020181 -0.263243 0.311311 0.009096 0.206542 -0.109128 -0.061418 0.117465 -0.146763 0.150936 0.361581 -0.031641 -0.336713 -0.114598 0.248249 0.327696 -0.145041 0.065246 -0.025312 -0.111789 -0.192157 0.003375 0.228176 -0.184800 -0.335835 -0.133717 -0.044697 -0.013429 0.173901 -0.178120 -0.108317 -0.214139 -0.447058 0.039097 -0.001254 -0.053410 0.139209 0.166621 -0.190327 -0.348647 -0.268060 -0.021643 -0.243642 0.037497 0.005552 -0.007159 0.094513 0.025377 -0.244952 -0.066475 0.024084 -0.293474 -0.053636 0.205359 0.297969 -0.156264 -0.205179 0.135230 0.094072 0.068145 -0.073799 0.210049 0.057164 0.191065 0.073490 0.055802 0.198996 -0.040940 0.209900 -0.040213 -0.135527 0.051406 0.121421 0.018904 -0.036733 0.147411 -0.336896 0.066098 0.032924 -0.233157 -0.039324 -0.037508 -0.031023 -0.143237 -0.158821 0.274379 0.005124 -0.014648 0.352165 -0.135664 -0.031147 0.003274 -0.105871 -0.061087 0.177788 -0.320088 -0.013006 0.080413 -0.033983 0.132195 
and -0.130677 -0.079536 0.107477 -0.048872 0.093133 -0.169409 -0.110975 0.174920 -0.189462 0.021783 0.253637 0.206340 -0.324159 -0.215797 0.287807 0.220341 -0.090631 0.116029 0.125588 0.011970 -0.162681 0.058119 0.083044 -0.135806 0.013720 -0.167422 -0.208703 -0.158937 0.104711 -0.134004 -0.135532 -0.200692 -0.509582 0.039669 0.039854 -0.174981 0.282740 0.114389 -0.088541 -0.425987 -0.059299 -0.290450 -0.346443 0.172108 0.031379 0.136052 -0.040904 -0.170777 -0.283407 0.248822 -0.135747 -0.264689 0.080280 0.211770 0.185682 -0.385303 -0.125871 0.086290 -0.080103 -0.093149 -0.123868 -0.043827 -0.039969 0.330848 0.001523 0.067162 0.217914 -0.102717 0.174663 -0.097796 0.021342 0.016984 0.133584 -0.001366 -0.156799 0.094790 -0.098264 -0.153118 -0.003736 -0.037983 -0.079617 0.021030 -0.016006 -0.025295 0.007474 0.026592 0.148693 -0.065012 0.357172 0.001133 -0.020850 0.057515 -0.206059 -0.024609 -0.002693 -0.157014 0.108138 0.100171 0.159867 0.086993 
in 0.067854 -0.307433 0.225273 0.048012 0.118090 0.026276 -0.023955 -0.085096 -0.043246 0.187657 0.242543 0.090076 -0.288943 0.017245 0.056760 0.234121 -0.234629 0.254809 0.043270 0.079949 -0.114775 0.229782 0.138958 -0.176107 -0.179472 -0.276897 0.004361 0.064451 0.067002 -0.108854 -0.001240 -0.023457 -0.452124 -0.136312 0.127832 -0.408231 0.251555 0.069526 -0.327642 -0.468237 -0.206158 -0.212103 -0.346398 0.163265 -0.068816 0.095597 0.147339 0.098018 -0.105761 0.179172 -0.012198 -0.232876 -0.305379 0.236092 0.186155 -0.131297 0.003167 0.037382 0.185892 0.042418 -0.200484 0.079391 0.130325 0.052507 0.225307 0.195072 0.272275 -0.216460 0.166002 -0.051090 0.053871 -0.073867 0.154729 -0.062260 -0.106543 0.201923 -0.190223 -0.148017 -0.176130 -0.013634 -0.048847 0.019048 -0.429141 -0.085953 -0.074310 -0.129902 0.237240 0.029298 0.146256 -0.094443 -0.043714 0.110781 -0.001146 -0.018604 0.108363 -0.114281 0.133411 0.082523 0.073522 0.150082 
to 0.071708 -0.133686 0.197688 -0.133147 0.253365 -0.137498 -0.016493 0.048008 0.253244 0.239270 0.293261 -0.058556 -0.301875 0.071073 0.026097 0.190483 -0.316841 0.123987 -0.157013 0.326538 -0.264476 0.396094 0.264993 -0.012492 -0.005803 -0.189082 -0.124181 0.068679 0.157990 -0.261244 -0.178474 -0.197336 -0.413204 -0.170709 0.129520 -0.076427 0.138331 0.098189 -0.026105 -0.527419 -0.012017 -0.214727 -0.030864 0.214728 -0.035149 -0.007793 0.098483 0.034605 -0.356907 0.108327 -0.048014 -0.387019 0.252540 0.286201 0.316518 -0.277186 -0.224639 -0.329496 0.298520 0.006012 -0.192798 -0.107264 0.053096 0.137651 0.188633 -0.036413 0.344048 -0.020885 0.321824 0.060834 0.147198 0.120625 -0.069101 0.090252 0.015708 -0.010262 -0.198080 -0.072681 0.138254 -0.074373 0.018622 -0.045772 -0.001529 0.040765 -0.120731 0.025725 0.036946 0.023320 0.348510 0.077414 0.120642 0.423134 -0.199889 -0.234764 0.208693 -0.138928 0.175497 -0.118310 -0.127549 0.005133 
one 0.244878 -0.000082 0.191178 0.098856 0.138320 -0.078104 -0.171423 -0.009657 -0.266239 0.342931 0.621711 0.114691 -0.192096 -0.191708 0.145487 0.391186 -0.054916 -0.038209 -0.063610 0.511334 -0.104768 -0.030549 0.126781 -0.312944 -0.150355 -0.219997 -0.178173 0.158760 0.013762 -0.136160 0.379534 0.110654 -0.489262 0.193175 0.070261 -0.267210 0.277248 0.105781 -0.076970 -0.479455 0.088926 0.012378 -0.421373 0.440472 -0.324811 0.455095 0.249651 0.108923 0.310691 0.488209 -0.155441 -0.448871 -0.201371 -0.053553 -0.053797 0.293461 0.317491 0.037311 0.190011 -0.031956 -0.263685 0.154830 0.085650 0.089780 0.022888 0.367991 0.172650 -0.016574 0.350397 0.147878 0.081928 -0.087403 0.184680 0.297175 -0.024902 0.033020 -0.029473 -0.093527 0.153507 -0.084429 -0.068182 0.006750 -0.185732 -0.191886 -0.180136 -0.283377 0.151145 0.138626 -0.212629 0.035631 0.289788 0.303330 -0.095437 -0.025637 0.115830 -0.205742 0.114107 -0.074322 0.134409 0.156319 
a 0.081891 -0.067128 0.199494 0.005033 0.147301 -0.141542 0.114970 0.087465 -0.229301 0.263946 0.362204 0.073014 -0.292810 -0.109338 0.425774 0.116648 -0.107136 -0.039074 -0.084826 -0.098633 -0.060809 0.129696 0.412817 -0.230969 0.016955 -0.094468 -0.139362 0.028709 -0.033593 0.049274 -0.025925 -0.077399 -0.232676 -0.143781 0.230868 -0.049941 0.290328 0.201836 -0.297219 -0.131458 -0.188372 -0.140607 -0.092554 -0.123893 0.100940 0.101864 0.113493 0.266896 0.043461 -0.186688 -0.127181 -0.431091 -0.079087 0.279272 0.451750 -0.180905 -0.295191 0.034337 0.076421 -0.054998 0.148671 0.172349 0.006044 0.121820 -0.058334 0.063291 0.587847 -0.064890 0.242933 0.163888 0.152030 0.052178 0.144307 0.079908 0.058000 0.281145 -0.362026 -0.005394 0.182897 -0.060576 -0.019307 -0.126710 0.009666 -0.085733 -0.170136 0.056769 0.297149 0.131190 0.235068 -0.024517 0.055110 0.090019 -0.064003 -0.251986 0.269654 -0.278649 -0.174922 0.084477 0.126907 0.209864 
zero 0.358793 -0.134103 0.448104 0.141587 0.037818 -0.303210 -0.146775 0.064276 -0.382556 0.453773 0.332082 0.028494 0.219684 -0.278140 0.178028 0.427787 -0.161008 -0.282324 -0.024635 0.923499 -0.403040 0.000343 -0.527614 -0.409325 -0.011858 -0.031684 -0.225391 0.188844 0.093586 -0.007020 0.103809 -0.010148 -0.521727 0.446647 0.072235 -0.096065 0.419696 0.038274 -0.099682 -0.426033 -0.052802 -0.151887 -0.535615 0.036315 -0.327252 0.474593 0.281680 -0.030144 0.305963 0.240721 -0.133675 -0.545661 -0.360913 -0.034929 -0.022649 0.206929 0.357119 0.036307 -0.068066 -0.113999 -0.121286 0.199554 0.445082 -0.050089 -0.323394 0.122311 -0.035907 0.321847 0.475092 0.353884 0.269180 -0.248204 0.179411 0.172354 -0.086233 0.006863 -0.153596 -0.129943 0.162176 0.035825 -0.088816 -0.218167 -0.051528 0.284391 -0.279317 0.062879 0.174674 0.309613 0.359042 0.073816 0.128803 -0.191266 0.066757 -0.045170 0.167134 -0.013824 0.088970 0.270550 0.516842 0.213026 
is -0.152676 -0.208470 0.367988 0.020942 0.203138 0.034938 -0.175793 0.045021 0.073712 0.048820 0.580867 0.210422 -0.212376 -0.078293 0.048691 0.536523 -0.289943 -0.053419 -0.042498 0.010797 -0.111693 -0.070993 -0.064246 -0.114158 -0.388728 -0.233779 0.204874 -0.011629 0.160676 -0.124237 0.403295 -0.309195 -0.249223 0.015882 0.007255 -0.316641 0.195706 0.062098 -0.353096 -0.021443 -0.252128 -0.395263 -0.156527 0.036860 -0.070099 0.268181 0.282618 0.475355 -0.337073 -0.353617 0.259278 -0.557685 -0.150178 0.183021 0.364879 -0.000294 -0.036082 0.078328 0.089938 0.004476 -0.012291 -0.049170 0.145334 0.092997 -0.119672 0.289982 0.390226 -0.373949 -0.005243 -0.316036 0.135485 -0.104382 -0.012707 0.247000 -0.132978 0.291523 -0.305869 -0.137612 0.099940 -0.119757 0.083606 -0.023859 -0.384024 0.105729 -0.121080 0.299537 0.186115 0.228907 -0.254994 0.168779 -0.144180 0.296580 0.023810 0.059505 0.189473 -0.182627 -0.241305 -0.027584 0.109329 -0.110398 
nine 0.280072 -0.096519 -0.088731 -0.164550 0.101362 -0.379626 -0.229781 0.171044 -0.553746 0.527323 0.476760 -0.200344 0.030465 -0.172117 0.330073 0.286223 -0.082531 -0.142062 -0.048257 0.591907 -0.263645 -0.037815 0.136419 -0.530453 0.099606 -0.306229 -0.567477 -0.085920 0.068430 0.117339 0.239749 0.142981 -0.716513 0.418074 -0.122894 0.006313 0.466136 0.002241 0.046359 -0.309864 0.213263 0.033825 -0.364754 0.354020 -0.172424 0.606691 0.379091 0.100103 0.321627 0.228138 -0.441738 -0.291726 -0.383757 -0.087406 -0.234071 0.180102 0.198497 0.172214 0.174968 -0.192274 -0.116889 0.080254 0.394242 0.171037 -0.111229 0.281736 0.041997 -0.332030 0.458580 0.163372 -0.037092 -0.034695 0.160727 0.314069 -0.090984 -0.183256 0.078672 -0.060836 0.176496 -0.005994 0.008955 0.235829 -0.170414 -0.176419 -0.320792 -0.208987 -0.049665 -0.026089 -0.135452 -0.083332 0.168258 0.252016 -0.256260 -0.139778 0.194875 -0.152148 0.263998 0.046389 0.267546 0.112723 
two 0.277081 -0.178801 0.389378 0.048517 0.210630 -0.315355 -0.148580 0.258575 -0.215692 0.424657 0.411533 0.188292 0.015737 -0.162236 0.084293 0.319244 -0.007794 -0.050183 -0.189848 0.435284 -0.247944 -0.136986 -0.001242 -0.242890 -0.074895 -0.238550 -0.137792 0.197440 0.076408 0.009526 0.235038 -0.292027 -0.396431 0.178871 -0.065939 -0.107854 0.214198 0.258911 -0.282381 -0.571944 0.052661 -0.284374 -0.602973 0.137184 -0.298174 0.332283 0.089026 -0.119661 0.164269 0.310256 -0.157137 -0.494257 -0.146136 -0.070648 -0.145016 0.206091 0.350731 0.123696 -0.045034 -0.040952 -0.401197 0.023570 0.282757 0.039499 -0.261757 0.078957 -0.122358 0.153015 0.468467 0.232131 0.246556 -0.329570 0.259294 0.141310 -0.137462 0.064960 -0.291470 -0.028895 -0.168645 -0.053442 0.077721 -0.281328 -0.036903 0.046988 -0.188257 -0.168388 -0.000852 0.214532 0.149393 0.074800 0.269713 0.223135 -0.145464 0.025163 0.058919 -0.041228 -0.001720 0.180393 0.369357 0.394724 
as 0.034568 -0.141791 0.513078 0.190011 -0.034755 -0.031030 0.147226 -0.060695 -0.137631 0.142972 0.493096 0.353610 -0.324296 -0.146254 0.114534 0.373631 -0.068878 -0.149411 0.019225 -0.104410 0.151592 0.069478 -0.192396 0.080152 -0.078949 -0.486126 -0.189377 -0.350828 0.049819 -0.305610 -0.040731 0.028580 -0.554385 0.234460 0.201670 -0.072582 0.264913 -0.122865 -0.268588 -0.295351 0.000301 0.003144 -0.146485 0.195867 0.132014 -0.037440 0.331841 0.053540 -0.361490 -0.272696 0.084780 -0.440319 0.106582 0.332290 0.413569 -0.387183 -0.229624 -0.261797 -0.063102 0.023003 -0.225376 -0.014525 0.476585 0.328358 0.048921 -0.283488 0.323566 -0.027204 0.241918 -0.103816 0.113876 0.040402 0.042188 -0.190011 0.035867 -0.119241 0.083612 0.324273 0.217052 -0.075287 0.073232 0.044195 0.182826 0.026863 -0.168351 0.027089 0.357507 0.062427 0.114629 0.105666 -0.194676 0.185377 -0.071862 0.173753 0.012220 0.023651 0.061451 0.235074 0.020134 0.018330 
that -0.050118 0.093995 0.340086 -0.082100 0.276148 -0.006762 -0.050166 0.226395 -0.066909 0.226617 0.341277 0.185499 -0.157962 -0.258197 0.070241 0.443302 -0.153872 0.025663 -0.143703 0.114283 0.169455 0.192944 0.120028 -0.058668 -0.120697 -0.158455 -0.054122 -0.216171 0.089815 -0.194937 -0.104076 -0.393820 -0.178320 -0.137344 -0.117895 -0.042803 -0.069480 -0.030459 0.263711 -0.239663 0.130697 -0.105220 -0.034035 0.162785 0.016208 -0.193287 0.300083 0.048772 -0.214298 -0.231629 -0.018228 -0.330909 0.103157 0.312058 0.297277 -0.173840 0.217222 -0.376371 0.428783 0.108311 -0.012228 0.307018 0.177798 0.255875 0.001021 0.030365 0.513132 -0.072648 -0.017119 -0.230897 0.145010 -0.225692 0.051792 -0.009359 0.189825 0.199045 -0.207958 -0.230752 0.026281 0.043447 -0.220988 -0.122401 -0.081051 -0.241148 -0.215438 0.351479 0.141990 -0.045434 0.435733 -0.446876 -0.173995 0.399422 -0.351425 -0.069272 0.107973 -0.091549 -0.129572 -0.186904 0.133902 0.088253 
s 0.066305 -0.049699 0.244814 -0.163552 0.445331 -0.466405 -0.244068 0.360840 -0.200372 -0.135840 0.356666 -0.213331 -0.263438 -0.128283 0.317036 0.268033 -0.165463 0.216776 -0.575668 -0.063650 0.155141 0.063968 0.216858 0.092493 -0.164913 -0.336581 -0.208533 -0.012104 0.048024 -0.002326 -0.146821 0.118099 -0.231971 0.302451 -0.048465 -0.148939 0.464226 0.139907 -0.120523 -0.225125 -0.281946 0.038897 -0.339683 0.243393 0.251096 0.200229 0.291479 -0.070919 -0.100711 0.098898 -0.198213 -0.251425 -0.273440 0.478796 0.331123 0.221597 -0.010613 0.178039 0.024113 0.099530 0.138295 0.130623 0.283508 0.168515 -0.050907 0.062356 0.179730 0.110511 0.362764 0.061300 0.222673 0.020726 -0.235573 0.160976 -0.071743 0.349606 -0.420411 -0.028025 0.115325 -0.298944 0.121379 -0.270278 -0.189489 -0.157883 0.033359 0.078706 0.295915 0.074086 -0.010469 -0.392407 -0.106454 0.107775 -0.079550 0.199914 0.139668 -0.006193 0.244318 0.245182 0.116715 -0.114008 
by -0.205716 0.011543 0.437776 -0.247368 0.201574 0.019159 -0.344216 0.182670 -0.019195 0.156119 0.166244 0.191766 -0.583286 0.091813 0.147472 0.310747 -0.294518 0.116783 -0.281612 0.164665 -0.104089 0.154457 0.060187 -0.421427 -0.056084 -0.195434 -0.204512 -0.404145 0.291032 -0.046287 -0.195111 0.118769 -0.223794 0.068728 0.298388 -0.276640 0.538559 0.297985 -0.106174 -0.182273 -0.022575 -0.122766 -0.347368 0.054648 -0.138238 0.146335 0.179478 0.183288 -0.042077 0.012346 -0.123031 -0.037488 0.065936 0.084565 0.492374 -0.367987 -0.172719 0.165098 0.239308 -0.189264 -0.063667 -0.001772 -0.336248 0.386022 0.261366 -0.030501 0.154853 -0.142708 0.337207 -0.057682 -0.063438 -0.724142 0.091895 -0.001608 0.206846 0.094534 -0.079075 -0.169966 -0.001196 -0.319897 -0.091872 -0.171077 -0.130961 -0.102989 0.340690 0.068370 0.005340 0.515753 0.283383 0.024612 -0.387434 0.021535 -0.010894 0.124528 0.116452 -0.002160 -0.296024 0.460700 0.181812 0.370739 
for -0.097575 -0.247984 0.525539 -0.020176 -0.281123 -0.365770 -0.026079 0.247271 0.191434 0.144676 0.366953 0.116403 -0.265390 -0.249702 0.137127 0.393275 -0.050933 -0.252357 -0.093038 0.153449 -0.160908 0.281526 0.126265 -0.337901 -0.187195 -0.180368 -0.282149 -0.141442 0.018628 -0.462242 -0.020591 -0.020712 -0.453810 -0.113261 -0.084092 -0.179746 0.195185 0.188908 0.056177 -0.152863 -0.316546 0.152530 -0.206850 -0.190031 -0.049106 0.171235 0.108983 0.081741 -0.307657 -0.404030 -0.024893 -0.147380 0.107442 0.378347 0.043035 -0.155874 0.020836 -0.191560 -0.020464 0.210871 -0.226126 0.149780 -0.116093 0.513371 0.136865 0.018834 0.232027 0.046793 0.227287 0.222395 -0.182694 0.177051 0.022989 0.029850 -0.199321 0.209600 -0.069922 0.098062 -0.330779 0.257720 0.105325 -0.100525 -0.300814 -0.069495 -0.159196 -0.139490 0.085782 0.164304 0.565735 0.084176 0.009229 -0.005786 -0.208153 -0.362957 0.304804 -0.260806 0.178240 -0.014967 -0.106713 0.203818 
was -0.005086 0.204481 -0.072831 -0.111374 0.224880 -0.289091 -0.147555 -0.122764 0.021548 0.298592 0.473554 0.002627 0.024161 -0.050873 0.359476 0.004598 0.108251 0.241210 -0.067652 -0.081377 -0.257051 -0.010896 0.327265 -0.006307 -0.223720 -0.159299 -0.200372 -0.078302 0.049836 -0.452941 0.044488 0.241211 -0.345144 0.143608 0.088164 -0.152118 0.288943 0.365472 -0.019281 -0.477671 0.067062 -0.310330 -0.149232 0.451288 -0.231275 0.296654 0.121018 -0.086561 -0.196163 -0.028504 0.157827 -0.379719 -0.156359 0.129263 0.335826 -0.160819 -0.121207 0.156920 0.299122 0.004959 0.203553 0.155506 0.419230 0.036726 -0.015556 0.040123 0.557682 -0.538788 0.521940 -0.153788 0.049594 -0.020558 -0.059124 0.120387 0.159005 0.064733 -0.212638 -0.507558 -0.027670 0.333820 -0.258842 -0.097071 -0.021603 -0.300541 -0.147941 0.092248 0.103899 0.222956 -0.064940 0.390184 -0.535939 0.130030 -0.178495 -0.080222 0.262161 -0.096173 -0.043670 -0.080255 -0.110117 -0.202875 
six 0.286843 0.090260 0.350643 -0.126179 0.268909 -0.248629 -0.125216 -0.177519 -0.213106 0.476189 0.860850 0.049449 -0.095947 -0.361600 -0.000529 0.520049 -0.110032 -0.291131 -0.181567 0.586241 -0.021278 -0.276130 0.054131 -0.388189 0.014122 -0.138065 0.018071 0.191130 -0.326196 -0.007764 0.360626 0.142900 -0.699393 0.374652 0.240061 -0.099782 0.471514 0.184705 -0.141676 -0.525291 0.253550 0.000946 -0.239073 0.439565 -0.045210 0.355245 0.153131 0.155853 0.308564 0.176825 -0.188595 -0.161907 -0.409338 -0.279177 -0.132140 0.137853 0.309616 0.244922 0.133403 0.012668 -0.366866 0.248837 0.464173 0.296287 0.085865 0.334877 0.241946 -0.128174 0.607413 0.293482 -0.178214 -0.239114 0.237071 0.437991 -0.223864 0.038533 0.047070 -0.040099 0.125498 0.291557 0.005706 -0.025776 -0.037008 -0.376360 0.031790 -0.396605 -0.062996 0.123427 0.019200 -0.086721 0.382571 0.519736 -0.040115 0.266179 -0.015611 -0.180027 0.168415 0.124780 -0.112628 0.343115 
on 0.285887 0.128010 0.616016 0.139539 0.349511 -0.077289 0.349881 -0.012520 -0.033517 0.231126 0.444631 0.312502 -0.392628 0.236158 -0.025695 0.212352 -0.297058 0.150332 -0.204435 0.321176 -0.213847 0.068271 0.057193 0.271922 -0.274757 -0.148867 -0.214134 -0.062559 -0.211602 0.044526 0.084862 -0.460661 -0.387518 -0.441540 0.106282 -0.117576 0.224263 0.314682 -0.378079 -0.333463 -0.114353 -0.356820 -0.169778 0.410990 0.013440 0.056089 -0.351280 0.084191 -0.498339 0.757367 -0.018267 -0.219397 0.146927 0.461583 0.071195 -0.317277 0.180511 0.205525 0.154724 -0.198362 0.042796 0.045376 0.255455 0.255239 0.045238 0.131974 0.150366 -0.393284 0.200548 0.155117 0.053853 0.035350 -0.179299 -0.113129 -0.339421 0.461370 0.132789 0.179110 0.211275 0.086231 -0.172447 -0.049271 -0.208611 -0.361010 -0.111383 -0.013176 0.116464 0.141237 0.045592 -0.319589 -0.036302 0.113149 -0.020486 -0.152060 -0.114030 -0.324375 -0.160750 0.212582 -0.135148 -0.151219 
with -0.350209 -0.031668 0.101464 -0.010628 -0.014112 -0.466109 0.014944 -0.079190 0.221720 0.141010 0.217322 0.249038 -0.256475 -0.091271 0.138403 0.120016 -0.344163 -0.025271 -0.226233 -0.044114 -0.043218 0.530244 0.094236 0.042865 -0.035255 -0.483192 -0.117843 0.261861 0.301903 0.017876 -0.076493 -0.394356 -0.258987 0.153194 -0.196004 -0.094461 0.439074 0.213548 -0.175122 -0.452527 -0.140073 -0.308388 -0.417439 0.041084 -0.059796 0.147149 -0.040508 -0.299164 -0.121203 -0.022905 -0.322441 -0.583266 0.158538 0.345882 0.046662 -0.336588 0.039055 -0.056700 -0.087770 0.076036 0.000842 0.303672 0.116871 0.163512 0.115214 0.167715 0.227835 -0.206530 0.130713 -0.363000 -0.045584 -0.046255 0.431546 -0.001430 0.127686 0.133726 -0.239427 0.051679 -0.240451 0.079568 0.162841 -0.299217 -0.279285 -0.204324 -0.135476 -0.161345 -0.102511 0.001718 0.268385 0.240815 -0.228499 -0.048708 0.123411 0.050074 -0.222819 -0.060510 0.193201 0.389190 -0.244280 0.254187 
eight 0.215340 -0.097324 0.010569 0.096982 0.122714 -0.224252 -0.333976 0.013267 -0.501673 0.402836 0.522175 -0.200367 -0.177248 -0.461547 0.225168 0.280001 -0.071353 0.043786 -0.029604 0.802273 -0.151531 -0.301674 0.158370 -0.527095 -0.244977 -0.063777 -0.237065 0.024186 -0.162157 0.128592 0.103053 0.139551 -0.597991 0.099547 -0.102558 -0.175708 0.359198 0.055750 0.132876 -0.710175 0.075924 0.234270 -0.185450 0.459524 -0.051296 0.441406 0.476754 0.115711 0.192793 0.343175 -0.132640 -0.314761 -0.279993 -0.211922 -0.197103 0.217718 0.545318 -0.012149 0.142520 -0.289132 -0.001885 0.429189 0.633699 0.261627 -0.044763 -0.041831 -0.007338 -0.199667 0.523110 -0.025520 -0.037494 -0.020338 0.354499 0.212709 0.184416 0.179241 0.103711 0.091202 0.123380 0.086646 -0.191657 0.205683 0.138442 -0.304882 -0.142587 -0.334769 -0.217093 0.379992 -0.107398 -0.189220 0.080108 0.419770 -0.017058 0.022923 0.166943 -0.106182 0.247148 0.130673 0.155834 0.014886 
he -0.009063 0.162213 0.342061 -0.131498 0.170080 -0.467882 -0.097757 -0.296923 -0.127941 0.278253 0.470752 0.062097 -0.179905 0.117538 0.358004 0.261611 0.053951 0.046313 -0.315659 0.092996 -0.190259 0.343657 0.277830 0.019038 0.204290 -0.113663 0.297860 0.025240 0.062917 -0.290038 0.217218 0.128229 -0.243353 0.060547 0.335758 0.082915 -0.044796 0.561555 0.002896 -0.078995 0.471330 -0.475627 -0.069560 -0.064335 0.311884 -0.028178 0.360149 0.024552 -0.133829 0.003143 -0.231757 -0.363815 -0.095916 0.456954 0.112545 -0.574011 -0.169586 -0.162999 0.546427 -0.041549 0.165261 0.352170 -0.483329 0.215487 -0.267981 0.471448 0.507947 -0.191431 0.254750 0.668809 -0.224979 -0.109577 0.209621 0.178987 0.193856 0.253426 -0.282766 -0.387639 -0.005906 0.228973 -0.224153 -0.081365 -0.662766 -0.098450 0.297039 0.083706 0.016258 -0.284833 0.407002 -0.078038 0.008545 0.404394 -0.024840 -0.232511 0.306793 0.058722 -0.190113 0.103175 0.225995 0.308271 
four 0.265623 0.156950 0.371032 -0.008049 0.159035 -0.486600 -0.204826 -0.042958 -0.264981 0.721893 0.527730 0.071138 -0.340982 0.001928 0.105101 0.581128 -0.395773 0.067607 0.145855 0.632738 -0.244962 -0.363305 0.046948 -0.209835 -0.358437 -0.022470 0.138470 0.075663 -0.149955 0.051354 0.429117 0.354158 -0.548095 0.282880 -0.072254 -0.302196 0.177979 0.192441 -0.163244 -0.586801 0.212252 -0.031878 -0.531286 0.275276 0.012186 0.358771 0.502485 -0.164327 0.382151 0.373321 -0.064303 -0.450765 -0.500314 -0.207861 0.055102 -0.092694 0.209531 0.052670 0.048058 -0.222777 -0.400274 0.138562 0.299085 0.402204 -0.121605 0.145841 -0.020936 0.248971 0.304561 0.304860 -0.120340 -0.369714 0.394352 0.328390 -0.014184 0.190877 0.210974 -0.072676 0.016178 0.149999 -0.211339 0.012250 -0.054054 0.004388 -0.135103 0.000803 0.242452 0.123091 0.028704 -0.050317 0.381345 0.246758 0.105113 0.297710 0.152974 -0.178994 -0.103437 0.126064 0.209485 0.300264 
three 0.423050 0.029039 0.277667 0.163145 0.260273 -0.326365 -0.006076 -0.156014 -0.401532 0.394685 0.587117 0.035134 -0.034566 -0.166263 0.105524 0.463824 -0.012938 0.027315 -0.116011 0.377552 -0.283056 -0.035064 0.195684 -0.202532 0.035198 -0.113953 -0.010899 0.175607 -0.274684 0.030032 0.235600 -0.141905 -0.832592 0.196276 -0.059216 -0.014129 0.278856 -0.017079 -0.341655 -0.475225 0.224626 -0.025096 -0.556512 0.315093 -0.057874 0.393267 0.373565 -0.153352 0.285953 0.335624 -0.085077 -0.150098 -0.381893 0.019275 -0.109365 0.055975 0.181323 0.158156 0.052005 0.100903 -0.514529 0.172320 0.429014 0.276994 -0.236108 0.153944 0.201952 0.127984 0.234965 0.188926 0.022554 -0.388630 0.152565 0.213104 0.119891 0.097066 -0.069989 0.058094 -0.012464 0.070332 -0.140095 -0.147443 0.039270 -0.043042 -0.174532 -0.136366 -0.172536 0.285748 -0.250672 0.029604 0.317196 0.323777 0.205762 0.058824 0.397704 -0.047308 0.144142 0.277953 0.584147 0.389998 
his 0.024749 0.326039 0.322043 0.059730 0.438727 -0.626612 0.035487 0.236368 0.024572 0.188570 0.614721 -0.321631 -0.197865 -0.392312 0.328487 0.027453 -0.055445 0.376822 -0.277381 0.257904 -0.258245 0.232454 0.090876 -0.115242 -0.088032 -0.004508 -0.006348 0.228267 0.023640 -0.222686 -0.071056 0.165264 0.143488 0.029699 0.370560 0.177590 0.038395 0.447321 -0.246384 -0.809166 -0.057880 -0.306668 -0.009412 -0.171882 -0.019209 -0.023549 0.305257 0.089794 0.162699 0.106397 -0.212294 -0.072282 0.132841 0.437677 0.262401 -0.401078 -0.167025 -0.278321 0.512414 0.054622 0.426690 0.339026 0.319879 0.517188 -0.182894 -0.316459 0.388948 -0.155003 0.520010 -0.001193 -0.487454 0.118140 0.165956 0.241666 0.037557 0.180996 -0.311834 -0.291169 0.101060 0.220703 0.028462 0.173875 0.110404 -0.069209 0.183178 0.244785 0.543602 -0.178647 0.449846 -0.178717 -0.041108 0.405549 -0.038034 -0.250134 0.284158 -0.000329 0.034634 0.047706 -0.035252 -0.244711 
five 0.110422 -0.061765 0.337947 0.038923 0.124300 -0.300370 -0.508653 -0.184475 -0.328412 0.625282 0.470571 0.079169 -0.052563 0.005804 -0.113411 0.503479 0.012195 -0.003316 -0.093127 0.845282 0.104915 -0.017265 -0.080688 -0.408329 -0.119031 0.004637 0.036156 0.321216 0.239667 0.005701 0.067486 0.150190 -0.524210 0.160190 0.156089 0.116457 0.334194 0.008659 -0.123996 -0.558047 0.154579 -0.088104 -0.396872 0.203277 -0.314136 0.373996 0.229196 -0.057103 0.428885 0.342137 -0.274109 -0.227396 -0.419786 0.012757 -0.025398 0.045182 0.316447 0.049611 0.456473 -0.192987 -0.389382 0.053829 0.336487 0.267867 -0.010360 0.242927 0.059443 0.353237 0.429271 -0.091148 0.287650 -0.166459 0.296130 0.226997 -0.296841 0.113681 -0.150408 -0.142488 0.264878 0.036289 0.027999 0.061925 -0.095701 0.156580 -0.273880 -0.428218 0.203395 0.339366 0.139527 -0.267690 0.190820 0.255081 0.308798 -0.102803 0.138204 -0.129958 0.064769 0.259272 0.287563 -0.007180 
or 0.005337 0.062720 0.262292 0.277038 0.292540 0.031013 0.323494 0.523946 -0.673736 -0.014417 0.137773 0.396695 -0.831916 -0.235240 0.164417 0.423611 -0.211477 0.118382 0.104861 -0.121697 -0.052889 0.131570 0.043303 -0.182912 0.159139 0.087400 0.191757 -0.153706 0.330195 0.169250 -0.212754 -0.383743 -0.415173 -0.669023 -0.152731 0.064745 0.280304 -0.364805 0.149424 -0.250997 0.273566 -0.187892 -0.374275 0.200928 -0.113286 0.023555 0.536827 0.226689 -0.528150 -0.135115 0.043517 -0.323129 0.115692 -0.067151 -0.216559 -0.168925 -0.186225 -0.156569 -0.090564 0.069248 0.182819 0.333563 0.350009 0.277570 0.115438 0.162105 0.347884 -0.437543 0.303458 -0.120672 0.043460 0.022717 0.532979 -0.366154 0.030156 0.340394 -0.179394 0.353799 0.029644 -0.311938 -0.046291 -0.102206 0.162867 0.129667 -0.428449 0.456198 0.328676 -0.041339 0.049894 -0.077111 0.064605 -0.097101 0.249259 -0.566301 0.533902 -0.205104 -0.276930 -0.045949 -0.033481 0.021602 
it -0.272932 0.034752 0.514103 0.068668 0.172753 -0.001248 0.026494 0.206583 -0.008143 -0.104750 0.468195 0.357495 -0.088350 -0.032808 -0.031573 0.457555 0.053797 -0.192829 -0.051207 0.036306 -0.105329 0.088877 0.241434 0.057013 0.045996 -0.126656 -0.034143 -0.087831 0.504497 -0.630897 0.103559 -0.291208 -0.204453 -0.056801 0.186295 -0.054093 0.156433 -0.175657 -0.010779 -0.377785 0.247988 -0.275820 0.046910 0.123134 -0.254705 -0.160045 0.525464 0.252955 -0.400599 -0.047337 0.283471 -0.289256 -0.033648 0.337233 0.169839 0.276982 0.123809 -0.023686 0.224953 -0.068955 -0.129252 0.089723 -0.232581 0.328721 0.210403 0.486146 0.761573 -0.201771 0.238925 0.160373 0.350750 -0.089972 -0.217271 0.308328 0.172709 0.044210 -0.024127 -0.325869 -0.005201 -0.132281 -0.269923 -0.102559 -0.021910 -0.152041 -0.251270 0.019057 0.552916 0.327726 0.174854 0.083267 0.077162 0.145138 -0.137150 -0.279038 -0.191864 -0.234284 -0.354100 0.052588 0.376243 0.172472 
from 0.150427 -0.120015 0.321878 -0.042854 -0.166186 -0.361860 -0.117600 0.121129 -0.076143 -0.182521 0.003243 0.279825 0.077707 0.035439 0.730128 0.261089 0.057355 0.340656 -0.202067 0.318018 -0.275825 0.206854 0.181209 -0.168628 -0.265458 -0.297823 0.046190 -0.137783 -0.060738 0.360408 -0.135813 -0.465355 -0.606133 -0.020891 0.122653 -0.491759 0.349602 -0.094742 -0.141383 -0.032190 -0.061745 0.330725 -0.687274 0.016573 0.069804 -0.073815 0.481196 -0.010103 -0.238980 -0.034875 -0.256077 -0.089250 0.139158 0.044598 0.271335 -0.268603 -0.533344 -0.334049 0.532952 0.107646 -0.158982 -0.077063 0.069001 0.213530 0.343286 0.380751 0.170362 -0.445077 0.178899 -0.065971 0.106013 -0.408756 0.281051 0.108587 0.299085 0.099296 -0.472337 -0.491659 -0.209613 -0.154001 0.127877 -0.259907 0.065103 -0.128306 -0.268922 0.244215 0.255486 -0.035390 0.132106 -0.013627 0.150274 0.135251 -0.047805 0.352328 0.230615 -0.124375 0.404044 0.088559 -0.637383 -0.187404 
are 0.068251 -0.254213 -0.291077 0.155948 0.306467 -0.046733 0.129700 0.263822 -0.025890 -0.093665 0.171923 0.357163 -0.151201 -0.521744 -0.232384 0.715310 0.022623 -0.278425 0.009791 -0.146067 -0.289144 0.303135 -0.191886 0.334192 -0.272814 -0.169398 0.168641 -0.321881 -0.007156 -0.395917 -0.199077 -0.522061 -0.632176 0.121255 -0.118333 -0.323268 0.191981 0.222093 -0.080124 -0.334051 -0.171691 -0.565823 -0.429287 0.265514 -0.523402 0.745952 0.021122 0.073257 -0.110606 -0.685852 0.367715 -0.542485 -0.292876 -0.129184 0.226291 -0.675582 0.055730 -0.046800 -0.195259 -0.375666 0.119995 0.246304 -0.186774 0.153057 -0.218142 -0.091751 0.067882 -0.184616 -0.010190 -0.233791 -0.063145 -0.538974 -0.253009 0.056290 -0.374021 0.233702 -0.083751 -0.169347 -0.281496 0.080894 0.113161 0.286115 0.014387 0.069084 -0.296423 0.029045 0.271008 0.035283 0.048277 0.452618 0.135057 0.204995 -0.038992 0.208608 0.043935 0.193271 -0.146112 -0.088122 0.490153 -0.125632 
seven 0.524853 0.227479 0.057140 0.009517 0.541024 0.113389 -0.043258 -0.185663 -0.298137 0.334513 0.545410 -0.010643 -0.019305 -0.050956 0.189422 0.417339 -0.172731 -0.017580 -0.009576 0.385755 0.028919 -0.246136 0.342141 -0.560759 0.147126 -0.285244 -0.225986 0.048165 -0.209331 0.174779 0.216737 0.062198 -0.973522 0.356435 0.032669 -0.283218 0.142366 0.002551 -0.215949 -0.556806 0.172904 -0.064679 -0.368926 0.156549 -0.259943 0.651623 0.568870 -0.270388 0.114220 0.318188 -0.174654 -0.543728 -0.035622 -0.113995 0.020063 0.473308 0.045982 -0.046238 0.131261 -0.170027 -0.232200 -0.073632 0.462691 0.280138 -0.337462 0.439638 0.046766 0.226167 0.416990 0.092378 0.169888 -0.148516 0.317134 0.473054 -0.370228 0.054857 0.118752 -0.008575 0.273531 0.095458 0.131913 -0.024342 0.265342 -0.070820 -0.462376 -0.249742 0.038173 0.057825 -0.199202 -0.231778 0.072851 0.485801 0.183862 -0.109952 0.293053 -0.017795 0.247071 0.063190 -0.049318 0.298563 
an -0.178069 -0.661347 0.127429 0.251080 0.311776 -0.196329 0.056068 0.187621 0.157840 0.517112 0.244560 0.094978 -0.051557 -0.329839 0.063952 0.221213 -0.045669 -0.340943 -0.204886 0.264208 -0.138039 0.348631 0.518198 -0.448739 -0.310168 -0.216389 -0.371328 -0.025313 -0.407935 0.197267 0.421326 0.055654 -0.052005 -0.268170 -0.036838 -0.080111 0.466732 0.080306 -0.050445 -0.019543 -0.407352 -0.280690 -0.077430 0.127586 -0.170790 0.164066 -0.206407 0.005810 -0.329797 0.309712 -0.132659 -0.229286 -0.138329 0.328935 0.667157 0.120229 0.250540 -0.469941 0.398427 0.218099 0.049048 0.307345 0.058262 0.044028 -0.221458 0.195993 0.478137 0.639574 0.118286 -0.394332 0.096198 0.101588 0.144562 -0.117616 0.187876 0.239155 -0.409566 0.122337 -0.235778 -0.379293 0.005937 0.255923 0.027339 -0.162522 0.032614 0.286243 0.374628 -0.128923 -0.138487 0.438350 0.142387 -0.618045 -0.293307 -0.171451 0.309640 -0.142668 -0.207598 0.249396 0.493856 0.168944 
be 0.340460 -0.109825 -0.224913 -0.008687 -0.367712 -0.147518 -0.071630 0.092841 -0.008950 0.471413 0.462402 -0.138464 -0.424129 -0.330558 -0.325367 0.513823 -0.060345 -0.382466 0.034287 -0.120428 -0.380371 -0.072314 0.051770 0.005605 0.162082 -0.310790 -0.260431 0.033294 0.445917 -0.065820 0.142014 -0.626309 0.011953 -0.241358 -0.050761 -0.384896 0.154874 0.450971 0.067905 -0.446722 0.096397 0.077024 -0.216562 -0.395842 -0.036291 0.080119 0.389794 0.132067 -0.115835 -0.435041 0.208846 -0.756083 0.148075 0.381559 -0.115224 -0.402574 -0.065178 -0.351341 0.690685 0.006924 0.300597 0.268303 0.227900 -0.257614 -0.534461 -0.047314 0.566040 -0.036276 0.031037 -0.093468 0.007226 -0.298634 -0.148321 -0.419861 0.221885 -0.282319 0.024752 -0.284393 -0.222230 0.025133 -0.396314 -0.198047 -0.149334 -0.128828 -0.244869 0.327750 0.351861 0.241882 0.025556 -0.112174 -0.295186 0.327034 -0.209871 -0.169241 0.310404 -0.318767 -0.136034 -0.072746 0.117002 0.515901 
this 0.228845 -0.346319 0.510753 0.066334 0.343866 0.092352 -0.230694 0.488103 -0.123759 0.332762 0.431079 0.098917 0.046396 -0.450119 0.109832 0.063429 0.032333 -0.397970 -0.184998 -0.062823 -0.460842 0.365916 0.197858 -0.160363 0.116634 -0.442557 -0.480923 0.183917 -0.214260 -0.091089 -0.014026 -0.317278 0.237668 0.160604 -0.012851 -0.283915 0.079706 0.216097 -0.060841 -0.702876 0.197460 0.128280 -0.015312 0.062231 0.150446 0.204009 -0.205454 0.332112 -0.401829 -0.218464 -0.254148 -0.337055 -0.213912 0.265047 0.239678 0.058695 -0.062580 -0.640321 0.277016 0.369546 -0.318984 -0.028292 -0.129357 -0.180733 0.138277 0.092145 0.216316 -0.455950 0.293904 -0.513594 -0.048170 0.204234 0.003881 0.057839 0.204144 0.260657 -0.163588 -0.117912 0.106725 0.171744 -0.365516 -0.620958 -0.056961 -0.080891 -0.370475 0.219359 0.291468 0.019199 0.383443 -0.141636 0.084722 0.338754 -0.379439 -0.339174 0.230157 -0.144809 0.026973 -0.203587 0.035991 -0.021109 
which -0.041352 -0.163930 0.040846 -0.262819 0.525586 0.033011 -0.076917 0.169032 -0.078318 0.713292 0.260804 0.330683 -0.321689 0.038413 0.508378 0.100408 -0.059142 0.144827 -0.118190 0.285425 -0.052143 0.063989 -0.577883 0.177612 0.100969 -0.193889 -0.127432 -0.079295 -0.150778 0.005403 0.113117 -0.483253 -0.220156 -0.139439 -0.248778 0.130228 0.085498 -0.060802 0.193784 -0.097722 0.148178 0.010317 -0.029359 0.168270 -0.053719 0.310229 0.417520 0.122161 -0.090575 -0.040187 -0.173571 -0.237277 0.133367 0.470308 0.077163 -0.397667 0.225016 -0.122365 0.053347 -0.267692 -0.030787 0.664029 0.045926 -0.080262 0.269139 0.053732 0.453271 0.449988 0.289443 -0.203683 0.518496 -0.060629 0.137548 0.349372 0.140570 0.008576 -0.318652 0.065100 0.241276 -0.002679 -0.089890 0.368626 -0.065562 -0.126369 0.020336 0.452812 0.248973 -0.005185 0.748444 0.025761 -0.471447 0.547318 -0.480736 -0.138133 -0.243488 -0.647895 -0.168165 -0.066717 0.182129 0.310494 
at 0.056322 -0.194147 0.497603 0.272685 -0.073097 -0.434988 0.016660 0.194734 -0.246716 0.123595 0.607354 0.414909 -0.230028 -0.104597 0.304889 0.629376 0.106413 0.008161 -0.143827 0.054397 -0.106195 -0.225199 0.230884 -0.247927 0.183711 0.190543 -0.118215 -0.041012 -0.060794 -0.508460 -0.189326 0.163053 -0.550021 -0.462862 -0.410475 -0.299909 0.401115 0.604190 -0.094400 -0.249383 0.087180 -0.440708 0.089264 0.085921 -0.228061 0.269700 0.493394 -0.025714 0.219163 0.419853 0.153191 -0.102261 0.192583 -0.005542 -0.254872 -0.244656 -0.364722 0.067433 0.152097 0.105432 -0.325706 0.005449 0.371105 0.203389 -0.164322 0.340136 0.976514 0.209884 0.214712 0.352869 0.740642 0.021935 -0.012848 -0.573769 -0.503001 -0.189464 -0.185853 0.039514 -0.227819 0.307429 -0.241849 0.088042 -0.423853 0.585598 0.397794 0.167446 -0.094865 -0.049638 0.090628 -0.100329 0.149440 -0.013905 -0.708899 -0.007825 -0.150941 0.108494 0.234478 0.036069 -0.468505 0.380759 
not -0.268955 0.041891 0.238130 -0.158661 0.334375 -0.015042 -0.134431 -0.286527 -0.292947 -0.120291 0.388643 0.209665 -0.056535 -0.374983 0.005364 0.615545 -0.168598 -0.353847 0.337708 -0.074623 -0.067262 0.433574 0.260435 -0.451787 -0.124275 -0.227837 0.317047 0.172631 0.432911 -0.454746 0.331920 -0.514147 0.055940 -0.145566 -0.123157 -0.114298 0.884118 0.038015 -0.115066 -0.145775 0.197618 0.064353 -0.040897 -0.185594 0.112036 0.014135 0.125578 0.185424 -0.149563 -0.163352 -0.310826 0.043158 0.024556 0.627126 0.346053 0.141502 -0.112852 0.068785 -0.460759 0.140692 -0.322301 -0.011843 0.297774 0.263915 -0.647596 -0.089044 0.379570 -0.487878 0.209550 -0.291944 0.180848 -0.145294 -0.384348 -0.185473 0.431960 0.168430 0.003116 0.180946 -0.705674 -0.159523 -0.480137 0.305364 -0.371512 -0.356607 -0.568952 0.431633 -0.005079 -0.204327 0.322836 -0.061711 0.371725 0.230607 -0.410282 0.146694 0.247870 -0.073269 0.281411 -0.096326 0.300343 0.253213 
have -0.330340 0.143328 -0.290756 -0.287453 0.478709 -0.024858 0.004973 -0.159291 -0.204570 0.470394 0.278681 0.669160 0.221996 -0.127985 -0.263541 0.386174 -0.333436 -0.355370 0.069647 0.178830 0.017914 -0.244763 0.328980 -0.002112 -0.049436 -0.252050 0.169177 -0.058064 0.051251 -0.040827 -0.172028 -0.495371 -0.847853 0.135216 -0.197697 -0.272310 0.439544 0.013150 -0.170637 0.019494 0.222924 -0.246454 -0.320227 0.071700 -0.359338 0.619827 -0.032415 -0.039145 -0.456202 -0.552861 0.177918 0.027683 -0.092139 0.335468 -0.485628 -0.705053 -0.462493 -0.444654 0.456752 -0.335895 -0.095572 0.137911 -0.052691 0.233683 0.426911 0.046589 0.429991 0.010806 0.107852 0.168920 0.062872 0.041497 0.244297 -0.526387 -0.258022 -0.229102 0.004136 -0.233551 0.052468 0.432540 -0.268970 -0.595748 -0.130679 -0.459971 -0.057875 0.383345 0.506702 0.234735 0.329301 -0.394059 0.098663 -0.323556 -0.052138 0.120616 0.448755 -0.080866 -0.106861 -0.177450 0.565481 0.160435 
also 0.221284 -0.197938 -0.092727 -0.389688 0.224922 -0.193519 -0.065873 0.443326 0.186256 0.127131 0.077285 0.420715 -0.544121 -0.146474 0.169775 0.056521 -0.156508 -0.194567 0.077945 0.002424 -0.293250 0.146428 0.337122 0.042448 0.180525 0.009518 -0.214992 -0.138270 -0.344601 0.315979 -0.348047 -0.417582 -0.694460 -0.319300 -0.231789 -0.816481 0.133543 -0.097498 -0.280325 -0.240116 -0.008044 -0.325540 0.094102 0.337790 -0.257410 0.026568 0.390475 0.505986 0.176412 0.526905 -0.209205 -0.556588 -0.541363 0.550484 0.230285 -0.292724 -0.144962 -0.327915 0.018957 -0.041901 -0.355699 0.038963 0.118970 0.178096 -0.192900 -0.089101 0.596727 -0.426378 -0.100287 -0.105585 0.336413 0.229111 0.118840 0.358057 -0.034352 -0.338294 -0.008046 0.387565 0.074093 -0.250794 -0.111957 -0.115957 0.285406 0.519034 0.541246 -0.053929 0.063740 -0.305050 0.462368 -0.049185 -0.385275 -0.370626 0.064641 -0.336434 0.517235 0.097779 0.191503 -0.117449 0.473683 0.369178 
lincoln 0.202451 0.073757 0.040799 -0.640909 0.581551 -0.565222 0.365838 -0.398608 -0.220201 0.263279 -0.352939 0.013174 0.186476 -0.383739 0.504017 0.479479 0.422585 0.205708 -0.208382 0.157530 -0.275471 0.016669 0.031460 0.025113 -0.252424 0.113114 -0.443038 0.047996 0.105141 -0.172070 -0.065460 0.669883 0.039734 0.300395 0.190307 -0.709151 0.255722 0.271933 0.151533 -0.928225 0.087120 0.111689 0.309016 0.320595 -0.202467 0.327793 0.515732 -0.182413 -0.359176 0.215385 0.326878 0.112472 -0.163955 0.304430 -0.153883 -0.563135 0.392724 -0.818157 0.549067 -0.494591 0.577981 0.105228 0.250156 0.335917 -0.022390 0.004334 0.345234 -0.208550 0.679627 -0.147758 -0.558161 0.455782 0.552397 0.125978 0.120028 0.122707 -0.369124 0.502477 -0.148373 -0.295821 -0.216746 -0.217556 -0.227494 -0.933583 0.456294 0.397969 -0.166588 0.542294 0.007797 -0.051020 0.582646 0.456915 -0.027511 -0.784855 -0.778229 0.075128 0.068727 -0.187870 0.205124 0.414293 
has -0.174284 -0.556181 -0.253695 -0.186674 0.415478 -0.403370 -0.099261 0.125022 0.434809 0.185392 0.391458 0.215510 0.269694 -0.362074 0.099007 0.744437 -0.309104 0.013384 -0.519031 -0.020484 0.078867 -0.505987 -0.111970 -0.333075 -0.112103 -0.230269 0.034442 -0.232100 -0.178711 -0.140243 0.110209 0.240123 -0.333409 0.089800 -0.431706 -0.342347 0.163063 -0.098160 -0.208008 0.022656 0.412488 -0.180970 -0.142210 0.000325 -0.415634 0.662561 0.327477 0.886802 -0.030977 -0.716868 0.314988 0.108729 0.822685 0.778127 0.118678 -0.101055 0.055875 0.149546 -0.284208 -0.338278 0.298786 0.436400 0.401014 0.225903 0.518837 0.178996 0.235876 0.121442 0.812907 0.104074 0.645491 0.363017 0.030039 0.076334 0.023126 -0.206480 -0.493620 0.001195 -0.109088 0.372019 0.358008 -0.383764 -0.613850 -0.348511 -0.444096 0.136053 -0.117237 0.116385 0.105660 0.121348 -0.530075 -0.081320 -0.232710 0.142526 0.195841 0.186347 0.240345 0.592279 0.476288 -0.133248 
who 0.115550 0.193389 0.269832 -0.426322 0.227939 -0.297099 -0.312791 -0.247872 -0.444954 -0.235775 -0.048219 0.688328 -0.031354 -0.711289 0.448076 0.297075 -0.256016 -0.076831 -0.186571 -0.346352 0.022047 0.391635 0.245747 -0.069137 0.472844 0.266760 0.188432 -0.027325 -0.204551 -0.198226 0.115406 -0.175930 -0.700839 -0.202788 -0.171377 0.326944 0.049979 0.480130 0.259193 -0.639836 -0.330974 -0.204964 -0.727934 -0.308760 0.519216 -0.211420 -0.231802 0.181027 0.367187 0.071756 -0.100009 -0.532817 0.407931 0.537526 0.372565 0.027103 -0.049999 -0.308543 -0.154643 -0.337965 0.034575 -0.321249 0.222646 0.677034 -0.429048 -0.160922 0.674223 0.271574 0.310934 -0.313684 -0.116171 -0.323558 -0.095368 -0.040356 0.733010 0.479386 -0.231069 -0.262542 0.115155 0.218335 -0.200186 -0.233100 0.348208 0.197508 0.381032 0.324923 -0.344037 0.094525 0.198649 -0.102697 0.138837 0.323029 -0.284487 -0.058920 0.300011 -0.717895 0.330669 -0.435903 -0.004823 -0.024644 
other 0.297928 -0.488417 -0.171783 0.015076 0.291100 0.360740 -0.391111 -0.281849 -0.099781 -0.058965 0.175705 0.141641 -0.464343 -0.383896 0.172724 0.764561 -0.410383 -0.346956 0.200340 0.127909 0.151343 0.074158 0.245556 0.284190 -0.121002 -0.413301 0.259611 -0.090747 0.068674 0.300138 -0.110179 -0.954300 -0.366493 -0.041240 -0.324817 -0.520981 0.682882 0.368591 0.095346 -0.223991 0.174167 -0.292473 -0.222608 0.060091 -0.361685 -0.080199 0.368868 -0.525295 0.004989 0.367411 0.905507 -0.063520 0.032870 0.183969 0.946069 -0.686583 0.307803 -0.485947 -0.175462 0.160463 0.185023 -0.085765 -0.005723 0.200555 0.100539 0.390522 -0.398612 0.311680 0.248715 -0.204472 0.100340 -0.010677 0.491675 -0.236245 0.164847 -0.185594 -0.041056 -0.384214 -0.110743 0.070767 0.036089 -0.146581 -0.172797 0.031412 0.040144 0.141211 -0.113121 -0.721543 0.440205 0.223461 0.443627 0.051450 -0.444330 0.146492 0.301012 0.770063 -0.091700 -0.023686 0.088314 0.099044 
but 0.084455 0.444320 -0.086729 -0.009212 0.479607 -0.113546 0.273728 -0.491689 0.061277 0.269699 0.217316 -0.001966 0.178809 -0.352437 0.002590 0.359054 -0.069619 -0.245075 -0.044578 -0.289707 -0.384823 0.586635 0.184249 -0.521335 0.518082 -0.596454 0.115946 -0.247698 0.221846 -0.008237 0.257399 -0.298221 0.195396 0.166360 -0.149701 -0.231069 0.254737 -0.365826 -0.628273 -0.162365 0.132385 -0.277893 -0.363985 0.313725 0.021121 0.330777 0.168570 0.129550 -0.237743 -0.392046 -0.054473 -0.715715 -0.019980 0.228025 0.106355 -0.050918 -0.042295 0.413995 -0.145638 -0.358667 -0.442594 0.125578 -0.110395 0.240157 0.041914 0.187633 1.168190 0.118927 0.422814 0.122695 -0.461428 0.244766 -0.099186 -0.353083 0.019666 0.153337 -0.715090 -0.347803 -0.532250 0.229528 -0.308565 0.056685 -0.188063 -0.724149 0.512516 0.487178 -0.370113 -0.270765 0.549106 -0.507759 0.150642 0.411638 0.238721 -0.274657 0.098577 -0.204520 0.093524 0.012201 -0.568886 -0.552048 
were 0.641987 -0.032125 0.029795 0.166236 0.085563 -0.160380 -0.193181 -0.102745 -0.316339 0.260419 -0.330182 0.460770 0.305751 -0.004386 -0.255416 0.660896 0.569825 0.085824 -0.094581 -0.415151 -0.430599 0.250408 0.077211 0.319494 -0.046082 0.313627 -0.048685 0.168323 -0.097295 -0.608782 -0.340212 -0.188830 -0.666304 0.708793 0.182544 -0.262044 0.020568 0.503983 0.449675 -0.358759 -0.153013 -0.494211 -0.245391 -0.081936 -0.588731 0.604622 0.275205 -0.756678 -0.461696 -0.132329 -0.221361 -0.578786 -0.779704 0.422018 0.653300 -0.305064 -0.267190 0.466042 0.626620 0.075756 0.965780 -0.140249 -0.000906 -0.030380 -0.171154 0.076226 0.205918 -0.494638 0.454094 -0.551035 -0.017095 0.003006 0.204309 -0.353746 -0.173983 -0.016586 -0.014909 -0.517682 -0.411004 0.236434 -0.000003 0.154059 0.416971 -0.149479 -0.059620 0.143027 0.414205 0.175953 0.375245 0.263727 -0.129775 0.143917 -0.028735 0.054404 0.038345 -0.709668 -0.205649 -0.127497 0.057118 -0.525332 
they -0.288867 -0.303738 -0.224339 -0.245573 0.220489 -0.278649 0.334874 -0.445527 -0.116638 -0.105903 0.251409 -0.299406 -0.078477 -0.235347 -0.235048 0.312680 -0.573398 -0.273272 -0.191074 -0.060452 -0.443394 0.007869 -0.307309 -0.562633 -0.298160 -0.204142 0.585164 -0.199696 -0.716457 -0.287471 0.058641 0.086921 -0.412228 -0.391003 0.158622 0.281437 -0.293884 0.444265 -0.280016 -0.941890 0.619214 0.205944 -0.155246 -0.085888 0.277609 -0.094601 0.433812 -0.082206 -0.529127 0.024325 -0.569843 -0.092356 -0.029939 0.794791 0.021899 -0.763796 0.317976 0.022516 0.143970 0.569004 -0.164741 0.335718 -0.200407 0.583192 -0.188258 0.422053 0.592737 -0.580745 -0.138711 -0.170299 0.144892 -0.084489 0.021829 -0.265941 0.341041 0.128375 -0.646849 -0.501429 -0.298719 0.094901 -0.325721 0.032102 0.359090 -0.116051 0.158914 0.235087 0.555403 0.379345 0.356794 -0.236594 0.482424 0.429819 0.659377 -0.184825 0.113122 -0.341755 -0.155783 -0.229446 0.320317 -0.585534 
their 0.133491 0.253422 -0.050873 -0.252969 -0.131382 -0.760039 0.048108 0.305589 -0.214798 -0.506353 0.253651 0.102506 -0.210315 -0.013160 -0.254522 0.092644 -0.481692 -0.394451 -0.122427 0.275373 -0.200725 0.758540 -0.151280 -0.287268 0.194455 0.169448 0.013832 0.245719 0.656218 0.155727 0.375033 -0.042424 -0.732971 -0.515185 0.249657 -0.140916 0.128294 0.306457 -0.771198 -0.222750 0.022771 -0.255921 0.038749 -0.133979 -0.312568 0.316114 0.311757 -0.131254 -0.067155 -0.117910 -0.343038 0.033780 -0.132346 -0.105024 0.595697 -0.360768 0.042409 -0.194864 -0.537526 0.423400 -0.034610 0.395000 -0.037255 0.598826 -0.196476 -0.058576 -0.047286 -0.248784 0.323538 0.013893 -0.054484 -0.423390 -0.124828 -0.078562 0.381603 0.125239 0.124181 -0.082658 0.470098 -0.377492 -0.048037 0.433757 0.037197 -0.407235 -0.217640 -0.000047 0.484290 -0.016169 0.704493 -0.116058 -0.081381 -0.141851 -0.493509 -0.470171 -0.235664 -0.011630 0.063747 -0.220625 0.288392 -0.597684 
some -0.238334 0.212832 -0.172262 0.415160 -0.287025 0.277235 -0.452917 0.335650 0.011434 0.127125 0.296729 -0.047124 0.064231 -0.119994 -0.182857 0.172413 -0.505428 0.613225 0.145297 0.036555 0.522510 0.157233 0.020402 0.096819 0.682195 -0.207015 -0.306118 0.568105 -0.186746 -0.061258 -0.482387 -0.903198 -0.831070 -0.495322 0.278531 -0.556297 -0.279376 -0.340726 0.254002 -0.254619 0.096637 0.068964 -0.142518 0.178684 0.080246 0.454041 0.541160 -0.338921 -0.109507 -0.483357 0.369419 -0.082809 -0.478303 0.632461 0.587492 0.080320 0.342092 -0.173324 0.213652 -0.026691 -0.015749 0.601711 0.208312 0.514493 -0.361696 0.010474 0.125795 -0.020154 0.209981 -0.303297 -0.475095 -0.340806 0.173070 -0.054055 -0.165975 0.387897 -0.603569 0.511479 -0.651322 0.046927 -0.360728 -0.366690 -0.562513 -0.184943 -0.454732 0.296668 0.144303 0.030467 -0.227827 -0.148307 0.311356 0.388069 -0.348464 0.235671 0.112921 0.013319 -0.162708 -0.024797 0.373054 0.183987 
such -0.006971 -0.064567 0.174662 0.220395 0.031641 -0.053957 -0.129429 0.098213 -0.518091 -0.441813 0.135028 0.240185 -0.670849 -0.152906 0.229157 0.609612 -0.200743 0.006590 -0.303889 0.331596 0.060496 0.056957 -0.358070 0.192218 0.237739 -0.607397 -0.535164 -0.205579 0.186401 0.039192 -0.225252 -0.210322 -0.781679 0.197173 0.296275 0.129324 0.366766 -0.094151 -0.762231 -0.161364 0.363309 -0.433471 -0.034202 -0.019077 -0.076044 0.029506 0.560615 0.446217 -0.674693 -0.645125 -0.419459 -0.338774 0.015426 -0.018569 0.048637 -0.499665 0.139933 -0.984268 0.339871 -0.178834 0.060956 0.177683 0.697233 0.135207 -0.281210 -0.325636 0.114178 0.230390 0.155072 0.291792 -0.232156 0.278828 0.297311 -0.837074 0.332349 -0.477609 0.606671 0.268920 -0.391391 0.112665 0.325919 -0.142100 0.009884 0.274649 0.107512 0.237587 0.321042 0.135477 -0.065532 0.165309 0.601461 -0.279663 -0.336875 0.380290 -0.152391 -0.132696 -0.121076 -0.179921 -0.227675 -0.501143 
all -0.475363 -0.283543 0.135269 -0.475478 0.176459 -0.941692 0.286977 -0.005754 -0.196301 -0.177466 0.586801 -0.378676 -0.350726 0.263780 0.023231 -0.042334 -0.219648 -0.273675 0.318453 0.470118 0.128775 -0.195630 0.190224 -0.396879 -0.156352 -0.030662 -0.201097 0.050097 0.342308 -0.995020 0.080232 -0.778666 -0.306038 0.175324 -0.103415 -0.871748 0.140450 0.607792 0.372101 -0.457438 0.416021 0.356719 0.056162 -0.287626 0.173992 0.543239 0.078268 -0.149026 -0.215472 -0.319404 0.104880 -0.508601 -0.244173 0.251022 0.221506 0.078189 -0.066777 -0.011704 -0.261681 -0.189261 0.043591 0.140279 -0.102108 -0.236003 0.121798 0.309352 0.641636 -0.011958 -0.196151 -0.059905 0.087618 -0.857107 -0.005703 0.153920 0.217139 0.542492 0.016749 0.311085 -0.535541 -0.531249 0.123374 -0.234832 0.165512 0.049643 -0.285027 0.145049 -0.015529 0.234427 0.552438 -0.460997 0.214811 -0.094790 0.235226 -0.165522 0.026835 -0.163255 -0.602915 0.076069 -0.199645 -0.686663 
gore 0.692881 -0.035950 0.513835 -0.515222 -0.423602 -0.535899 0.084056 -0.753320 -0.361653 0.385605 -0.453915 0.175981 -0.537687 0.221567 0.609030 0.192668 0.573457 0.089702 -0.686109 0.628687 0.013107 0.063566 0.099399 0.324180 0.165149 0.469650 0.122415 -0.790954 0.100923 -0.055046 0.395087 0.207412 0.127169 0.245246 0.184959 0.049005 0.070942 0.497056 -0.035024 -0.463724 0.109525 -0.071923 0.492673 0.241763 -0.361627 -0.369172 -0.260191 0.226882 -0.168209 -0.087753 -0.232477 -0.259055 -0.187439 0.643884 -0.300982 0.501982 -0.078692 -0.270985 0.302807 -0.341152 0.047562 0.709895 1.056218 0.920107 -0.219712 0.224536 0.060104 0.235242 0.694073 0.072187 -0.018420 0.430889 0.280797 -0.143127 -0.591024 -0.330477 -1.141463 0.181557 -0.119169 0.139365 -1.025468 -0.546725 -0.092911 0.123614 -0.135832 0.709115 0.409641 0.447718 0.269040 0.304502 -0.113168 0.383633 -0.327376 -0.074410 -0.325510 0.487118 -0.306520 0.154660 0.317050 0.260989 
most -0.356088 -0.612684 0.459255 0.496266 0.340655 0.144341 -0.068302 0.117249 -0.119118 0.146102 0.113999 -0.294974 0.104507 0.511431 -0.306806 0.335828 -0.126171 -0.513428 0.398997 -0.354445 -0.243796 0.219551 0.268574 -0.518071 0.089330 0.203115 -0.223042 -0.269509 0.579485 0.586699 -0.011582 -0.196758 -1.018354 0.254818 -0.341986 0.249118 -0.221162 -0.124274 -0.035007 -0.394325 -0.081111 0.088271 -0.029183 -0.295914 -0.589508 -0.057642 0.158558 0.221471 0.100191 0.612782 0.358412 -0.241337 -0.611007 0.714938 0.411179 -0.923020 0.489186 -0.417007 -0.233352 -0.530104 0.017521 0.130873 0.246232 0.586895 -0.036681 0.021802 0.744746 -0.072486 -0.104173 -0.436182 -0.242859 -0.081810 -0.305618 -0.391696 -0.322231 -0.213302 -0.142340 0.171131 0.171761 -0.345077 0.035008 -0.065983 -0.164554 -0.172426 -0.122985 0.283027 0.180795 0.158007 -0.208394 0.519673 0.458356 0.178959 -0.043588 0.442135 0.648838 0.093354 0.009204 0.568198 0.036319 -0.244782 
had -0.466665 0.008164 0.084073 0.033807 0.087945 -0.558098 0.399943 -0.000629 -0.259359 -0.001076 0.485046 0.120913 0.109153 0.345365 0.204675 0.265303 -0.223458 -0.053747 -0.408967 0.090777 -0.209590 -0.057053 0.403093 0.004541 -0.251196 0.154730 0.310647 -0.526841 -0.241518 -0.047224 -0.681131 -0.019933 -0.518691 0.500767 -0.173166 0.012072 0.285379 0.239957 -0.096380 -0.293442 -0.413430 -0.290090 -0.647790 0.133593 -0.647012 0.352479 0.176963 0.093038 0.372031 -0.057589 0.184820 -0.166776 0.752831 0.548462 0.018700 -0.234604 -0.174159 -0.291322 0.525633 0.105932 -0.102126 -0.115446 0.248703 0.549218 0.312041 0.700167 0.375963 -0.013745 0.914543 -0.393386 -0.521147 -0.498547 0.549323 -0.183789 0.574642 0.620100 0.726201 0.023124 0.122753 0.840283 -0.002275 -0.378494 0.140826 -0.468889 -0.238573 0.415106 0.469659 0.129492 0.252475 -0.129607 -0.303052 -0.197662 -0.159673 -0.375495 0.510088 0.626621 -0.127089 -0.230901 -0.283652 0.319689 
many 0.033604 0.022650 -0.184655 0.715149 0.000985 -0.380154 -0.598025 -0.206409 0.080805 0.105357 0.470596 0.187701 -0.049596 -0.363715 -0.160888 -0.008063 -0.055787 0.348015 0.337761 0.588057 -0.079718 0.060059 -0.648973 -0.711554 0.441931 -0.035352 -0.092870 -0.273529 -0.046766 0.375896 0.125627 -0.252284 -0.635404 0.124473 -0.073129 -0.662619 -0.547428 -0.017063 0.368045 -0.539931 0.518318 -0.114194 0.081296 -0.046982 0.298300 0.135477 -0.121122 0.022120 -0.723508 -0.368625 -0.044027 -0.552968 -0.240397 0.259951 0.142072 -0.598276 0.242217 -0.271953 -0.092265 0.276257 0.259812 -0.006399 0.408880 0.181989 -0.250986 0.536495 0.045255 0.144487 0.292044 0.207243 -0.307389 -0.131547 -0.183704 0.163104 -0.180572 0.252134 -0.306644 -0.127514 -0.318377 -0.277729 0.018887 -0.102639 -0.032140 -0.352076 -0.100912 0.289097 0.175317 0.226072 1.022817 -0.141541 -0.466788 -0.298101 0.022967 0.573724 0.401718 0.035936 0.043548 0.300652 0.003749 -0.229176 
more 0.148774 0.200719 0.616395 0.259266 -0.156069 -0.189247 0.143870 -0.204519 0.214386 0.129948 0.150909 -0.090281 0.057808 -0.467002 -0.000711 0.678488 -0.234510 -0.039904 0.053035 0.377529 -0.251516 0.053189 -0.102939 -0.319286 0.511594 0.074166 -0.244571 -0.457700 0.566276 -0.190512 -0.324025 -0.418442 -0.824369 0.292008 -0.509826 -0.567170 0.242253 -0.083373 -0.266864 0.326305 0.443591 0.027556 0.314381 -0.481652 0.192161 -0.131814 0.742850 0.008723 -0.649052 0.573509 -0.490167 -0.584766 -0.537647 0.331827 -0.008935 -0.310814 0.332734 -0.257591 0.228470 -0.031032 0.395536 0.139897 -0.390996 0.109939 0.185664 0.109894 0.071618 0.218283 0.283562 0.404989 0.166898 -0.206025 -0.375781 -0.276265 0.116913 0.187142 -0.448853 0.321127 -0.123737 0.435560 -0.006759 -0.203983 0.406728 -0.337122 -0.425111 -0.266994 -0.252057 -0.204065 -0.072027 0.196750 -0.193582 0.407835 -0.414727 -0.495756 0.341660 0.575536 0.311246 0.522183 0.362296 -0.519500 
people -0.066830 0.366413 -0.532893 0.145480 0.708754 -0.653309 0.280163 -0.149251 -0.477354 -0.072759 0.050725 -0.028897 -0.243093 -0.304615 0.315921 1.077761 -0.103474 0.331451 0.078271 0.364183 0.337084 0.608333 -0.062001 0.380343 -0.226321 -0.262945 -0.050855 0.592331 -0.306564 0.284821 0.180532 0.095001 -0.603608 -0.390796 -0.178892 -0.641324 0.186261 0.689985 0.071806 -0.783634 0.237028 0.150930 0.050448 0.289450 -0.103753 0.047283 0.130942 0.634828 -0.211442 0.035572 0.382069 -0.589002 -0.141871 -0.492066 0.131526 -0.209015 0.134028 0.070998 -0.112903 -0.041259 0.055007 0.063636 -0.326578 0.089596 0.465628 0.196695 0.016098 0.294965 -0.362392 -0.046022 0.414739 -0.185032 -0.717671 -0.458980 0.515024 0.041808 -0.384131 -0.087451 0.133178 -0.110664 -0.535315 -0.476631 0.142179 -0.022861 -0.297609 0.605673 0.688462 -0.388377 0.394481 0.490269 0.074838 -0.061053 0.384380 0.144004 0.190643 -0.178455 0.192177 -0.160965 0.247050 0.131742 
been -0.579830 0.273772 -0.124348 0.308618 0.313343 -0.640016 -0.129309 -0.106841 0.113503 0.588287 -0.241848 0.015686 0.203126 0.122469 -0.018704 0.393256 0.346399 -0.814701 -0.456108 -0.009917 -0.153272 -0.408592 -0.391880 0.157804 0.031138 -0.385704 0.416911 -0.447416 -0.100203 0.019654 -0.070188 0.060223 -0.981637 -0.023719 -0.445571 -0.033491 0.537162 0.055899 -0.226379 -0.156903 0.323635 -0.562310 -0.240797 0.284791 -0.733942 0.119063 -0.137245 0.465167 -0.093006 -0.437640 0.158293 -0.080900 -0.060672 0.716622 0.103339 -0.165046 -0.123757 0.223245 0.653855 -0.207638 0.254969 0.325035 0.029484 -0.181080 -0.166988 0.288792 0.691214 -0.692917 0.882924 -0.500717 -0.378526 -0.236159 -0.038902 0.328461 -0.043525 -0.448252 -0.068001 -0.187274 -0.122918 0.604383 0.291274 -0.733537 -0.491379 0.087456 -0.195036 0.502227 0.339971 -0.610638 -0.030635 0.212089 -0.134878 -0.070005 -0.244342 0.016832 0.224571 -0.063663 0.157057 0.203639 0.637537 0.223643 
its 0.200786 0.023792 0.088852 0.046102 -0.556159 -0.173769 -0.411318 0.264296 -0.209095 -0.048981 0.256932 -0.151732 0.424773 0.260040 -0.039605 0.207788 -0.241060 -0.529392 0.083998 -0.193703 -0.443228 -0.218318 0.152374 0.495735 -0.728194 -0.155253 -0.141485 0.049138 0.083745 -0.314769 -0.240305 -0.366258 -0.537671 -0.315443 0.071576 -0.564632 0.867508 -0.031527 -0.535618 -0.300847 -0.079834 0.011887 -0.829369 0.253833 -0.499462 0.076175 0.566444 0.391260 -0.127008 -0.409178 -0.652464 0.363472 -0.884956 0.544902 0.381898 0.003254 -0.003760 -0.424065 -0.241589 -0.358649 0.615716 0.176582 -0.010479 0.292125 -0.061378 -0.084377 0.369367 0.887891 0.698100 0.181245 -0.362892 0.477364 -0.031322 0.270373 0.544965 0.816908 -0.003624 -0.628867 0.471457 -0.634776 -0.041947 0.219409 -0.411386 -0.175065 -0.300958 0.251613 0.276279 -0.223419 0.217918 -0.042541 -0.004699 -0.156438 -0.102692 0.156586 0.099375 0.296118 0.203272 0.101482 0.136416 -0.327853 
first -0.096760 0.544171 0.016308 0.431724 -0.208412 -0.255953 0.334122 0.159515 -0.369606 -0.078000 0.764561 0.763670 -0.386273 0.099348 -0.404648 -0.056307 -0.778426 -0.167914 -0.030664 -0.216873 -0.015123 -0.482417 1.037866 -0.230800 0.122663 0.481496 -0.195212 -0.193687 -0.013127 -0.065119 0.284854 0.401619 -0.463530 0.718431 -0.124774 -0.174944 0.197908 0.384189 0.034250 -0.398681 -0.235088 -0.117546 -0.050117 -0.375326 0.382732 0.517435 0.199722 -0.030880 -0.024381 0.577221 -0.139396 0.017813 -0.233061 0.449205 0.561277 -0.561306 0.870623 -0.197582 -0.096665 -0.109459 0.164038 -0.449352 0.392534 0.296293 -0.084434 0.281227 1.227210 0.304854 0.103051 0.591196 -0.390774 -0.402266 -0.313742 0.152838 -0.427562 0.218955 -0.597814 -0.205714 -0.167499 -0.108493 0.495452 0.061124 -0.586377 0.046842 -0.764000 0.488724 -0.190335 -0.267942 0.257828 0.293252 -0.014117 0.050048 -0.038530 0.031278 0.105260 -0.133688 0.138680 0.206890 -0.305063 0.630774 
states -0.066760 -0.577358 0.594636 -0.466968 -0.330416 0.040154 0.097105 -0.015644 -1.001244 0.243611 -0.137542 -0.247958 0.022037 0.681224 -0.272529 0.870031 0.054925 0.140727 0.505128 0.617625 0.329642 -0.183274 -0.343587 -0.356684 0.073394 0.857662 0.359245 -0.367736 -0.067633 -0.193030 -0.148103 -0.139017 -0.693011 0.217527 0.253881 -0.064351 0.386893 0.106522 -0.227178 -0.852549 -0.075326 0.542760 -0.042006 0.130913 0.140026 0.612824 -0.115987 0.157807 -0.385266 -0.487377 -0.079007 -0.367852 0.211589 -0.081506 0.838300 -0.558161 0.143462 0.259720 0.599942 -0.211560 -0.068001 0.404801 -0.016619 0.275948 0.324414 0.277906 0.538211 0.032128 0.739505 -0.129104 0.466901 0.021995 0.163489 -0.050477 -0.067736 -0.021089 -0.605739 -0.228999 0.087274 -0.562124 -0.317821 -0.056356 0.470062 -0.178564 0.227515 -0.257986 0.123804 -0.350825 -0.233423 0.236375 -0.283815 -0.162916 -0.315407 -0.033008 0.158560 0.481830 0.236513 -0.123698 0.422358 0.185885 
world 0.807984 -0.297807 0.046390 -0.542629 0.367907 -0.115569 0.359104 -0.045608 -0.286024 -0.082311 0.701772 0.047991 -0.294900 0.038771 0.551621 0.425074 -0.076150 0.357952 -0.313227 0.301222 -0.444330 0.169601 0.233376 -0.026616 -0.337821 -0.490380 0.180026 0.399340 -0.422167 0.062555 -0.029173 0.022059 -0.673468 -0.013375 -0.521656 0.205385 -0.210343 0.019012 0.274103 -0.765886 -0.827412 0.250203 -0.390869 -0.129398 -0.389473 -0.454432 0.210764 -0.231392 -0.158733 -0.218951 -0.187450 -0.178221 0.036253 -0.122789 -0.315970 -0.202127 0.062661 -0.196152 0.198817 -0.225475 -0.106870 0.755758 0.046704 0.002787 0.309382 -0.145634 0.716630 0.088099 0.418361 0.055679 0.319897 -0.363563 -1.080143 0.064219 0.030300 0.052794 -0.136859 0.054700 -0.010700 -0.022035 -0.129901 0.198922 -0.455670 -0.327482 -0.367698 0.328733 -0.120477 -0.388117 -0.001944 -0.011471 -0.534393 -0.195821 -0.299143 0.189525 0.510028 0.433706 -0.554270 0.511567 0.244691 -0.252503 
when -0.064266 0.296976 0.259910 -0.204700 -0.253881 -0.574506 -0.488201 0.016848 -0.172879 -0.057683 0.424554 0.323488 -0.417365 0.408473 0.145320 0.185004 -0.323925 -0.078065 -0.600610 -0.230293 0.405945 0.242961 0.592392 -0.710219 -0.137365 -0.155087 -0.418120 -0.403347 -0.158113 0.406267 -0.171082 -0.426793 0.413050 0.723919 0.506385 0.062554 0.086422 0.396419 -0.452684 -0.262094 -0.106802 0.021229 0.255372 -0.079710 -0.487894 0.234574 0.744892 0.317791 0.175810 0.196183 0.263111 -0.781004 0.772791 0.070034 0.030930 -0.445300 0.213536 0.280638 -0.027112 -0.303941 -0.619809 -0.418543 0.241452 0.075011 -0.193859 0.355852 0.670038 -0.193202 0.103406 0.115692 0.485549 -0.183520 0.412358 0.382727 0.097895 -0.015101 -0.431256 0.227807 -0.515441 -0.405081 0.244494 0.008876 0.025057 -0.200704 -0.235065 0.097412 -0.041955 -0.012436 0.840407 0.099550 -0.345316 0.482049 -0.481527 0.218981 -0.270286 -0.492751 -0.159128 0.177930 0.231760 -0.680073 
into 0.136649 -0.111294 -0.097237 -0.043728 -0.233097 -0.335396 0.101365 0.236659 -0.167818 -0.134141 0.041617 -0.422413 -0.260217 -0.119086 0.487742 0.212652 -0.234034 0.063811 0.114038 0.727141 -0.041973 0.166154 0.313482 -0.218545 0.192838 -0.208709 0.690866 0.170604 0.732056 0.176288 -0.146098 -0.191557 -0.749286 -0.093778 -0.189984 0.640966 0.532304 0.545084 -0.471799 0.130149 0.129598 -0.047730 -0.219114 0.367082 -0.043638 0.504978 0.699767 0.439992 -0.133401 -0.002858 -0.175750 -0.483468 0.561036 0.596844 0.208801 -0.496554 0.170044 -0.508112 -0.145957 0.088084 -0.514557 0.171728 0.188409 -0.289449 0.047042 0.574399 0.726890 -0.598627 0.482620 -0.381657 -0.032155 -0.412778 0.423413 -0.361139 -0.712684 -0.461681 -0.006159 -0.167212 -0.968923 -0.699062 -0.212980 0.203706 0.101882 -0.517452 0.326285 -0.309185 -0.184060 0.511133 -0.145993 -0.461706 0.063209 -0.384765 -0.078272 0.436165 -0.301748 -0.512962 0.425588 -0.088441 -0.110291 -0.072194 
war 0.714495 -0.277153 0.120040 -0.352983 0.540215 -0.114356 -0.725392 -0.009149 -0.017587 0.007608 -0.473518 -0.001333 -0.359519 0.618602 0.305707 0.889769 0.248155 -0.447903 0.282898 -0.195632 0.478832 0.582310 0.141356 -0.228573 -0.466011 0.379445 -0.145499 -0.031496 -0.210079 0.153164 -0.161642 0.219964 -0.392728 0.095893 0.307559 0.260563 -0.468688 0.901820 -0.463205 -0.844651 0.116916 0.179276 0.377679 0.465122 0.333849 0.394984 0.401938 -0.469532 -0.113729 0.255847 0.572028 0.138320 -0.526669 0.082909 0.111684 0.152038 0.243730 0.024571 0.666369 -0.392219 -0.310611 -0.598519 -0.130751 0.372193 -0.441056 -0.411923 0.664303 -0.507622 0.873592 -0.323931 -0.182898 0.403233 0.296776 0.109342 0.314874 -0.031852 -0.436315 0.359116 -0.327643 0.118848 -0.126078 0.036059 -0.417033 -0.437867 0.160639 0.054461 0.411938 0.341232 0.597581 0.008627 -0.248454 -0.440326 -0.692605 -0.058001 0.064565 0.275896 0.352469 0.379286 0.127833 -0.364498 
time 0.008468 0.632668 0.450949 -0.301336 0.291453 -0.565959 0.733143 -0.208977 -0.024974 -0.029453 0.325133 0.211031 0.062908 -0.609502 0.262245 -0.176844 0.040200 -0.177302 0.093931 0.762557 -0.223200 0.247273 0.170227 -0.329452 0.516324 0.147613 0.011055 0.016911 -0.410208 -0.682078 -0.190735 -0.267308 -0.441043 -0.105018 0.009782 -0.185699 -0.075158 0.311337 0.185597 -0.072564 -0.543913 0.100933 -0.125653 0.473011 -0.325572 0.678656 0.618437 0.184303 -0.210896 -0.276535 -0.027948 -0.333157 -0.131527 0.388271 0.342514 0.360890 0.114158 -0.095849 0.224002 -0.138482 -0.126419 -0.029546 0.163098 0.260786 -0.135723 -0.195021 0.779388 -0.297559 -0.262696 0.151033 0.382221 0.240115 -0.161778 -0.759016 -0.276098 -0.042855 0.277075 -0.346787 0.198001 0.106642 -0.701178 0.006839 -0.366669 0.207014 0.345316 0.441159 -0.124888 -0.479202 0.378828 0.365799 -0.381235 0.196652 -0.604344 0.338504 0.033707 -0.237800 0.256075 0.377735 0.048636 0.054669 
her -0.017527 0.443464 0.050510 -0.055542 -0.183512 -0.205883 -0.428547 0.240504 -0.107085 -0.282124 0.821991 0.215726 0.163925 0.221826 0.174184 0.416136 0.341464 0.451715 0.268022 -0.467725 0.335746 0.288957 -0.308905 0.086553 0.144801 0.115405 0.161122 0.199845 -0.044617 0.502781 0.535878 -0.164726 -0.147281 -0.043548 0.178873 0.462462 -0.056425 0.696336 -0.481811 -0.524095 -0.140279 -0.561255 -0.375781 0.053166 -0.052494 0.864745 0.685558 0.294422 0.712179 -0.204589 -0.354017 0.486029 0.815459 0.367163 0.437405 -0.309792 -0.013613 -1.146775 0.602685 -0.032418 0.817636 0.146853 0.192948 0.177028 -0.245816 0.119721 0.793423 -0.471726 0.364230 -0.684846 0.607964 0.214232 -0.168126 -0.252722 -0.378307 0.645214 -0.089414 -0.047698 0.114720 -0.429658 -0.465512 -0.412374 0.438766 -0.293677 0.478994 0.016733 0.187138 -0.175818 0.584724 -0.035114 0.056037 0.925214 -0.087291 -0.492225 0.081815 -0.136136 0.141111 0.012798 0.668863 -0.311497 
after 0.438930 0.026767 0.084542 -0.227289 -0.004415 -0.593844 -0.281708 -0.426931 -0.070181 0.474953 0.197539 0.339282 -0.351873 0.133018 -0.173139 0.469723 -0.083238 0.346690 -0.630717 -0.281751 0.392316 -0.224952 0.297775 -0.434951 0.156479 -0.092039 0.139318 0.142559 -0.088514 -0.487641 -0.185791 0.100609 -1.132307 0.210346 0.441013 0.159251 0.157830 0.549716 -0.725248 -0.627818 -0.406463 -0.356521 -0.104981 0.338780 -0.020602 0.171491 0.044845 -0.789203 -0.122383 0.174181 0.063488 0.269306 0.081408 -0.059576 0.296166 0.075232 0.337063 -0.018268 0.171635 -0.448159 -0.292096 0.300399 0.480230 -0.419872 -0.115105 0.474184 -0.007134 0.229415 0.173354 0.103425 0.301357 -0.504209 0.289564 -0.313929 0.077984 0.297112 0.108794 -0.433028 -0.456488 -0.013531 -0.083908 0.452242 -0.288027 0.265027 -0.144506 0.507410 -0.188910 0.557925 0.263916 -0.249711 0.012850 0.526116 -0.308303 -0.250374 0.511225 0.083320 0.114826 0.284251 -0.112130 -0.119699 
would -0.558174 -0.149274 -0.069019 0.155717 0.141456 -0.626755 0.031462 0.341536 -0.144395 -0.165243 0.071208 -0.145808 -0.544858 0.053227 0.034209 1.323245 -0.303066 0.118768 -0.193405 0.317634 -0.222718 0.103889 0.139813 -0.026541 -0.257833 0.320778 -0.075634 -0.044561 0.112847 -0.483105 0.084271 -0.250835 -0.187028 -0.254739 0.541527 -0.070401 0.180201 0.136280 0.408843 -0.185888 0.107167 0.205023 0.257522 0.316205 -0.440009 0.024174 -0.131471 -0.388514 -0.179703 -0.090166 0.091077 -0.865704 0.130761 0.385356 0.681452 -0.218998 0.128343 -0.638964 -0.210927 -0.027263 0.267880 0.380027 -0.301248 0.208179 0.196677 -0.159327 0.991696 -0.060141 0.399842 -0.208803 -0.009066 0.467470 0.431817 -0.317746 -0.493255 0.150566 0.189441 0.231496 0.036568 0.628750 -0.243545 0.524263 -0.279852 -0.126834 -0.714733 0.808981 -0.005928 0.128402 0.006357 -0.197117 -0.633618 0.331276 0.548864 -0.904962 0.233501 -0.231206 0.536421 -0.220686 0.036151 -0.170258 
these -0.228092 -0.320435 0.142469 0.057364 0.720693 0.567571 0.092857 0.360354 -0.580527 0.101319 0.065879 0.522740 -0.798153 -0.000939 0.175685 0.910360 0.290389 -0.185686 0.033057 -0.013519 -0.700327 0.153380 -0.181437 0.030859 -0.241135 -0.365363 -0.102508 -0.152704 0.295671 0.377970 -0.056784 -0.624724 -0.039212 0.211025 -0.036405 -0.154022 -0.173717 0.485214 -0.013042 -0.525261 0.483784 0.070175 -0.250178 0.433202 -0.228320 0.617416 -0.053617 0.066642 -0.083086 -0.107045 -0.431087 -0.247613 0.228744 0.329175 0.243287 -0.430892 -0.020659 -0.299622 -0.203015 0.108629 0.212850 0.148892 0.291473 -0.173854 -0.124909 -0.264565 -0.070199 -0.000492 0.098280 -0.504567 -0.609240 0.011214 0.017700 0.021877 0.016409 -0.407255 -0.276183 -0.260683 -0.696607 0.828462 0.184844 -0.301355 0.182930 0.004198 -0.408945 0.238644 0.344723 0.293947 0.735771 -0.104806 0.257349 -0.219180 -1.009438 0.260353 -0.277251 0.570531 0.413448 0.015211 0.580958 -0.841173 
africa 0.060971 -0.616852 0.315539 0.479220 -0.181013 0.074704 0.655689 0.152293 -0.356970 -0.901324 -0.467527 -0.277642 -0.120569 -0.553223 -0.162316 0.504893 0.055991 -0.491442 0.066784 0.108949 -0.465498 0.366269 0.486087 0.055539 0.166434 -0.515452 -0.412389 0.397445 0.190547 0.860964 0.422875 0.694711 -1.208585 0.035897 -1.118539 -0.343227 -0.058201 -0.178173 0.192488 -0.745584 -0.934916 0.307322 0.161033 -0.562088 -0.120969 0.595323 0.658203 -0.025896 -0.485004 0.314582 -0.423118 -0.649403 -0.248540 -0.246616 -0.030862 0.034898 -0.039822 -0.097553 0.275927 0.037434 -0.077910 -0.678938 0.455301 0.589882 0.005113 0.116976 0.047269 -0.322833 0.680925 0.290303 -0.458166 0.042367 0.316938 0.157784 -0.328051 0.167374 -0.943720 0.100178 -0.224399 0.471340 -0.357033 -0.423923 -0.235351 -0.098819 0.120596 0.319478 0.656022 -0.382678 0.564279 0.064402 -0.247935 -0.101262 0.026770 -0.117280 -0.175147 0.427959 -1.173149 1.244545 0.581373 0.135571 
state -0.366531 -0.402221 -0.105494 -0.024995 0.443360 0.157436 -0.070139 -0.574934 -0.679437 -0.439794 -0.093412 -0.011563 -0.925379 -0.165938 -0.193679 0.439505 0.851243 0.142226 0.058264 0.154902 -0.245059 0.534409 0.046694 -0.087027 -0.177099 0.076553 0.172620 0.591512 -0.181355 -0.040976 -0.308435 -0.384398 -1.373802 0.060991 0.155223 -0.125027 0.480628 0.168724 0.511174 0.137260 0.006996 0.714465 -0.108806 0.079009 0.612284 0.576562 -0.177853 0.042917 0.312423 -0.145781 0.287527 -0.446084 0.021424 0.267576 -0.340647 0.037952 0.110546 -0.326153 0.137983 0.017960 0.405328 0.360306 -0.377705 0.092116 -0.622857 1.009019 0.164724 -0.149026 0.625351 -0.194575 0.382470 0.292776 -0.386160 -0.119466 -0.089448 0.588183 -0.597478 0.345836 0.409832 -0.128574 -0.289952 -0.004319 -0.049573 -0.013915 -0.165496 -0.231813 0.308176 0.100438 0.717831 0.376904 -0.345993 0.323714 -0.533772 0.303500 -0.287786 -0.188476 0.732369 -0.105876 -0.036871 0.240581 
new 0.072695 -0.454492 -0.177452 0.602199 0.076204 -0.087108 0.021070 -0.470662 -0.505656 0.197276 -0.000729 0.923230 -0.301613 -0.448480 0.095556 0.662433 -0.150691 0.045582 -0.329847 -0.393667 0.626274 -0.485715 0.336977 0.304325 -0.007922 -0.253650 0.036338 0.733941 -0.488359 0.218948 -0.079622 0.081042 -0.200777 -0.143274 0.465158 -0.327426 0.752713 0.961884 0.348929 -0.204794 0.488858 -0.028542 -0.676356 0.358254 -0.279039 -0.019711 -0.018424 0.491916 -0.028942 0.533595 -0.505209 0.270681 0.048888 0.267433 0.296242 -0.100679 0.173096 0.194949 0.763701 0.168149 -0.097934 0.386343 -0.190047 0.079751 -0.485282 0.409314 0.463810 -0.237974 -0.242718 0.661167 -0.398786 -0.050478 0.329407 0.291494 -0.512112 -0.342796 -0.569694 0.430444 -0.005919 -0.388706 0.286316 0.543721 0.002893 -0.257878 -0.462638 0.072652 0.309884 0.416157 0.197550 0.033714 -0.038597 0.286895 -0.946956 -0.005919 0.533097 0.110029 0.372673 0.548697 -0.019460 -0.626590 
rand 0.560908 0.248459 0.052974 -0.424166 0.267275 -0.227654 -0.475820 -0.861611 0.077147 -0.017247 1.234902 0.473405 0.208198 -0.005259 0.395321 0.031307 -0.122941 0.351413 -0.109014 0.084321 0.267880 0.395465 -0.436285 0.532714 -0.193627 -0.171615 -0.718508 -0.212177 0.182885 -0.190615 0.430658 -0.205500 -0.230551 0.188858 -0.154210 0.076998 0.496403 -0.184663 -0.132741 -0.103914 -0.659525 -0.246155 0.235125 -0.568123 -0.182376 0.576869 0.520144 0.566085 0.562966 -0.168855 -0.579054 -0.051739 -0.169468 0.475626 -0.076142 0.112085 0.031481 -0.864703 0.142212 -0.179368 0.490842 -0.444264 0.098398 0.462276 -0.061483 0.323696 0.269897 -0.787534 0.051660 -0.270806 -0.542195 -0.111598 -0.297093 -0.387896 -0.437725 -0.109647 -0.934235 -0.533840 -0.369961 -1.036502 -0.863482 -0.369216 0.502227 0.283814 0.101297 -0.254527 -0.088422 -0.280248 0.299614 -0.555668 0.035904 0.247290 -0.360965 -0.555566 -0.887756 -0.131321 -0.031199 0.173971 0.662207 0.141258 
there 0.014190 -0.268783 0.456400 0.498001 0.216966 0.160556 -0.038612 0.562229 -0.365491 0.053328 0.874161 0.198382 -0.086766 -0.412934 0.250816 0.505160 -0.121421 0.445355 -0.360049 0.013372 -0.152458 0.347749 -0.282714 -0.276475 -0.195187 -0.550361 0.672180 -0.548153 0.328333 -0.050928 -0.168618 0.015470 -0.291211 0.152680 -0.408087 -0.246763 -0.038984 0.133467 -0.334418 -0.202102 -0.113725 -0.031781 0.217090 0.097060 -0.646663 -0.030109 -0.385079 0.477922 -0.464682 -0.341727 -0.169929 -0.014303 -0.212050 0.271076 0.457240 -0.257229 0.751004 0.222312 -0.380161 0.002185 -0.183426 -0.106566 -0.120253 0.267820 -0.306886 0.174576 0.356830 0.277367 0.448964 -0.468499 0.059630 -0.088451 0.510923 -0.029187 0.451213 0.500268 -0.377446 -0.109012 -0.657223 0.205197 -0.171711 0.499231 -0.050129 -0.489620 0.300847 0.276261 -0.285092 0.001782 0.579139 0.021052 0.346564 0.061589 0.238794 -0.142187 0.258705 0.452576 0.289597 0.026984 0.592077 0.255004 
can 0.392616 -0.513165 -0.255263 -0.168631 -0.089462 0.036170 -0.118868 0.356583 0.361026 -0.085959 0.902583 0.165866 -0.560868 0.049692 -0.165191 0.977973 -0.132377 -0.679281 -0.315030 0.232995 -0.180257 0.330466 -0.373822 0.246699 0.172646 -0.373566 0.133856 0.320358 0.522264 -0.308587 -0.389820 -0.424609 -0.227781 -0.257033 -0.087748 -0.252676 0.626804 0.357166 0.311265 0.148157 -0.362906 -0.239107 0.431485 0.753692 0.183992 0.328041 0.695521 0.392357 0.389490 -0.150194 -0.443494 -0.670744 0.337971 0.113582 0.498667 -0.932082 0.262119 0.371181 -0.073644 -0.216867 0.560748 0.231208 0.179759 0.338214 -0.193198 -0.092220 0.521728 -0.553110 -0.531979 0.029604 -0.342597 -0.029796 -0.325765 -0.692037 0.152367 0.591644 0.087512 -0.525444 0.280135 -0.277723 0.045575 -0.137094 -0.174210 -0.340974 -0.608191 0.360945 -0.005224 0.786688 -0.119313 0.283658 0.214908 0.113216 -0.112449 -0.061271 0.395410 0.349253 -0.084168 0.185773 0.053736 -0.118390 
american 0.336547 -0.754979 0.252615 -0.162410 0.288205 0.303327 0.148088 -0.111437 -0.855049 1.096433 0.260086 0.008595 -0.228622 0.179094 0.521612 0.640357 0.011389 0.522073 -0.147708 -0.030313 0.051178 -0.246168 0.462057 -0.365269 0.139849 0.232507 0.026256 0.181890 0.569117 0.093541 -0.020060 0.173768 -1.576126 0.104230 -0.781826 -0.453054 0.329952 0.904311 -0.299976 -0.183644 -0.230555 0.241464 -0.065610 0.205132 0.200424 -0.560962 0.274619 0.265624 -0.017338 -0.784986 -0.555334 0.331346 -0.257008 0.479863 0.498971 0.720947 0.432140 -0.016967 0.227786 -0.310526 0.497412 -0.229948 0.771032 0.353113 -0.314996 0.319682 0.196959 -0.437102 -0.298502 0.459185 0.147364 -0.414617 0.129192 -0.391706 0.502647 -0.506206 0.020047 0.302236 0.377902 0.235916 -0.500618 -0.422801 0.101132 -0.109546 0.005497 -0.600429 -0.446506 0.052407 0.843365 0.867191 -0.263923 0.585815 -0.151960 -0.025272 -0.303850 0.394682 0.135831 -0.350044 0.128952 0.167817 
only 0.097285 0.078364 -0.209940 -0.543424 -0.412604 0.061899 0.575097 0.254269 -0.434432 0.096801 0.802393 0.074079 -0.123765 0.148122 -0.283187 0.523986 0.116091 -0.057508 0.442595 0.292282 -0.313389 0.256911 -0.042061 -0.132693 0.198655 -0.249886 -0.353895 -0.272756 0.462166 -0.792061 0.243724 -0.617639 -0.651897 0.452271 0.026747 -0.523501 -0.064081 0.076674 0.014754 0.036532 -0.020450 -0.800465 -0.339142 0.420129 0.465377 0.470113 0.061978 0.141267 -0.635324 0.372673 -0.182501 -0.203137 0.028213 -0.371061 0.404060 0.217834 0.110154 -0.141837 -0.143805 -0.104767 -0.420003 0.401560 -0.343619 0.291775 -0.280404 0.397844 0.972284 0.704920 0.477126 0.291635 0.037773 -0.022825 -0.106177 0.084054 0.180470 0.345000 0.293902 0.091994 -0.133322 -0.003578 -0.029441 -0.539737 0.251329 -0.550291 0.206879 0.233295 0.105238 -0.354173 0.180721 -0.195746 0.017386 0.786663 -0.182091 0.195683 0.385831 0.288963 0.108176 0.181120 0.024446 0.038786 
than -0.189990 0.210898 0.908576 0.206791 -0.024218 -0.570040 0.044232 -0.006856 -0.275218 0.520152 -0.723073 0.313910 -0.094944 -0.221117 0.587774 0.377167 -0.575875 -0.230045 0.452186 0.048318 0.486195 0.939424 0.051355 -0.314871 0.268009 0.199574 -0.324222 -0.304563 0.573542 -0.816854 -0.154464 -0.482913 -0.651529 0.152805 -0.456810 -0.055215 -0.050170 -0.392497 0.041461 -0.247826 0.858459 0.125021 0.120928 -0.150180 0.210920 0.086628 -0.272294 0.567090 -0.424016 0.545948 -0.342808 -0.593714 -0.573669 0.260002 0.084406 -0.532012 0.160611 -0.030781 0.188600 0.088932 0.040999 0.903887 0.148599 0.275379 -0.010495 0.075792 0.408667 -0.190577 0.222813 -0.184014 -0.080221 -0.371118 -0.358049 -0.671821 0.138202 0.369431 0.152657 -0.613212 0.064975 0.222239 -0.225734 0.161608 -0.185729 0.173799 -0.887436 -0.211642 0.005242 0.161452 -0.436153 0.253967 -0.325482 0.395387 0.199334 -0.104534 -0.049057 0.522370 0.185013 0.797686 0.062178 -0.438454 
autism 0.258297 1.203725 -0.107211 0.021011 -0.097828 -0.433216 -0.215340 0.259743 0.457057 0.483904 0.388806 0.721925 0.063788 -0.051858 0.763801 0.780972 -0.345644 -0.216901 -0.276180 -0.288971 0.196949 0.907118 -0.230415 -0.334357 -0.951890 0.144629 -0.215919 -0.633295 0.342648 0.417019 0.078137 -0.414538 -0.371924 -0.412132 0.112618 -0.682947 0.424677 -0.109667 0.482345 -0.809385 0.040037 -0.179721 0.989135 0.033515 -0.291262 0.141055 0.317496 0.160842 -0.298874 0.075582 -0.214481 0.011098 -0.144355 -0.103062 0.453884 0.496810 0.774390 -0.649028 0.412314 -0.161238 -0.313159 -0.290281 -0.234543 0.891037 -0.272616 0.421881 -0.135311 0.392319 -0.020230 -0.365388 -0.385552 0.469150 -0.021765 -1.171949 -0.106136 0.340439 -1.329845 0.581319 0.244428 0.519032 -0.598049 0.034865 0.203987 0.017837 -0.577933 -0.394460 0.431903 0.289739 -0.022841 -0.006880 0.222416 -0.047181 0.346537 0.206295 -0.884450 0.245997 -0.527092 -0.489363 0.813259 0.045814 
about 0.447553 0.301607 0.643039 0.440696 -0.404339 -0.473062 0.146425 0.579602 -0.216778 0.359421 0.188091 -0.162251 0.420501 -0.199157 0.705094 0.326591 0.334819 -0.830097 -0.348764 -0.526164 0.244187 1.144402 0.322909 0.369924 -0.407325 -0.068534 -0.130449 0.148983 -0.928149 -0.343266 0.081522 -0.840735 -0.664508 0.119895 0.224956 0.043299 0.166342 0.406056 0.196233 -0.270330 0.031746 -0.132576 0.149099 -0.263949 0.512219 0.304110 0.136921 0.177164 -0.265926 0.259441 0.252666 0.030600 -0.063662 -0.042228 0.231656 0.159597 0.629941 0.171993 -0.343350 0.091750 -0.074618 -0.585370 -0.028892 0.143955 0.450701 0.309094 0.490521 0.098266 0.259807 0.280607 0.473591 -0.756646 0.328805 0.046642 -0.157909 0.241373 -0.241231 0.161701 0.141564 -0.197619 -0.226017 -0.455880 -0.230616 -0.056946 -0.664144 0.890853 -0.358587 0.061153 0.511563 0.326845 0.021443 0.271367 0.005112 0.247352 -0.187664 -0.150677 0.106409 -0.110642 0.213019 0.153804 
united -0.000695 -0.357728 0.813483 -0.442891 0.350942 0.205349 -0.233303 0.167840 -0.813966 0.137606 -0.377639 0.441488 0.185217 0.711123 -0.452103 0.871951 -0.089897 0.276414 0.355460 0.407065 0.138078 -0.270623 -0.273582 0.075940 0.140825 0.739802 0.040100 -0.001541 0.057568 -0.044065 0.298933 -0.426877 -0.483257 0.421131 0.048492 -0.514564 0.542159 0.038866 0.082718 -0.634312 -0.329747 0.324584 -0.106709 0.424497 0.441133 0.489022 -0.511730 -0.306911 0.183795 -0.512390 -0.428503 -0.599167 -0.083242 -0.126507 0.843418 -0.403013 0.442860 0.255903 0.634636 -0.088198 -0.236056 0.406948 0.312178 0.316798 0.361047 0.740622 0.424003 -0.412952 0.305457 0.306374 0.183211 -0.018606 0.265252 0.130878 0.224329 -0.134801 -0.713895 0.025719 0.078228 -0.519748 -0.504288 0.108235 0.003770 -0.335931 0.214042 -0.182961 0.215016 -0.297673 -0.532317 0.540754 -0.336018 -0.233737 -0.909701 -0.245946 -0.061488 0.397481 -0.130141 0.290441 0.638788 0.224869 
she -0.000637 0.039990 0.192404 -0.144009 0.512239 -0.069225 -0.264545 -0.140315 0.146871 0.185233 0.754480 0.150598 -0.070221 0.180825 0.307638 0.664978 -0.100843 0.146494 0.301979 -0.205667 0.941988 0.040040 0.347616 0.171075 0.109569 0.213698 -0.150795 -0.705471 0.251259 -0.279418 0.242157 0.303426 -0.391770 0.072892 -0.068576 0.402210 0.094162 0.205113 -0.330898 -0.738051 0.349604 -0.597666 -0.264080 -0.032005 -0.735436 0.182592 0.237769 -0.478023 -0.596831 -0.101771 0.010430 0.108659 0.844248 0.593886 0.224305 -0.330410 -0.536182 -1.098733 0.514896 0.306088 -0.075147 -0.669670 -0.216100 0.451097 -0.523740 1.275269 0.095061 0.279182 0.198830 -0.481187 0.353306 0.492533 0.035392 -0.364957 -0.019375 0.139042 -0.100269 -0.617499 -0.148712 -0.539173 0.145158 -0.397838 0.019149 0.463283 -0.017040 -0.177898 0.301332 0.035942 -0.090978 -0.428761 -0.263493 0.870900 -0.196494 -0.143638 0.041328 -0.651205 -0.447595 0.281828 1.237094 -0.026941 
history 0.639050 -0.193297 0.048137 -0.129052 0.423435 -0.279679 0.272332 0.015525 -0.020559 0.860383 0.550021 -0.023919 -0.369203 0.122857 -0.172371 -0.293829 -0.080253 -0.128324 0.483914 0.064881 -0.093246 -0.120449 -0.666873 0.191267 -0.428254 0.291881 0.009166 0.712288 0.101488 0.126859 -0.154857 -0.008645 -0.887408 0.426829 0.271673 -0.300258 0.538486 0.316621 0.692821 -0.265889 0.013331 0.147540 -0.412154 0.147187 0.537740 0.308773 0.366940 0.311660 -0.352643 -0.638667 -0.545638 -0.674079 0.058091 0.300200 -0.003546 0.630986 0.882945 0.272868 -0.067515 -0.316096 -0.199924 -0.214910 -0.162821 0.277168 -0.289538 -0.114172 0.120399 0.020713 0.335846 -0.067832 0.489658 -0.156633 -0.333567 -0.571700 -0.159715 0.447150 -0.187837 0.774741 -0.051973 0.064398 0.582574 -0.131421 -0.348521 -0.247956 -0.313784 0.605444 0.643509 -0.129409 0.197016 -0.095375 -0.362939 0.082027 -0.897370 0.280115 -0.046898 -0.242356 -0.239390 0.614382 -0.174161 0.207520 
him 0.405706 0.430547 0.010300 -0.002809 0.077667 -0.105848 -0.115864 0.029695 -0.198194 0.126184 0.219078 -0.446122 -0.263584 0.298687 1.124478 0.259627 -0.635483 -0.365476 -0.970613 -0.262797 0.067488 -0.086525 0.391767 -0.355501 0.568811 0.226634 0.368200 0.526347 -0.438127 -0.286383 0.438611 -0.305769 0.079586 0.499936 0.239062 -0.412677 -0.143319 0.726862 -0.345490 -0.312186 0.231732 -0.588211 -0.628302 0.083617 0.104607 -0.447894 0.328866 0.052942 -0.202128 -0.137704 0.406635 -0.220498 0.432475 0.977881 0.171826 -0.598390 0.092447 -0.929697 0.139898 -0.621705 -0.058647 0.343183 -0.161608 -0.002782 -0.213094 0.543126 0.646928 -0.168892 0.767931 -0.235007 -0.235154 0.278182 -0.007856 0.302069 -0.239620 0.245628 0.103152 0.290991 0.308488 0.203840 -0.149999 -0.442388 0.057195 0.244228 -0.310879 -0.208692 0.559685 -0.215014 0.059139 0.396664 -0.448390 0.980209 0.003957 -0.027259 0.085229 0.172949 -0.069023 -0.799587 0.123073 -0.262675 
no 0.821074 -0.220211 0.434864 0.167817 -0.393757 -0.471151 0.171367 -0.192365 0.031971 0.644030 0.355104 0.325084 -0.255751 0.055173 0.334531 0.577576 0.599451 0.490534 0.726510 -0.075331 0.135993 0.272739 0.163126 -0.780485 0.087665 -0.176087 0.337161 0.839623 0.399222 0.207506 0.291388 -0.307663 -0.068863 -0.210181 -0.321934 -0.284510 -0.206607 0.601366 -0.310038 -0.270108 0.363655 0.473633 0.397845 -0.553798 -0.339628 0.120199 -0.493849 -0.082606 -0.068731 -0.092484 -0.408227 -0.805133 -0.030891 -0.115050 0.849571 -0.149285 0.088033 -0.094552 0.832063 -0.675187 -0.240809 -0.239603 0.457630 0.348107 0.254810 0.104511 0.369048 0.085684 0.575578 0.027104 0.389477 0.160426 0.213022 -0.024241 -0.052983 0.261168 -0.025120 -0.418847 -0.021376 -0.313608 0.479441 -0.255440 -0.450852 -0.218750 -0.767287 0.924356 -0.443776 0.319213 0.335947 -0.628723 0.846586 -0.024228 -0.241651 0.070297 0.257312 -0.176797 -0.166830 0.329995 0.803814 -0.495163 
aristotle 0.516339 0.164988 1.015591 -0.108029 0.813671 -0.543334 0.061317 -0.455180 0.187276 -0.386104 0.906697 0.665195 -0.249630 0.141659 -0.451919 0.069999 -0.570082 0.069991 -0.448679 -0.820763 -0.780911 0.280399 -0.327028 0.580605 -0.261179 -0.030495 0.953351 0.310205 -0.076825 0.017371 0.252792 -0.266636 -0.552889 0.454865 0.063192 -0.009691 -0.128667 -0.110221 0.339281 -0.300444 0.285208 0.098492 0.407655 -0.057227 -0.294142 -0.133714 0.606202 0.410573 0.186083 0.443994 0.665357 -0.096414 -0.326319 -0.049352 0.106868 0.067460 0.140071 -0.390880 0.253431 -0.248352 0.032970 0.290619 0.142610 0.936373 -1.099105 0.094866 0.449656 -0.121609 0.543260 0.115280 -0.911551 0.234725 0.832763 -0.445625 -0.115335 0.251580 -0.384020 0.077280 -0.155250 -0.246116 -0.387855 -0.247112 0.297922 -0.530412 0.491083 0.463521 0.304359 -0.402569 0.710418 -0.341749 -0.464333 0.267733 -0.395832 -0.050241 -0.710661 -0.043051 -0.367103 -0.102826 0.079654 0.303246 
may 0.217683 -0.399266 0.242998 -0.257083 -0.690991 0.087717 0.252613 -0.174393 0.626871 -0.100571 -0.213275 0.241110 0.303072 0.064649 -0.265365 1.234107 -0.858859 -0.453339 -0.153278 -0.199831 0.398758 0.143602 0.182155 -0.061860 0.424601 -0.385307 -0.149812 -0.615418 0.151565 0.071506 0.270349 -0.358555 -0.336511 -0.553031 0.163995 -0.095096 0.647259 0.210731 -0.027773 -0.397081 0.046437 0.582245 0.167315 0.363173 -0.209784 0.268620 0.250827 0.037582 -0.042741 -0.119732 0.015319 -1.046975 -0.246372 0.141757 0.399857 -0.594786 -0.030674 -0.222670 0.496631 0.050297 0.905549 0.133400 -0.013774 -0.227140 -0.122639 -0.452120 -0.009058 -0.645705 0.230128 -0.308595 0.084458 0.059221 0.468109 -0.023272 -0.145337 0.337510 0.132995 -0.075893 -0.217893 0.129817 0.394103 0.166232 0.074963 0.187674 -0.464540 0.497869 0.307957 0.241530 0.526697 0.136737 -0.024047 0.014586 -0.022885 -0.349875 -0.421287 -0.033619 -0.189901 -0.377010 0.078728 0.599620 
however -0.033610 -0.168089 0.224178 0.000191 -0.075005 0.292180 0.136996 -0.366641 0.401060 -0.306901 0.294005 -0.412329 -0.458886 -0.785537 0.199233 0.294825 -0.671939 -0.334575 -0.145558 -0.179792 0.410049 0.226178 0.148354 -0.474215 0.100974 -0.037187 0.192119 0.086441 0.142079 -0.061269 0.125243 -0.474343 -0.072647 0.544086 0.401702 -0.458194 0.484920 -0.130245 -0.267589 -0.616002 -0.098595 -0.730404 -0.074833 -0.325958 -0.348568 0.088078 0.084908 0.285276 -0.314853 -0.041935 0.119750 -0.254530 0.147842 0.315107 0.349357 -0.018960 0.349429 -0.118995 -0.022369 -0.076969 -0.108277 0.693292 0.210303 -0.582971 -0.048953 0.365680 0.489450 -1.142168 0.574937 0.181427 0.395795 -0.056299 -0.092491 0.185076 -0.479743 -0.299648 -0.500931 0.301112 0.228999 -0.211818 0.588726 -0.220109 0.482688 -0.364127 0.275084 -0.012984 0.040807 0.254188 0.471598 -0.459459 -0.260614 0.062759 0.063666 -0.050750 -0.260050 0.321920 0.461749 -0.394592 0.000234 0.232244 
australia 0.249061 -0.414335 0.111057 0.361106 0.259775 -0.220447 -0.048581 0.499345 -0.042813 -0.163628 0.178356 0.923641 0.659496 0.146915 -0.153606 0.469487 0.184664 0.000571 0.451401 0.374907 -0.173704 -0.592640 -0.622355 -0.545874 -0.184364 -0.576281 -0.516797 0.050723 0.596246 0.081377 -0.170341 0.186678 -1.156365 0.276747 -0.309874 0.570423 1.032719 0.049958 -0.185825 -0.770036 -0.786773 -0.105053 -0.032692 -0.316147 -0.268427 -0.259479 0.114261 0.232352 -0.362435 0.267309 -0.393248 -0.133789 -0.206338 0.288063 0.266005 -0.514033 0.205427 -0.361261 0.086196 -0.315912 0.112613 0.279364 0.330674 -0.298204 -0.272047 0.936408 -0.265479 -0.188574 0.926663 0.428858 0.162812 0.800802 0.139116 0.375150 -0.183827 0.310606 -0.513460 0.569735 0.313938 -0.158827 -0.722426 0.555536 -0.511367 0.023882 -0.038817 0.229879 -0.476215 0.221469 0.168299 -0.031479 -0.150798 0.054063 -0.489834 0.651200 -0.228713 0.521031 -0.618814 0.012801 0.477985 0.724666 
often -0.000116 0.275306 0.117352 -0.512054 0.433174 -0.237459 0.109261 0.437118 -0.091692 -0.083928 0.040822 -0.085168 -0.196063 -0.086153 -0.251639 0.064902 -0.318779 -0.006096 0.212737 0.268805 0.416619 0.380058 0.125546 0.092541 0.085898 -0.355907 0.480867 0.219094 0.131003 0.592831 -0.199308 -0.565201 0.141036 -0.468134 0.077771 -0.768195 0.086460 -0.105758 0.530367 -0.674262 -0.287802 -0.736484 -0.013483 0.014939 0.168340 0.534903 0.367952 0.196557 -0.340627 0.486135 -0.152006 -0.642238 -0.414614 0.715932 0.335570 0.059533 -0.151366 -0.157728 0.006723 0.088301 0.247306 0.007539 0.456506 0.497443 -0.170834 0.169808 0.579939 0.087663 0.357414 0.094113 -0.263630 -0.302214 -0.240460 -0.292923 0.545510 -0.209024 0.368159 0.654646 -0.326339 -0.033573 0.473747 0.135442 -0.145085 0.029894 0.035898 -0.141897 0.019350 0.395349 0.587141 0.198287 -0.186606 -0.030530 0.025706 0.637115 -0.105393 -0.396817 -0.311033 0.196148 0.699120 -0.607081 
while -0.190897 0.275233 0.344140 -0.009802 0.123161 -0.116704 0.286490 0.482081 -0.181763 -0.165443 -0.188963 -0.210514 0.316308 -0.530076 -0.186329 0.751229 -0.429075 0.259483 -0.465776 -0.303212 0.187139 0.111144 0.143575 -0.310268 0.392067 -0.327841 -0.209269 -0.373201 0.488271 0.067895 -0.627742 -0.392524 -0.530566 -0.257306 -0.088332 -0.151295 -0.282579 0.178621 0.155306 -0.357435 0.154564 0.000030 0.006924 0.899246 -0.201779 -0.368394 0.592984 0.203588 0.176139 -0.182066 -0.509768 -0.534359 0.043401 0.877550 0.271693 0.290891 0.169189 -0.144328 0.036683 -0.327492 0.203594 -0.000631 0.444167 0.254545 0.560448 -0.378894 0.373161 -0.910107 0.539817 0.418731 0.756533 -0.781375 0.321829 0.217300 0.023071 0.050276 -0.291917 -0.369560 0.450321 -0.345612 0.246861 -0.274827 0.887041 -0.279941 0.246644 0.248810 0.289046 -0.196834 -0.126820 0.186204 -0.223610 0.247652 0.386638 0.223100 0.057709 0.108946 -0.126845 0.104160 0.231734 -0.655048 
apollo 0.086925 0.708922 -0.078564 -0.042685 0.346818 -0.042498 0.267648 -0.052046 0.386423 0.167440 1.092764 0.156130 -0.428583 0.411966 0.354254 -0.082902 0.189244 0.703581 0.007089 0.162108 -0.439175 -0.041503 0.674678 -0.043496 0.090742 -0.419977 -0.828024 0.645677 0.703445 0.418721 -0.309166 0.203240 -0.421500 -0.098528 -0.375363 0.116265 0.167205 -0.177843 0.340834 -0.577513 0.757117 -0.140253 0.081393 0.374544 -0.328737 0.187610 -0.079283 -0.722631 0.211492 -0.296298 -0.158129 -0.131258 0.275236 0.383677 0.707491 -0.639433 -0.319102 -0.902781 -0.033201 -0.362940 0.439664 -0.009557 0.670163 -0.150969 -0.548920 0.673045 0.943703 -0.236664 0.394771 0.155026 -0.308031 -0.024094 0.508824 -0.127420 0.049031 0.342065 -0.094837 -0.096874 -0.752949 0.165024 -0.887413 -0.215273 0.475480 -0.192695 0.637259 0.267586 0.847318 0.361717 0.525708 0.987545 -0.721687 -0.229410 0.087700 -0.597838 -0.441687 -0.196987 -0.180456 -0.185550 0.607583 -0.448163 
see -0.054645 -0.115664 -0.006098 -0.223625 -0.629797 -0.167348 -0.396015 -0.315281 -0.583636 0.128608 0.180916 0.210453 -0.544840 0.183767 0.110284 0.244473 0.718016 -0.147501 -0.942337 0.137530 0.200777 0.137781 0.079170 -0.741496 0.018469 0.125975 -0.519723 -0.311118 0.204943 0.197045 -0.387289 -1.300660 -0.827899 -0.019297 -0.943307 -0.145694 0.294017 -0.304541 -0.728253 -0.602235 -0.162251 -0.548863 0.262437 -0.069892 -0.368118 0.689662 0.546118 -0.090674 0.203346 0.594970 -0.060163 -0.563160 -0.521667 0.561383 -0.095051 0.086197 0.484320 -0.306661 0.353758 0.775817 -0.279826 -0.441629 0.096426 -0.205069 -0.332611 -0.414009 0.128532 -0.047109 -0.218689 -0.557200 -0.246027 -0.108921 -0.333695 0.259955 -0.059781 0.127710 -0.191691 -0.624108 0.234553 0.060540 0.126263 -0.452422 -0.392457 -0.175460 0.029401 -0.067245 0.329874 0.081074 0.180527 0.150757 -0.240888 -0.383371 -0.168453 -0.381684 0.161847 0.602831 -0.147694 -0.473220 -0.288409 0.042422 
during 0.593217 -0.209005 0.446389 -0.011231 -0.859778 -0.958360 -0.306481 -0.436986 0.335517 0.262540 -0.379656 0.222583 0.322226 0.792138 0.165349 0.019040 -1.163432 0.263270 -0.200794 0.008096 0.105788 0.175463 0.280287 -0.052330 -0.389107 -0.803110 -0.203038 0.331453 -0.486540 -0.583995 -0.286544 0.912287 -0.578970 0.174639 -0.005129 -0.174566 -0.103775 0.703030 -0.456611 -0.975694 0.291937 0.393160 -0.058887 0.371963 0.106031 0.619712 0.198879 -0.265879 -0.160443 0.023971 0.305699 -0.054015 -0.067708 -0.039273 0.307182 -0.106238 0.381950 -0.107396 -0.082184 0.242414 0.020776 0.028517 0.365070 0.013768 -0.054265 -0.150200 0.527613 -0.440497 0.445449 -0.399237 0.102499 -0.185371 0.721732 -0.639815 0.114110 -0.221498 -0.292062 0.425779 0.067926 0.206522 -0.085131 -0.355220 -0.670048 -0.235549 -0.366782 0.096089 0.057973 -0.021072 0.621438 -0.134563 -0.184702 -0.002695 -0.397586 -0.171559 0.337589 0.007058 0.073718 -0.322346 -0.520763 -0.046035 
will -0.327418 -0.236716 0.347316 -0.395571 -0.283348 -0.362021 -0.085922 -0.010481 0.233598 0.128695 0.313351 -0.203528 -0.195495 -0.440978 0.022276 0.964174 -0.667668 -0.265021 -0.062392 0.308601 -0.391575 0.022843 -0.167165 0.252032 0.179342 -0.182509 -0.306450 0.018359 0.500129 -0.304230 0.649745 -0.575175 -0.003593 -0.083874 0.183924 -0.300671 0.398007 0.839108 0.141385 -0.203246 -0.317739 0.099816 -0.363505 0.018218 -0.287365 0.245488 0.321197 0.143274 -0.195959 -0.167482 -0.111581 -0.911367 0.727994 0.088344 0.156653 -0.512272 0.544348 -0.214337 -0.050934 -0.573283 0.285125 -0.027315 -0.056054 -0.180200 -0.213062 0.238286 0.363434 0.064496 -0.069986 -0.380689 -0.119547 0.934457 -0.430314 -0.412605 0.148218 0.573223 0.022608 0.078755 0.038408 0.086839 -0.409157 0.279349 -0.502536 0.561739 -0.969485 -0.128212 -0.178891 0.468504 0.054947 0.106199 0.195516 0.479160 0.188431 -0.534011 0.057414 0.051279 0.593604 -0.250053 -0.186994 -0.331979 
what 0.016934 0.864017 0.575110 -0.139834 0.325862 0.163461 0.123132 -0.150097 -0.332668 0.032590 0.463851 -0.063619 -0.651868 0.563785 -0.467800 0.207868 -0.618799 -0.161866 0.025234 -0.943781 0.293191 -0.012125 0.228853 -0.368706 -0.056521 -0.116751 0.399171 -0.128370 -0.248643 -0.051813 0.412218 -0.797846 -0.493142 0.083801 -0.156310 -0.091198 -0.063024 -0.255877 0.435855 -0.080743 0.153202 0.179639 -0.208293 -0.140890 0.022402 0.098126 0.186852 -0.061996 -0.731152 0.334166 -0.427123 -0.638400 -0.208274 0.385287 0.119138 -0.197514 -0.132163 -0.933480 -0.239821 -0.417040 -0.497447 0.277284 0.163567 -0.152845 -0.491398 0.684707 0.354562 -0.064432 0.056568 0.024062 0.033917 -0.180350 -0.410268 0.249563 0.179151 -0.132536 -0.037207 -0.176510 0.195606 -0.120221 -0.953393 -0.492226 -0.652048 -0.056613 -0.325529 0.152427 0.493345 0.636603 0.502765 -0.093028 -0.013260 0.217879 0.046608 -0.059179 0.370907 -0.233802 0.233043 0.055066 0.556050 -0.603394 
used 0.053898 0.109778 0.707497 -0.220267 -0.353687 0.003756 -0.440056 0.249232 0.161740 0.385250 0.304497 0.210826 0.084392 0.061538 0.120046 0.618302 -0.115315 0.316504 0.207103 0.100068 0.044096 -0.337309 0.023252 0.012073 0.778940 -0.445847 0.176311 0.064013 -0.600407 0.491056 -0.203716 -0.747996 -0.489133 0.044302 0.389531 -0.017385 0.051129 -0.759934 -0.256930 -0.890122 0.218247 0.132295 -0.674866 -0.287772 -0.102242 -0.066981 0.494894 0.517309 0.256455 -0.341217 -0.220259 0.039615 0.278856 0.154080 0.512058 -0.165476 0.205690 0.074438 0.168834 0.022545 0.771913 0.382012 -0.168032 -0.052335 -0.398866 0.150646 0.282510 -0.258570 -0.079155 -0.024715 -0.294239 0.522843 -0.037854 -0.141649 0.348782 -0.459378 -0.487707 -0.472408 0.044476 -0.203864 -0.251171 0.028572 -0.145917 -0.718443 -0.076399 0.204966 0.432981 0.159485 0.201514 0.449376 0.135272 -0.563248 -0.344770 0.236384 0.465354 -0.005117 0.354879 -0.209787 -0.212196 0.420756 
them 0.110731 0.615835 -0.100287 0.013043 -0.095967 -0.018892 0.072921 -0.203570 0.394175 -0.505586 0.070106 0.017090 0.165310 -0.236455 -0.311375 1.343455 -0.680829 0.460656 0.017382 -0.016896 -0.008192 0.328894 0.512793 -0.103417 0.224345 -0.427219 -0.013420 -0.043019 -0.042828 0.161809 -0.413668 -0.331154 -0.497413 0.304531 0.268177 0.177140 -0.225089 -0.203040 -0.604953 -0.175990 0.238532 -0.726321 -0.438996 0.289048 0.252920 0.090531 0.159619 0.149776 -0.252564 0.205077 0.002940 -0.175692 0.484251 0.273953 0.146845 -0.182298 0.211459 0.237994 -0.080151 -0.002284 0.065878 0.539338 -0.529703 0.315363 -0.246606 -0.125235 0.511034 -0.247250 0.284068 0.341600 -0.406061 -0.490146 0.164385 0.033906 0.437728 0.096906 -0.355622 -0.031328 0.277518 0.061995 -0.376457 0.121427 -0.070475 -0.136839 -0.558827 -0.331044 0.450685 -0.432898 0.990691 0.427945 -0.007862 0.258737 -0.071776 0.217344 -0.104063 0.255461 -0.351738 -0.421557 0.436666 -0.078717 
i 0.184143 0.847485 -0.188375 -0.481831 -0.272487 -0.273304 0.401088 -0.575133 -0.583218 -0.354358 0.601256 -0.704733 -0.514242 0.124434 0.283975 0.996322 -0.752176 0.205789 0.101654 0.262354 0.075854 -0.365990 -0.747228 -0.197978 0.159141 0.332696 0.002304 0.097667 -0.525672 -0.297845 -0.929973 -0.575020 -0.117394 -0.106713 0.122276 0.721996 0.249062 0.431272 -0.273533 -0.746707 0.380534 -0.020185 -0.006279 -0.630264 -0.584189 0.043641 0.796315 -0.066562 -0.358804 0.389899 -0.174616 -0.978864 -0.288674 0.605381 0.449622 0.139254 -0.326368 -0.462257 0.272314 -0.333827 -0.527421 -0.354658 0.366124 -0.209807 -0.847677 -0.323788 0.687930 -0.180188 0.510017 0.037802 1.185218 -0.017100 -0.258124 0.097183 -0.575120 1.050650 -0.340952 -0.388160 -0.095004 0.166341 -0.346508 0.060989 -0.756703 0.013833 0.606275 0.591024 -0.173046 0.013482 -0.088808 -0.183102 -0.214629 -0.145056 -0.247364 -0.092237 -0.267587 0.328195 0.140171 0.006611 0.135399 0.542604 
years 0.135272 0.315059 0.419452 0.360198 -0.158576 -0.004029 0.437590 -0.507867 -0.380473 0.899549 0.153737 0.134031 0.279958 -0.173932 -0.318568 0.346989 0.001165 0.023266 -0.577464 -0.171426 0.349715 0.259690 0.275448 -0.162314 0.145630 0.110746 -0.677257 0.375258 0.489515 -0.183097 0.178443 0.380571 -0.237441 -0.115543 0.979205 -0.189887 0.688310 0.591647 -0.103183 -0.364822 -0.343429 -0.389280 -1.128470 0.575053 0.165786 0.405303 0.658158 0.370124 0.985382 0.166965 -0.585405 0.041301 -0.581726 0.181408 -0.049419 -0.381551 -0.316543 -0.570874 0.331920 -0.346214 -0.372844 0.299306 -0.206431 -0.032171 -0.232277 0.252108 0.209075 0.158307 0.542763 -0.293503 0.496637 -0.026679 -0.438229 -0.130677 0.137066 0.499029 -0.199704 0.100732 -0.662931 0.218480 -0.235935 0.260979 -0.160023 0.500245 -0.053498 0.527844 -0.187344 0.048852 0.179432 0.047107 0.322037 -1.029746 -0.017013 0.496848 0.071950 0.728066 -0.079643 0.249382 0.098098 0.163017 
anthropology 0.536488 -0.526054 -0.010041 -1.035390 -0.261853 -0.191482 0.327093 0.121600 -0.948174 0.541874 0.580196 -0.079544 0.137186 -0.626619 0.347439 0.299347 -0.317821 -0.216781 -0.187877 -0.521034 -0.229863 0.137773 -0.907609 -0.650651 -0.059940 0.832338 -0.517482 0.526864 -0.453883 0.131734 0.472465 0.190645 -1.302677 -0.683169 -0.033471 -0.073949 0.210425 -0.335867 0.589150 0.164836 0.108214 0.095905 0.140897 0.714064 -0.012711 -0.124434 0.922148 0.324311 -0.599014 -0.853013 -0.143826 -0.231680 -0.222395 0.199026 0.254318 -0.218952 0.019022 -0.456672 -0.433798 -0.388306 0.179539 -0.102698 0.018541 0.587576 0.192920 0.908414 0.040069 -0.284378 0.630914 -0.761426 -0.584567 0.285488 -0.434163 -0.531938 -0.188188 -0.844494 -0.324708 0.152784 0.096793 0.502769 -0.106791 -0.323193 -0.644228 0.089323 -0.224649 -0.194416 -0.114543 0.826949 0.864702 0.206598 0.415833 -0.550600 -0.337939 -0.505068 -0.960429 0.305845 -0.764865 0.389130 0.239581 -0.775618 
th 0.371324 0.054278 0.464053 0.160950 0.312636 0.672397 -0.173110 0.282006 0.018208 -0.198746 0.370189 0.360713 -0.192110 0.166896 0.026084 0.014698 -0.274678 0.232187 -0.141855 -0.128716 0.085848 0.114437 -0.237202 -0.307705 -0.152980 -0.246524 -0.735261 0.018909 -0.023602 -0.265776 0.281615 0.236330 -0.633329 0.582471 -0.052550 0.270449 0.928463 0.684312 0.568952 -0.868648 0.781852 0.548288 -0.468526 0.023001 -0.218785 0.694854 -0.361013 -0.050688 0.103176 -0.316661 -0.441027 -0.297762 -0.570720 -0.051500 0.407291 0.613885 0.196309 -0.064314 0.677662 0.015975 -0.163340 0.244825 0.923135 0.266052 0.168161 0.018297 0.484930 0.392423 1.058874 0.196413 -0.666602 -0.361712 -0.162256 -0.604463 -0.754263 -0.571375 0.267560 -0.282988 0.036448 0.047870 0.030606 0.257360 0.089464 0.341945 -0.130316 0.334529 0.341137 -0.327397 0.250543 -0.034816 -0.117029 -0.134669 0.073994 0.134523 0.435336 -0.074118 0.628159 0.203043 0.324842 0.072866 
government 0.514193 -0.260508 -0.261131 -0.340387 0.368507 -0.075438 -0.147281 0.559841 0.048936 0.399759 -0.430579 0.387748 -0.657493 0.229702 -0.493231 1.018370 0.757035 0.672997 -0.099135 0.302056 0.389217 0.020073 -0.241958 0.259402 0.433549 0.078943 -0.287662 -0.356528 -0.083869 -0.209126 0.134683 0.145492 -0.600910 -0.638720 0.015792 0.000085 -0.026775 0.015455 -0.260233 0.087678 -0.024621 0.017958 -0.548438 -0.224049 -0.032843 0.270238 -0.222702 0.387093 0.208648 0.688535 0.123915 -0.062958 -0.715328 0.123016 0.134325 -0.322161 0.505180 -0.245409 0.585939 0.045057 -0.323731 0.483211 -0.055675 0.953061 -0.487529 1.001488 0.238788 -0.245863 0.630381 0.092170 -0.010054 0.024767 -0.522064 -1.082517 -0.006950 1.084117 -0.371171 -0.074497 -0.029089 -0.055947 -0.073947 0.271546 -0.185316 -0.037337 0.162865 -0.211019 0.098748 -0.522538 0.600491 -0.000983 -0.395263 0.053491 0.025230 -0.051000 -0.092097 -0.209473 -0.643382 -0.046098 0.010065 0.332454 
