3413 100
</s> 0.004003 0.004419 -0.003830 -0.003278 0.001367 0.003021 0.000941 0.000211 -0.003604 0.002218 -0.004356 0.001250 -0.000751 -0.000957 -0.003316 -0.001882 0.002579 0.003025 0.002969 0.001597 0.001545 -0.003803 -0.004096 0.004970 0.003801 0.003090 -0.000604 0.004016 -0.000495 0.000735 -0.000149 -0.002983 0.001312 -0.001337 -0.003825 0.004754 0.004379 -0.001095 -0.000226 0.000509 -0.003638 -0.004007 0.004555 0.000063 -0.002582 -0.003042 -0.003076 0.001697 0.000201 0.001331 -0.004214 -0.003808 -0.000130 0.001144 0.002550 -0.003170 0.004080 0.000927 0.001120 -0.000608 0.002986 -0.002288 -0.002097 0.002158 -0.000753 0.001031 0.001805 -0.004089 -0.001983 0.002914 0.004232 0.003932 -0.003047 -0.002108 -0.000909 0.002001 -0.003788 0.002998 0.002788 -0.001599 -0.001552 -0.002238 0.004229 0.003912 -0.001180 0.004215 0.004820 0.001815 0.004983 -0.003111 -0.001532 -0.002107 -0.002907 0.002815 0.001579 0.000425 -0.002194 0.001524 0.003059 0.000194 
the -0.539637 -0.951072 0.743464 0.123663 1.721142 -0.122408 -0.712050 0.143708 -0.279382 -0.208777 1.455578 -0.389665 -0.294926 0.128335 0.010395 0.494628 -0.460903 -0.106996 -0.123276 -0.104329 0.416805 -0.221348 0.634613 -0.532635 1.121663 0.405196 0.278650 0.600393 -0.247738 -0.350350 0.221870 0.343986 -0.668309 -0.484462 -0.075744 0.684583 -0.661502 -0.940658 -0.295391 -0.084257 -0.458073 -0.761285 -0.039066 -0.797232 -0.260274 -0.332902 0.564223 -0.240872 0.478658 -1.133805 -0.618391 -0.048551 1.109953 0.853305 -0.480539 0.230508 0.595528 -1.119548 0.650127 -0.477473 -0.283823 -0.987335 -0.433780 0.566052 -0.500944 0.960915 0.327592 -0.480877 -0.497363 0.308918 -0.806067 0.104261 -0.017385 0.722011 0.558543 0.492440 -0.563311 -0.166224 0.432324 0.531541 -0.433302 0.917525 -0.390911 0.253149 0.909315 1.270477 0.250613 0.389872 -0.862239 0.464385 0.309091 0.563526 0.257072 -0.097357 1.446934 -1.044181 0.024876 0.320932 -0.677238 0.067714 
of 0.704304 -0.048023 1.093354 0.087543 -0.745727 0.348361 -0.018658 1.043635 -0.986349 -0.079868 2.299094 -0.446951 -0.285571 0.124896 -0.375555 1.020474 0.450474 -0.583493 0.205811 -0.431756 -0.393983 1.008680 0.715423 -0.447317 -0.506601 0.521828 -0.559189 0.343029 -0.586619 0.551135 -0.761005 0.680411 -0.605545 -0.698734 0.285034 0.291198 -0.479219 0.321909 -1.541692 0.819339 -0.248291 -1.022064 -0.974056 0.099760 1.108531 -0.181373 -0.175692 -0.560329 0.281131 -1.178240 -1.755936 0.231663 0.293811 -0.097751 -0.301100 1.100672 0.030706 -0.204244 -0.175778 0.862635 0.474457 -0.942088 -0.337721 -1.429726 0.541431 1.032665 0.880172 0.264974 0.391540 0.351171 -0.394436 0.606717 -0.416763 -0.068807 -0.027279 0.345799 -1.566159 0.247018 0.589078 -1.809394 0.655423 0.884810 0.387654 0.222552 1.230097 0.304834 0.214974 -0.437250 1.083421 -1.030880 0.164003 -0.215510 0.521912 -0.691532 1.403121 -2.125040 0.327619 -0.617084 -0.310163 0.408295 
and -0.144042 -0.363535 0.292645 0.090683 0.737134 -0.347089 0.703584 -0.126901 0.898647 -0.128458 -0.383276 0.149879 -0.082367 -0.754052 0.298175 0.584615 0.835857 -1.285344 -0.089117 -0.585689 -1.196050 -0.239696 0.153467 -0.334139 0.256767 -0.335608 0.415080 1.010916 0.558490 -1.059162 -0.288872 -0.134623 -0.619711 -0.805495 1.008757 -0.828707 -0.189959 -0.502713 1.222059 0.006738 -0.044586 -0.254353 0.414859 1.683067 0.884759 -0.683844 -0.702665 -0.008841 -0.642045 -1.239156 0.094894 -0.457140 -0.036665 -0.070169 -0.577711 -0.475454 -0.330959 1.586599 -0.245078 -0.313070 -0.413354 -1.124374 0.477984 -0.208134 0.112111 0.880917 -0.190204 -0.154218 0.359964 0.787417 -0.140626 0.355416 0.605599 0.512434 0.109168 -0.336302 0.174953 -0.955999 0.366320 -0.097798 -0.427136 0.386892 -0.052056 -0.899412 1.273570 -0.757416 0.675123 -0.206204 -0.063194 0.065786 -0.221139 -0.360393 -0.295161 0.761110 0.349016 0.901607 0.018427 0.614102 0.469948 -0.303906 
in -1.417756 -0.863488 0.383707 -0.212382 -0.937142 0.201516 -0.283331 0.330401 -0.197501 -0.733202 -0.182238 1.741063 0.287971 0.660320 0.893749 0.222919 -1.021850 -0.307711 1.161777 0.091445 -0.232224 0.613119 -0.002648 -1.513589 -0.193759 -0.950500 -0.384349 -0.159200 0.454002 -1.086021 0.114323 1.295837 0.287229 0.386557 0.504995 0.002173 0.412352 1.287933 0.492163 0.220783 -0.291376 -0.576514 0.045453 -0.081743 -0.544151 -0.800383 -0.435473 0.373646 0.555904 0.406583 -0.183695 -0.072783 -0.251812 0.318232 0.203178 -0.209676 1.237028 -0.016910 0.485521 0.559033 0.697523 -0.008199 -0.711365 -0.396729 -0.863483 -0.172977 0.797577 0.054046 0.258202 -0.020786 0.066427 0.014822 0.110948 -0.463881 -0.455040 -0.011497 0.246452 -0.281171 0.682344 1.106488 0.738312 0.071641 0.885406 -0.910400 1.346951 0.357612 1.020267 -0.339804 0.081596 -0.894054 -0.499403 -1.505664 0.000843 0.767160 -0.100469 0.779445 0.348181 0.023795 0.306048 0.537741 
to 0.141657 0.565186 0.390726 -0.846185 0.189608 1.506954 0.002538 1.138099 -0.575099 -0.068699 -0.084366 1.670108 -0.920108 -0.056794 -1.165231 2.224425 0.182845 -0.131650 -1.050856 0.674578 -0.354158 -1.083308 -0.082883 -1.007500 1.231986 -0.453321 -1.105703 0.362325 0.159116 -1.428552 0.249387 0.734129 0.441060 -0.442181 0.057027 -1.530904 0.372066 2.144246 0.011186 -0.428751 0.680448 -0.153972 0.268926 1.090685 0.420315 -0.021028 -0.189531 -0.251613 -0.781470 -0.195156 0.454862 -0.914767 0.931187 0.930744 -0.556767 -0.587401 0.310320 -0.350919 -0.265088 0.884727 -0.680686 -0.789049 -1.154997 0.738018 0.269627 -1.983677 1.676544 0.360870 0.241645 -0.656885 0.363516 0.439836 -0.144627 0.885721 0.976993 -0.715090 -0.099344 -0.566686 -0.122461 0.347417 0.024484 -0.488969 0.091624 -0.361901 -0.690981 0.905825 -0.477430 -0.105608 0.680545 0.857180 -0.991193 0.525916 -1.858166 0.578431 1.202179 0.660334 0.191609 -0.591481 -0.485247 0.282511 
one 0.594356 -1.306248 0.191689 -0.472592 1.027194 0.077403 -1.423142 -0.515102 -1.200104 1.585824 0.753740 1.874676 -0.521879 -0.112713 1.342713 -0.183459 -0.584236 0.178151 0.146127 -0.048618 0.066006 0.493364 0.805628 -1.106072 0.138169 -0.911921 -0.331661 -0.434600 -0.730760 0.055227 0.370811 0.286098 0.031538 0.197269 0.609969 1.167290 0.965100 0.410550 0.928543 0.362287 1.170577 0.046367 -1.152819 -0.140935 -0.216694 0.609864 0.075045 0.289389 0.274717 -0.019463 -1.006621 -1.328050 0.580687 -0.377318 -0.574532 0.910379 1.715166 -0.273022 -0.064280 0.938888 -1.707458 0.054812 -0.487583 -2.039883 1.195085 -0.125501 -0.065155 -0.156727 2.102126 0.852771 1.271125 -0.646403 -0.307870 -0.888869 -0.950861 -0.546655 0.993652 -0.241873 0.343357 1.888529 -1.298506 -1.190689 -0.561259 0.424821 0.438591 0.381176 0.493758 -0.409765 -0.296138 0.062023 1.226038 -0.700842 0.427324 -0.602273 -0.918832 -0.048690 0.601021 0.403384 0.507264 0.297831 
a 0.429072 0.826757 -0.253862 0.336576 0.796649 1.262493 -0.972237 -0.413893 -0.037639 2.281629 1.230748 0.460810 -0.784368 1.089948 1.397095 -0.263501 0.856352 0.010739 -0.381849 -0.894392 0.792382 -0.125852 0.890826 0.480998 -0.450163 0.646640 -0.650618 -0.420148 0.954334 1.189661 0.030536 0.575708 -0.366423 0.483345 0.088653 -0.710563 -0.492138 -1.368442 1.112967 1.186777 0.593501 -0.825867 -0.252288 0.865685 -1.049431 0.859878 0.618909 0.639388 0.394043 -0.064243 -0.117944 0.847940 0.753468 0.148507 0.870697 -1.161626 -0.303016 -1.918111 -0.033862 -0.728567 0.550191 0.279569 -0.569453 0.521390 -0.772445 0.636397 -0.086428 0.538165 0.856880 0.610172 -0.878704 0.246441 -1.333592 1.018820 -0.811613 0.009181 -0.107948 -0.953005 0.067954 -1.700191 0.848177 1.564371 0.924226 -0.491758 0.263607 0.931311 -0.312285 0.229225 -0.830118 -0.062544 -0.729230 0.665655 0.323553 1.498556 0.562946 -0.498897 0.146477 0.666961 -0.002665 0.878053 
zero 0.018979 -0.078625 0.244534 -0.206891 3.148078 -0.163946 0.502312 0.692214 -2.393124 1.693856 -0.493429 -0.737284 1.218438 1.385345 -0.448500 -0.445181 -0.525051 0.166392 0.185818 1.340388 0.649938 -0.325301 -1.045633 -1.292429 -1.757759 -0.301511 -1.646194 -0.695956 -0.187795 0.749606 0.699118 -0.092382 1.535318 0.847674 0.880111 1.506698 0.342823 0.363316 -0.116413 1.474354 0.414582 2.279100 -2.095210 0.046322 0.120293 1.996355 0.433178 -1.005141 0.585584 -1.054664 0.031455 -2.307439 -0.365234 -0.704677 0.300884 -0.927861 0.658759 -0.415586 -0.392429 -0.666771 -2.059844 0.322287 -0.330934 -1.064836 -0.133405 -0.405242 -1.114858 1.361198 1.534276 -0.500385 0.338812 -1.948671 0.987272 -1.134836 -0.871408 -0.775851 -1.248249 0.531308 -1.115582 -0.377425 -0.926187 -0.821243 0.462474 -0.020346 -0.378470 -0.176624 0.818845 2.087116 1.461641 -0.406126 1.138073 -1.229153 0.184972 0.234880 0.052899 0.103739 1.797451 2.051694 1.236568 -0.730595 
is 0.110055 -0.788364 0.642777 0.303485 -0.161888 -0.644218 0.377071 0.108551 1.686248 0.937165 1.063378 1.876636 1.406357 -0.714287 -1.161695 -0.516075 -0.743954 -0.512101 0.759045 -0.455569 0.767987 1.923574 0.539744 0.584171 -2.964063 -1.220647 0.845973 0.242973 -0.316533 0.218497 -0.363102 -0.103564 1.033519 0.680120 -1.013839 0.664719 -1.726688 0.459456 -2.177236 -1.353435 0.338748 -0.213945 -0.952948 -0.474061 -0.203804 1.529483 0.049036 1.951006 -1.109597 -0.519872 1.244665 -0.078494 -0.386304 0.802308 1.603261 -1.195310 1.284828 -1.090059 0.158292 0.822307 0.327418 -0.150322 0.400608 -0.037671 1.559331 0.756182 -0.145271 -0.487675 0.100575 0.027164 -2.212586 -1.666088 -0.247112 -0.372446 0.435510 0.232482 0.660533 -1.262126 2.396107 -0.953246 0.313726 0.806030 0.996055 -0.146962 0.149171 1.202825 -0.444452 -0.436845 -0.712480 0.075057 -0.515206 0.783159 -0.985703 1.232018 0.870137 -0.269786 -1.854070 -0.273062 -1.170976 0.080457 
nine 0.134734 -2.201166 1.127959 -0.683802 1.462048 -0.309701 -0.984704 0.482588 -1.665917 1.955472 1.474154 0.516483 0.829122 0.590275 0.312177 0.502068 1.725960 0.087335 -0.481022 0.395370 0.078457 -0.079224 0.679742 -1.259174 -0.332287 -0.500033 -0.910739 -0.160111 -0.561021 0.819110 0.249010 0.261918 -1.025088 0.370502 0.908261 2.200326 1.684885 0.254711 1.190109 1.474255 -0.263682 -0.230951 0.514099 -1.148408 -1.190301 0.453970 1.391395 -0.436249 0.718442 1.337550 -0.637258 -1.718201 -1.168953 -1.210689 0.123613 -0.411700 0.033823 0.269983 0.062210 0.192347 -2.102340 -0.219616 0.378295 -1.681563 0.879655 -0.614529 -1.278907 0.113445 2.541755 -0.324669 1.549996 -0.860688 -0.502650 -1.649585 -0.177329 -0.739564 0.983815 -0.619251 -1.098616 0.730731 -0.655608 -0.205969 -1.475719 0.925008 -0.357034 0.087343 -0.366577 -0.605956 -0.025631 -0.352381 -0.099331 -0.475764 -0.465428 -0.109317 -0.704753 0.478446 -0.944347 0.818262 0.978707 -0.823146 
two 0.273907 -0.894739 -0.124992 -0.716947 1.718398 0.119097 -0.017909 0.491463 -1.934578 0.752504 -0.429408 0.155961 0.116264 0.364391 -0.032805 0.197429 -1.035582 -0.883676 -1.622942 0.557933 -0.135120 0.351387 -0.004280 -1.755578 0.199341 -0.762077 -0.478839 -0.256601 -0.941193 -0.313271 0.717603 -0.267577 0.950188 1.831762 1.173683 2.029434 -0.140164 0.019619 -0.704514 0.500097 0.759344 1.301161 -1.730580 0.670191 -0.439871 1.170680 -0.530279 -0.976563 1.093297 0.260235 -0.574843 -1.871908 -0.440551 -1.380929 -0.572061 0.355222 0.537408 0.165183 -0.834553 0.256595 -2.361589 -0.184468 0.349932 -1.012852 0.292841 -0.054672 -0.672950 0.281923 0.063017 -0.077708 0.081138 -0.517292 1.436569 0.268363 -1.452931 -1.040163 -0.250614 -0.992174 -0.943545 -0.294889 -0.714828 -0.300335 0.698314 0.679516 -0.949518 0.762734 1.375799 0.171430 0.642590 -0.240723 2.148516 -1.013172 0.400211 0.438634 -0.296068 1.022797 0.548434 1.937971 0.612557 0.019227 
as 0.799654 1.523708 0.764353 1.006029 -0.146719 1.729495 -0.357198 -0.994494 1.235092 -0.139619 0.137818 0.640153 1.350913 -0.083108 1.228809 0.817351 2.089211 0.745897 3.009765 -1.132787 1.118299 -2.296465 1.129697 0.547252 0.775793 -0.881267 -0.537385 1.117783 -1.116270 -1.085511 -0.287935 1.172452 0.520217 0.439699 2.044680 0.256858 -0.744426 -0.633654 0.525069 -1.620018 1.069982 0.630530 -1.052398 -0.766813 -0.053601 -0.252893 -0.274940 0.106588 1.086680 -1.538820 1.032785 -0.872654 0.299833 0.298614 1.262480 -2.658640 -0.982637 -0.654642 -0.409745 0.710648 0.321040 1.070749 0.819006 1.259541 0.088231 -0.788168 -1.309942 -0.005946 1.023780 -0.517878 0.455635 -0.187988 -0.585340 -1.462322 2.203369 -0.079026 -1.434113 0.934195 0.715075 -0.905309 0.453453 0.616311 1.504938 -2.508304 0.459022 -0.764229 0.159287 -1.637659 0.339120 0.742851 -1.272601 0.553608 0.362514 0.029463 0.575397 -1.326709 0.285944 0.407377 1.211201 0.862322 
that -0.432869 1.331996 0.704730 0.566283 0.513846 0.759936 -0.813474 -0.757584 -1.439473 -0.350298 0.884820 -0.447677 -1.082418 -0.276660 -0.028098 -0.228618 -0.805198 -1.371823 -0.775991 0.046349 -1.528621 0.050769 -1.209444 -0.852358 -0.970696 -0.603013 0.752917 -1.159646 -0.063473 -0.771655 -0.071968 -0.546674 -1.788916 0.865524 0.194970 -0.278157 -0.933710 -0.197313 0.286892 -0.795466 0.597120 0.331632 -0.298176 0.556114 -1.160190 -2.130853 -0.840258 0.812008 0.232294 -1.071599 -0.627560 0.051437 1.737752 -1.105625 1.521711 -1.566225 -0.760048 -1.371603 0.110445 -0.415603 -0.480953 0.255530 -0.421988 0.607156 -0.828449 -0.702462 -1.409441 0.749162 -0.544788 -1.687066 0.985766 -0.099174 0.771330 -0.340596 0.981113 1.426606 0.560906 -0.860523 0.010386 0.340980 0.529588 0.368511 -0.285116 0.055710 -0.700461 0.687942 -0.822846 0.442358 0.694124 -1.212056 -1.270188 0.196306 -0.274899 -1.599347 0.971631 -0.178423 0.459624 -0.102311 0.128438 -0.616632 
s -0.560574 -0.340425 0.610154 -0.561290 2.229498 0.247186 -1.344987 0.055763 -0.485753 -0.577889 -0.048335 -0.129550 -0.889215 0.815983 -0.342553 -0.127623 -0.266215 1.071196 0.466380 -0.474176 0.047665 -0.207838 1.719537 0.238044 1.201617 0.922841 -1.448741 -0.569185 -1.399814 -0.385315 -0.814728 0.508067 -2.192868 0.936246 -0.414611 -0.201422 0.466942 1.785829 -0.997439 -0.284716 0.907397 0.647516 -2.959899 1.584835 -0.584787 0.518512 0.593592 0.347878 0.519471 -0.908426 -0.055924 -0.593046 -1.476905 0.311777 -0.692188 -0.654157 -0.191789 1.139028 -1.133433 1.652828 0.884190 0.267378 0.280943 -0.223526 0.630372 -0.614528 -0.750451 1.246950 1.563958 -1.122490 1.330737 0.357982 -1.307656 -0.912293 0.171452 1.013231 -1.409191 -0.797859 0.447391 0.541470 0.984518 -0.551033 0.212892 0.006144 2.083809 1.957254 -0.360497 -1.550228 -0.402400 0.122233 1.061979 1.098604 0.229750 2.326953 0.309613 1.853628 1.454136 1.710175 0.591784 -0.176054 
by -0.395067 0.879423 -0.079177 -0.131346 0.684714 0.273036 -0.406526 0.297264 -0.732497 0.648843 -0.313596 -0.313276 -1.674301 0.187925 -1.119290 -0.114958 0.437009 1.228392 -1.095895 0.661510 -0.722609 -1.242752 -0.454300 -0.318178 0.549924 -0.103163 -0.346639 -0.029429 -1.091226 0.510773 -0.101744 1.766596 -0.098770 1.250333 -1.622750 -0.507028 0.795138 1.002993 1.148821 -0.236089 -0.164494 -0.893643 -1.235441 0.941693 -0.738932 -0.430958 1.505064 0.461624 -0.280495 2.107852 0.311059 0.939656 1.689905 -0.494732 0.045202 -1.122101 -1.131537 0.574309 -0.537943 -0.666683 0.991516 0.001644 -0.683545 0.241537 -0.552213 0.580523 0.639009 0.807921 0.700265 -0.182309 -0.066007 -2.121451 2.492572 -0.896588 0.420737 0.448687 0.494385 0.429959 1.222302 -0.878665 0.639368 0.843876 1.419364 -1.189821 -0.181823 0.095641 0.554764 0.498134 1.591370 0.683018 0.350886 0.800143 1.441054 -0.235406 0.558999 -0.658440 -1.028541 0.284052 0.400955 1.286896 
for -2.159822 0.166080 0.555169 -0.095931 -2.216743 0.432423 0.058425 1.438719 -0.043916 1.546362 0.486047 -0.535252 0.548681 -1.078372 -0.448839 0.056003 -0.214636 -1.522983 1.417127 1.099250 0.845642 -1.166109 1.261263 -0.272517 0.166092 -0.712233 -1.011203 0.431893 -0.741691 0.262640 0.421331 1.159190 -0.762258 0.332333 -0.027460 -0.009213 -1.176623 0.700696 1.172256 -0.838290 1.278453 0.520786 0.234354 -0.204810 0.479388 1.058492 0.200163 -0.297271 -1.187970 -0.230878 0.353437 1.109669 2.020004 -1.705053 -1.234046 0.537220 0.380886 -1.280490 -0.800902 -0.103407 -1.227378 -1.250770 -0.490458 -0.247799 1.085343 -0.586107 -0.935883 -0.180830 -0.374413 0.037353 0.151842 0.232106 0.819703 -0.856307 -1.531805 1.980450 -1.577955 1.724387 -1.239461 -0.370559 -0.177364 0.839200 0.642244 0.214674 -0.373220 -0.116788 0.641986 0.101718 1.805022 0.691618 -0.096959 -0.262529 -0.506431 -0.360124 0.876401 -0.416879 0.079798 -1.470335 -1.558448 -0.885809 
was 0.040770 0.064660 0.492916 -0.535326 -0.501471 -2.357327 -0.876169 -0.363839 1.269054 0.521657 0.654604 0.603938 0.659783 0.137124 0.534707 -1.485029 -0.044458 0.587616 -0.430577 1.003082 0.920027 1.262247 0.990933 0.470834 0.871486 -1.154690 -0.090854 -0.525037 -1.684199 0.086200 -0.419192 0.633111 0.927645 -0.039089 2.209318 -0.108818 -1.622050 0.629078 -1.425430 -2.131667 -0.226652 -0.017141 -1.458136 -0.101163 -1.977928 1.699646 0.594903 0.815541 -0.662295 0.907811 -0.119659 -0.883659 -1.176867 1.280297 2.260031 -0.947996 1.150731 0.909733 1.908071 0.724251 0.143232 0.081442 0.248391 0.594127 -0.121097 0.556424 -0.456275 0.414537 2.533972 0.042032 -1.626878 -2.389450 0.534666 -1.631128 1.696386 0.086110 1.244863 -1.856868 0.743426 0.695624 -0.532686 0.873914 -0.083655 0.067178 0.868198 -0.012371 -0.778314 -0.252372 -2.517351 0.506876 -1.010064 0.259692 -0.771242 -0.237637 0.280160 0.808690 -0.218160 -0.206455 -1.291197 -0.466694 
six 0.179703 -0.587725 0.827457 -1.394796 2.260170 0.205889 0.460221 0.888383 -1.821548 1.953501 1.207761 1.781477 -0.268659 0.701151 1.370165 -0.599165 0.795091 -0.436230 -0.179433 0.779067 0.739858 -1.098338 0.936170 -1.960025 0.021127 -1.389803 0.051646 0.627300 -1.160725 -0.154851 1.484084 1.103819 -0.227143 0.309029 1.534411 2.293573 0.901869 -1.048723 0.454120 0.017806 0.297884 0.019084 0.015361 -1.073799 -0.329666 0.746529 -0.559236 0.389153 -0.087943 -0.316982 -1.189567 -1.178042 -0.515522 -0.617972 0.077718 0.181344 0.007943 -0.244600 0.407792 0.559816 -1.483352 0.367885 -0.398856 -1.468256 0.315711 -0.688143 -0.983828 0.154854 1.510259 0.469360 0.606886 0.236113 0.498966 -0.969523 -1.259729 -0.520377 1.148752 -0.175315 -0.034528 0.661225 0.250850 -0.798564 -0.410915 0.248294 -0.236341 0.395238 -0.337990 -0.433766 -0.096354 -0.923585 0.054539 -1.023620 0.645129 -0.481429 -0.573569 0.406539 0.153333 1.029706 -0.862853 0.176105 
on 1.470417 1.231568 1.623482 -2.028816 -1.475344 0.686808 1.144463 0.658337 -0.380188 0.862106 0.221389 0.110657 0.179049 1.395304 2.993927 -0.425223 0.442924 0.008502 -0.663817 -0.426644 -1.638659 3.018404 0.670388 -3.398271 0.185237 0.152970 0.249975 -1.091726 1.100682 -1.537910 -1.124888 -0.785226 -1.084647 -2.013277 0.683078 1.744489 -1.231118 0.130795 1.764323 -0.033006 -0.525141 0.498519 0.113685 -1.249482 -0.440055 -0.852611 -1.866184 -0.975111 -0.116384 -0.174340 0.123143 -1.216257 -0.685084 1.110150 -1.604092 -0.237883 0.284538 0.289253 -0.761426 -1.174960 0.410012 1.507228 0.992061 -0.293087 -0.072752 0.750382 -0.227168 -1.730529 0.215990 -1.237845 -0.721415 1.867635 0.616095 -0.108049 -2.643173 0.854569 1.431516 0.934297 0.853161 1.139999 -0.211345 -0.689451 2.130485 0.068512 0.563041 0.080709 0.018408 -1.065380 1.291989 0.836211 -1.861354 -0.518826 -0.310654 0.591851 -1.517082 -0.806842 -0.987812 -0.736370 -0.746447 -0.456143 
with -1.560122 1.905432 0.303012 0.822721 0.873242 0.056922 2.309961 1.126337 -0.278174 -0.302398 0.133702 0.360406 -2.720365 -0.513026 -0.259004 -0.274447 -1.308865 1.270413 -0.082258 -0.702647 1.836819 1.133449 2.342394 0.078757 2.065416 0.527614 1.829024 0.007690 1.127766 -0.036980 -0.458896 -0.341410 1.138755 1.310827 0.568218 -0.348265 -1.603449 -0.098459 0.546967 -1.017299 -0.677991 -0.532850 -0.199857 0.331572 1.374308 -0.686997 0.981270 -0.481134 0.952511 -0.196251 -1.254368 -1.232787 0.424609 -0.294056 -2.161684 -0.095638 0.149762 1.471521 -0.841366 -0.168331 0.231318 0.258514 -0.124402 -1.395757 0.952059 0.521045 1.048920 0.779904 0.939544 -0.664696 -0.964439 1.798490 0.626191 -1.303256 -1.215020 1.041919 -1.238875 -0.380701 -1.168744 0.060835 -1.248986 0.461407 -0.429453 0.131565 -0.209306 -0.747668 0.529192 -0.242268 1.081516 -0.530629 1.204396 -0.005752 -0.109872 1.763097 -1.265748 0.581213 -0.399006 1.125870 -0.308552 1.550556 
eight 0.185823 -1.771271 1.288773 -0.382182 1.447704 -0.660759 -0.947546 -0.572590 -2.348761 0.976942 1.457921 0.338548 1.124063 0.299585 1.065145 0.337038 -0.067269 -1.338961 -0.230952 0.461743 0.399994 0.554266 0.144304 -2.032971 -0.302831 -1.417284 0.901856 -0.447884 -0.732830 0.788802 0.498172 0.232434 0.023336 -0.808719 1.653570 2.252203 0.706164 -0.377924 0.464321 0.997424 0.860168 0.237232 -0.264373 -1.474210 -0.274079 1.203733 0.659403 -0.571240 0.149444 1.128112 0.116367 -1.204410 -0.736183 0.017081 0.923537 -0.216835 0.038974 1.424551 0.586527 0.253074 -2.509886 -0.144282 -0.130721 -1.593735 0.387053 -0.662375 -1.593220 -0.205240 2.388684 -0.430100 1.726905 -0.695195 0.334255 -1.117016 -0.372158 -0.664063 0.427028 -1.095657 -0.524784 1.620080 -0.860401 0.409873 -1.030591 -0.591067 -0.346848 0.163150 -0.692813 0.031785 -1.697140 0.039721 -0.130321 -0.497398 0.631103 -0.629361 -0.541994 0.828362 0.187230 0.640960 -0.479948 -1.009052 
he -0.811722 -0.312860 -2.858626 0.653568 -0.324537 -0.542952 0.220813 -0.916540 0.084661 1.291295 -0.043054 2.344768 0.298902 0.834677 0.092805 0.658703 -0.033430 1.602795 -1.930810 0.480045 -0.744193 -0.769558 -0.502106 -0.777488 -2.251884 -0.398039 1.761254 -1.097000 -0.468165 0.597260 1.448552 -0.277585 -2.758404 0.853150 2.184713 -0.704244 -0.306669 2.584569 1.849154 -0.588212 0.911493 -1.424332 -0.449210 0.322646 -0.402872 -0.276811 -0.286902 0.181118 -0.373810 -0.038582 1.797019 -1.126847 1.225963 1.107051 -0.628891 0.346780 -2.547412 0.392255 3.104847 -0.781721 -0.443234 1.078014 -2.083060 -0.996716 0.085027 1.690896 0.769065 -0.587968 -1.732965 -0.953827 -0.900334 0.256537 -0.703233 -0.192548 0.886902 0.475074 0.035056 0.274593 -0.707135 0.073715 -1.467500 1.039998 -1.099130 -1.343174 0.000620 0.482952 0.170140 -0.539485 -1.399735 -0.270257 0.961345 0.424877 -0.116437 -0.814893 -1.810263 0.778678 -0.726496 0.206596 0.467919 0.857231 
four 0.418951 -1.046398 0.333329 -0.876724 1.172726 0.198074 0.055416 1.124144 -1.633448 2.192671 0.879171 1.492636 0.112714 1.032637 1.172574 0.150429 0.590619 -0.479943 -0.750054 0.117352 -0.385678 -0.419114 1.028635 -1.875657 -1.734284 -1.159664 0.540873 0.405507 -1.061088 0.325531 1.311386 0.467670 0.285753 0.752800 0.726936 2.581216 -0.024906 -0.960926 0.077057 0.534433 0.424924 -0.293635 -1.277079 -0.693965 0.453553 0.231166 -0.160788 -0.357978 1.083026 -0.480985 -0.276612 -2.393793 -0.560933 0.095440 0.775530 -0.534937 0.703388 0.088177 -0.199793 -0.170159 -1.214155 -0.200559 0.011331 -0.207327 0.187257 -0.404861 -1.297745 0.269095 0.450908 0.933788 0.993672 0.358528 -0.077153 -0.225498 -0.217127 -0.440225 0.502461 -0.406937 -0.009929 1.647935 0.346461 -0.608827 0.755330 -0.627795 -0.468938 0.958018 0.331853 0.419199 0.213527 -0.031419 1.690995 -0.676867 1.267729 0.426797 -0.276328 -0.326312 0.594497 1.924650 0.008315 -0.200067 
three 0.461634 -0.832634 -0.273517 0.303198 1.549497 0.161677 0.310354 0.075418 -2.444529 0.927064 0.738789 0.501413 -0.264766 0.273896 0.577148 -0.361582 -0.623054 0.946868 -0.048603 -0.504985 0.546363 0.067414 0.871210 -0.638341 -0.471626 -1.364283 -0.376871 -0.099648 -1.694805 0.464340 0.640136 1.278069 0.318578 0.002375 0.953054 2.381900 0.419995 -0.922580 -0.151107 1.248302 0.645412 -0.945341 -0.697601 -0.513848 -0.271452 0.651253 -0.598800 -0.157955 0.427092 -0.368204 -0.902333 -1.622501 -1.010308 -0.596466 0.307805 -0.973503 0.775211 -0.589683 -0.197365 0.176558 -1.298698 -1.179445 -0.145662 -0.661680 -0.122366 0.474964 -1.029909 0.817826 1.168612 0.196848 0.831336 -1.003679 0.490899 0.048544 -1.131543 -0.012915 0.281553 -0.209638 -0.282710 0.236594 -0.915186 -0.691781 0.643215 0.120447 0.337249 0.401282 0.001119 0.386800 0.400188 -0.233426 0.641632 -0.955813 0.731735 0.168165 -0.227288 0.546783 -0.243021 2.252598 1.156232 -0.725163 
his 1.204172 0.596547 -3.737322 -1.240671 1.655537 -2.252226 -0.188575 -0.311571 -0.965799 -1.069350 0.821407 0.792031 -0.660490 0.573111 1.505539 -0.403716 0.057338 0.036522 0.091196 1.783703 0.352697 -0.690059 -0.321869 -1.789991 -0.990953 1.044755 -0.520552 -0.129670 0.190004 1.565111 0.107982 -1.773306 -3.833111 -0.119056 0.953141 -0.833843 -0.797485 1.279406 -1.109200 -1.974751 0.276847 -1.067266 -0.731116 1.157763 0.629793 2.131020 -0.343453 -0.330301 -0.371855 -0.124572 0.735263 0.115276 1.567248 -0.532717 -0.521926 -0.513650 -0.035895 -0.931824 0.586953 -1.807153 2.033830 -0.331601 1.376696 0.120718 0.107229 -0.177116 0.875653 -0.160572 0.115377 -0.337021 0.031166 2.018367 0.030962 1.251967 1.498144 0.074761 -0.401676 1.029208 0.231769 0.321432 -0.026904 1.203534 0.253157 0.091714 1.167787 -0.690511 1.203803 0.794376 -2.224644 -0.828733 -0.878567 -0.484920 -0.415596 0.312776 0.320320 2.002061 1.187188 -0.277474 -1.045905 0.997567 
five -0.735017 -1.260803 -0.479930 -0.070763 2.183178 -0.510921 -0.444397 -0.787237 -1.980105 2.020473 0.358864 1.261482 -0.180450 0.767804 0.702453 0.324775 -0.480845 -0.326785 0.535988 0.156832 0.219056 -0.492352 -0.479018 -1.443176 -1.174533 -0.576223 -0.945904 -0.916004 -0.029539 0.401438 0.498494 1.095856 1.227643 0.529061 0.773034 2.173705 0.583873 0.304305 -0.164713 0.914210 0.825232 0.208279 -1.078926 -0.908187 0.204699 1.551883 0.681865 -0.658968 0.988446 -0.644402 -0.862497 -0.864340 -0.269185 -1.148579 0.582931 -0.521925 -0.684096 -0.570676 0.361613 0.064543 -0.997576 -0.153808 -0.798117 -1.706079 0.345087 0.401630 -0.656345 0.395022 1.317575 -0.031792 1.165179 -0.574568 -0.294268 -0.664298 -1.470470 -0.369057 0.463529 0.470894 -0.056975 0.539503 -0.728100 -0.270947 -0.067643 0.222249 -0.019995 0.819881 1.016664 0.199051 0.406293 -0.890915 1.268640 -0.923694 0.455813 -0.367350 -0.121331 0.807297 0.161116 2.050237 1.113760 -0.799815 
or 1.869697 -0.665696 -0.526988 1.890654 0.606245 0.880897 0.035240 -0.591129 -0.898503 -3.113289 3.480835 0.662145 -0.971935 0.064599 -0.737605 -2.411251 -0.834392 0.260693 0.346876 -2.434667 -0.307383 0.994050 1.182623 -1.757174 -0.823598 0.717082 1.980918 -0.118151 1.632213 1.116578 0.414186 -1.595183 1.757417 -1.771581 0.493273 -1.138269 0.404594 -3.244226 2.467380 0.026637 -0.051844 0.277514 -1.075319 -0.368237 -0.327786 -1.409797 -0.824083 -0.032531 -1.303518 1.698932 0.265017 -0.190976 0.675630 0.111473 -0.599107 -1.192142 0.647217 -1.380787 -0.831265 0.651137 -1.631539 -0.282724 -0.528891 0.762075 -0.096790 -0.810140 -0.171995 0.817455 2.845237 0.878743 0.611550 1.196362 1.293998 -0.372150 -1.203074 -0.739186 0.947515 -0.480881 0.241547 -1.868745 2.650066 1.350874 1.344548 -0.698110 -0.207798 0.412433 -0.225579 -0.137200 0.838358 0.777668 -0.094510 -0.143089 -1.065531 -1.285179 1.036231 1.536254 -2.697021 -0.026831 -0.472545 -1.863649 
it -0.047032 0.654126 -2.218459 0.176700 -0.569573 0.098806 -1.942197 -2.171461 -0.867656 1.017620 0.828091 0.915832 -0.620811 1.470645 -1.209510 -0.181557 -0.690928 0.298309 -0.994902 -0.097117 -1.723303 0.610289 -0.463092 1.505883 -0.387523 -1.794960 0.332247 0.636441 -1.135410 -1.656427 -1.245464 -0.687012 -0.649241 0.672608 0.196899 -0.696147 -0.544911 0.602066 1.456536 -0.317176 1.220710 -0.102383 -0.021207 0.885606 -1.682980 -0.172088 0.698523 0.986075 -1.023336 -0.484464 1.232227 -0.295909 1.634295 -0.069484 0.104055 0.796404 -0.790308 -0.583165 -0.548922 -1.042894 -1.001627 0.404897 -0.663734 -0.744677 0.750894 2.177172 1.044378 -1.059880 0.017160 0.567468 0.071704 -0.950687 0.524437 -0.371498 -0.146167 0.470587 1.250465 -0.188011 -0.716516 0.440091 0.530587 -0.495620 -0.968051 -2.154865 -0.973086 0.539534 -0.367809 -0.479704 0.393761 -0.904803 0.482282 0.847886 1.501382 -1.176365 -0.221993 -1.228531 -0.005532 1.393565 1.175392 1.186303 
from -0.951652 -0.462115 -0.167211 -0.203326 -1.158737 0.596472 1.327130 0.911161 -0.034057 -0.281442 0.440057 -1.365830 -0.338294 0.061496 -1.326344 0.914531 0.287152 0.118227 1.157854 -1.185530 0.934624 1.554811 1.635187 -1.851143 -1.089306 0.590842 -0.087750 -0.307188 -0.842690 -2.459958 1.815270 1.403273 0.401727 0.808908 -1.956181 -0.493656 -1.395346 0.669367 1.337032 0.495306 -2.079904 1.746144 0.155727 -0.639283 -0.958033 -1.910956 1.779044 -0.552787 -0.267830 -0.981727 -0.249049 -0.377236 0.131003 0.053159 1.178930 -0.383093 0.019752 0.584516 1.795603 -1.339574 -0.925671 -1.011661 0.723915 -0.223749 -0.863640 -1.002187 -1.388338 0.737802 0.272205 0.323048 -0.103910 -1.016173 0.955158 -0.027676 -0.866167 1.061041 -2.471519 -0.948732 -0.370571 0.773113 -2.816736 0.159987 -0.201519 -1.731177 0.173848 0.411120 -0.799838 -0.805516 1.188085 0.625958 -0.966647 -0.862666 -1.267372 2.635828 -0.087823 -0.584129 0.400241 0.844285 -1.768511 0.817357 
are 1.418762 -1.261440 -1.038709 0.214275 0.222127 -2.697474 1.941734 1.260519 0.642933 -0.314404 0.571124 3.566631 0.904295 -2.142333 -2.324772 -1.061860 0.781993 -0.729012 0.227441 0.301533 0.888539 -0.327968 0.881967 2.099213 0.298350 -3.518535 1.707151 -0.642390 0.260695 -1.158386 -3.271653 -2.059925 3.748438 -0.255647 -0.404534 -1.122414 0.039139 -0.797029 -0.882699 -2.128229 0.163319 -0.189283 0.567790 0.080550 -1.618264 1.124855 0.522526 0.413103 0.812076 -1.154838 -1.009037 -1.126330 -2.951116 -0.608917 -0.437867 -1.970833 -0.236744 -0.243178 -0.809646 0.498487 1.358788 0.435072 1.516825 0.672835 -0.266936 0.741756 -0.039856 -1.989029 -0.807703 0.197439 -1.956711 -2.796326 -0.502047 0.609469 -1.025814 -1.988195 0.489547 -1.458158 0.762464 -1.267869 0.852448 0.087460 1.982820 0.503278 1.387505 -0.412797 1.260437 1.403577 0.272118 -1.016359 1.627560 1.269201 0.555470 2.388885 -1.372059 -0.805432 -0.101657 -2.090206 1.347831 0.313837 
seven 0.993231 -0.487951 0.737087 -0.337289 1.695787 0.472137 -0.334564 -0.216680 -1.707327 1.364079 1.699027 1.527431 0.115757 0.637189 1.210680 -0.223134 0.939676 0.271262 0.558977 0.095519 1.677451 0.217543 0.839312 -1.949092 -1.002523 -1.479697 0.158353 0.089405 -0.825309 1.132373 1.707898 0.588982 -0.574684 0.856946 0.322611 1.729837 1.197737 -0.133797 0.000942 1.101771 0.230822 -1.404685 0.616641 -0.578062 -0.674071 -0.054686 0.335699 -0.290978 0.080618 -0.254062 -1.139516 -0.806220 -0.283080 -0.868862 0.774467 -0.786052 -0.031913 0.644734 0.117100 0.199277 -1.136699 -1.337390 -0.848107 0.059110 -1.104204 -0.187516 -1.298957 1.173444 2.292571 1.894049 0.778783 -0.304603 0.819847 0.084279 -0.355785 -0.400854 0.950257 -0.195473 0.033854 1.557091 -0.520474 -0.241492 0.916579 0.197387 -0.932467 -0.163110 -0.195430 0.110047 -0.375018 -0.587182 0.914783 -0.236806 0.153885 0.278749 -0.525056 0.331887 0.207346 1.287803 0.170135 0.269343 
an -0.718604 -1.947400 -0.928047 -0.386695 0.466424 0.310401 -1.784231 1.458929 -0.979289 -0.576308 1.275127 0.698544 0.271859 2.364778 0.665699 -1.440709 -1.728693 0.905590 0.331774 -1.170084 -0.103518 0.387444 1.412842 -0.849999 -1.005034 0.791314 -1.475460 -1.769388 0.402957 2.484197 -0.939825 -0.699651 -1.244965 1.071141 -1.100779 -1.415832 -0.089836 -0.928421 -0.088679 1.218299 -0.217871 1.300454 0.084077 1.263604 -0.466603 1.003485 -0.496358 0.819358 -2.079655 0.950936 0.284683 0.442415 -0.201041 -0.506473 1.690011 0.954652 -0.299524 -3.023249 -1.777040 -1.831071 -0.670394 -1.050871 -1.198128 0.932611 -1.433876 -0.288095 0.370782 2.344935 -0.679760 -1.497128 -2.167445 -1.128118 0.945583 0.743860 -1.220394 -0.982869 0.222918 0.663896 -0.482644 -0.171598 0.372009 1.866286 1.226477 -0.041683 0.276542 1.177453 -0.322173 0.582222 -1.151553 2.212809 0.470503 -0.850055 0.372524 2.099170 -0.680128 0.568536 -1.348071 -0.155486 -1.312066 -0.595764 
be 0.612792 -0.355935 -2.513750 -0.635824 -1.403230 0.671320 0.951760 -0.687453 0.977917 0.278260 -0.915069 -0.172862 -1.843875 -0.412711 -1.942300 -1.174774 -0.356242 -1.740172 -1.657290 0.701731 -2.696975 2.233799 -2.210626 1.481312 -2.220618 -1.007180 0.044168 -2.195906 -0.206135 1.216533 -0.560875 -1.048065 0.489390 1.694796 -1.140494 -1.284369 0.101672 -0.675997 1.010259 -3.561862 -0.115654 1.301062 0.513126 -0.830952 -0.372477 2.470158 1.444456 2.216823 -0.586644 -2.341349 -1.135790 -2.769748 0.528464 -1.693219 1.617677 -1.292131 1.427139 0.688101 4.545608 -2.342630 -1.909419 2.412112 1.208660 0.633389 -0.950976 1.290601 -0.826581 3.595848 -1.242106 -0.812794 -1.238343 -0.721561 -0.512545 -0.918240 3.161403 -3.257963 -0.640132 -0.736121 -2.357803 -0.361762 -0.980689 -0.444709 -1.290638 1.567204 -1.383018 -0.933656 1.101811 -0.180381 -0.836372 -1.060816 -2.253512 0.212675 -0.369978 -1.261878 0.829453 -3.394859 -0.705343 0.723568 -1.552306 1.199944 
this 0.185854 0.351175 -1.263889 -0.256446 1.021895 1.922466 -1.669183 -1.191590 -1.013242 -1.031109 1.033289 -2.375709 0.693958 2.175891 0.974226 -0.147844 -1.014105 -1.568195 -1.190940 -0.249620 -1.545398 0.144754 -0.985325 -0.408853 -0.067836 -1.398103 -1.004415 -1.706378 -0.745366 0.930193 -0.816839 0.144827 -1.381424 1.064653 -1.476649 -1.190975 -0.807334 1.055356 1.304162 -0.088868 1.434293 1.595719 0.843564 0.586396 -1.336613 1.793964 -1.502087 0.573257 -3.240976 -2.129482 -0.644773 -0.544592 1.009279 0.517228 0.328130 1.862223 0.606263 -1.160765 -2.681852 0.908051 -0.689027 -0.242881 -0.397741 0.596043 -0.358506 0.448834 1.808355 -1.164551 -0.090332 -0.304734 1.327137 0.655196 0.103605 0.470761 0.232078 0.844818 -0.129311 0.442527 -0.535434 -0.123917 -1.424938 0.006170 -0.769275 0.103150 -1.861230 0.921058 0.022085 0.390496 0.016294 0.039583 -1.107562 -0.926887 0.659558 -0.741294 1.240414 0.162376 1.017620 -0.820034 1.173381 0.551988 
which 0.928483 -0.362143 0.407492 0.425515 1.335544 1.509057 -0.819785 -0.944108 -0.813316 -0.282744 0.680212 0.336969 0.069498 0.825411 0.344592 0.335821 0.713026 -1.385211 -0.679108 -0.028167 -1.711493 -1.185351 -0.835072 -0.307365 -0.252445 0.054414 0.861781 -1.058179 -0.710912 -2.524678 -0.086327 -1.670123 -1.169301 0.773135 0.380263 -0.451076 -0.491063 -1.532405 1.547671 2.520379 1.372465 -0.274549 0.643792 1.110062 -1.596540 -0.379193 -0.284838 -0.161338 0.700672 -0.124782 -1.158611 0.620198 1.418132 -0.944201 0.455855 -1.681610 0.315539 -1.111954 0.200280 -1.941120 -0.233608 2.048522 -0.099165 -0.770014 -0.719994 -1.390733 -1.595445 -0.184387 0.754921 -0.598276 -0.471067 -0.671492 1.676725 1.059964 1.270514 -0.401855 -0.233014 -0.265930 0.542943 -0.077798 -0.519502 0.144019 0.202487 0.328419 0.129414 0.515571 0.394047 -0.084929 1.197261 0.267626 -2.877956 1.223119 0.027239 0.288322 -0.060747 -1.040803 0.801089 0.522028 -0.429059 0.000092 
at 0.946045 -0.087925 0.816648 -0.876742 -2.900096 -1.793080 0.837178 1.571518 3.190443 -2.429538 1.120846 0.692461 0.392471 -2.266378 -0.355754 0.111005 2.214971 -1.437614 1.141837 0.736377 0.177895 1.018411 2.589280 -2.871449 -2.423908 2.578645 -1.198175 2.672992 -0.915633 -0.185178 1.991154 0.538102 -0.351634 0.242090 0.349562 0.251447 -2.730127 -0.450953 1.347501 0.832764 1.837665 1.116879 -2.021251 -1.039374 -0.899547 1.116313 0.991842 -0.083216 2.971218 1.865620 0.082149 -1.326383 0.519249 -3.141395 -2.590862 0.271181 0.376708 -2.605816 1.172552 0.270025 0.255701 0.261022 1.110836 0.682200 -2.061131 2.990943 0.992240 -0.224752 1.000199 2.096355 -0.230047 -0.037783 1.048132 -2.048564 -0.551923 -2.134277 0.964453 2.828979 -1.268533 1.472991 0.901394 1.266383 -2.235201 0.402142 1.851331 0.114064 -1.029291 1.585374 0.449863 -1.840039 1.777632 -0.219084 -1.792268 -1.508958 -0.669063 2.466408 -1.082848 -2.229254 -0.642252 0.053316 
not -1.800034 0.649416 0.552830 1.649436 0.104974 1.330989 -0.311054 -3.785018 -1.527868 0.825834 -1.246606 1.185341 -1.115305 -0.200261 -2.004310 1.871695 1.067205 0.651278 2.358667 -0.626419 1.547163 0.744460 0.840770 -0.501425 -1.525891 -0.817700 0.318560 -0.380762 -3.041845 -1.631336 -1.440144 -0.891719 -2.527974 -0.106780 0.728217 1.907395 0.935058 -0.194782 -2.750299 2.097143 2.277202 -0.761962 1.005826 -1.739062 1.754829 -1.613329 0.111493 1.274954 -1.668279 -0.640836 -0.096895 -0.658144 1.239085 -1.588392 -0.233183 -1.320933 -1.711190 -0.568300 0.334057 0.914721 -0.826546 1.109022 3.882449 -1.840496 -1.133428 -1.375185 -0.271344 -0.365164 1.599231 -1.632986 0.838102 1.103882 -1.683146 0.474530 3.541850 2.845881 1.585270 -0.216735 -2.898590 -0.000916 -1.052610 1.911986 1.460770 -0.869226 -2.280550 1.711080 -0.359276 -0.128518 -1.034404 0.823587 1.294778 0.950275 -2.181726 0.213229 3.160098 -0.898169 1.424529 -0.968489 2.064798 1.284744 
have -2.008557 0.838960 -0.185121 -0.592419 -0.753589 0.805132 1.579947 0.060744 1.595707 0.031059 -2.223729 -1.580064 -1.656370 -0.995952 -1.385365 -2.546916 0.580763 -1.389533 -1.382857 0.449757 -0.467046 -0.639615 -0.203489 2.513421 -1.156834 -0.441767 2.410814 -1.933604 -1.257392 -1.202662 0.167767 -0.823764 -1.368863 0.489773 -0.049101 -0.295860 1.676046 -2.985319 0.686347 -1.664350 0.948787 -1.923249 1.386791 0.111984 -3.340241 0.212323 -0.173226 0.312241 -0.441710 -0.541457 0.641636 0.738804 0.120001 1.070392 -1.432955 0.248874 -3.232621 1.606862 1.383039 -2.631648 0.124669 2.404333 -0.718771 -0.728616 -0.426118 -1.194898 -0.436871 1.083119 1.261046 3.212053 -0.421453 -0.766561 -0.062069 -4.730771 1.994377 -2.955636 0.625937 1.301470 -0.371656 2.715267 0.305603 -1.157902 1.143837 -1.592264 -1.719827 1.631287 2.252006 -0.894547 2.281755 -4.899641 1.603631 -2.106665 0.055755 0.934955 -0.066735 -1.996302 2.587082 -2.582205 -0.883835 -1.087735 
also 0.049876 -0.130817 0.209818 -1.933006 -0.384595 2.156462 2.099641 1.312188 1.875549 0.872382 -1.141069 0.062610 -1.865527 0.015759 0.776429 2.714998 -0.288004 -1.292237 2.904250 -0.841876 -0.487071 -1.336377 0.917949 1.111229 -0.521161 -0.769249 1.799533 -1.191341 -1.149933 1.731163 -0.673580 -1.059049 -1.611375 1.190622 -0.478851 -1.827856 2.335560 -2.706760 -0.183065 0.966754 0.027901 0.984465 -0.406281 0.803223 -2.373581 -0.001819 -2.266390 1.733663 -1.471328 2.181663 -0.630813 -1.489291 0.138000 -2.607856 1.996623 -0.187935 2.485081 -1.827604 -1.705470 -0.232100 -0.427094 0.652305 -0.546377 0.076014 -0.686155 -0.821912 0.803386 -0.158735 -0.564505 1.145966 1.041764 -0.263235 0.436605 0.874764 1.657449 -1.145210 -1.270066 0.669464 -1.655343 -0.741993 -2.143632 -0.993367 0.888809 1.609853 1.884415 0.796911 0.680119 -0.857719 0.594632 0.909424 -3.369452 -0.579005 1.847775 -0.243611 0.628213 0.583285 0.719030 0.059428 2.095515 -0.399160 
lincoln 1.926307 2.790565 -3.188301 -0.248019 1.703144 -0.985541 0.627104 -2.944366 -2.792737 0.065327 2.100674 1.692511 1.413104 -1.559434 0.840276 0.987308 -1.467154 -1.769572 1.343366 3.809647 -0.483961 -0.665836 -2.058580 -1.494205 0.036546 -1.187046 1.710608 1.830723 -1.541864 0.810203 -0.887031 -0.085322 -3.343129 0.814297 1.122249 -1.063722 2.400436 -2.018347 3.263511 -1.740018 1.127201 2.337599 1.006801 -0.055705 1.428129 0.644798 0.939746 -0.797613 2.645164 4.491031 2.510266 -0.562614 -0.502283 0.346154 0.863288 -0.154771 2.277400 3.906806 1.963249 -0.695934 -1.869747 1.819901 -0.391630 -0.515171 1.626680 0.883185 0.009291 -1.375315 1.525277 -0.800645 -1.538681 0.289069 -1.327371 -0.587480 -0.100196 0.190063 -1.658463 0.507967 0.576230 -0.563445 1.395131 -1.263262 -0.997896 -1.560101 -0.288106 1.508507 -0.567622 3.362910 -2.445650 -2.752673 -0.397379 -1.315949 1.581435 -4.771549 -2.685328 -0.222808 0.962687 -1.860526 -1.229948 2.299045 
has -2.361204 -0.060207 0.985792 0.709324 1.149463 -1.462148 0.311528 1.658787 3.627431 1.426036 -3.182455 -3.358750 0.469116 -2.395480 -0.973014 0.150070 -2.001796 0.110270 0.800190 2.534039 1.526128 -1.645690 0.900779 0.982535 -1.344296 0.490842 0.637747 -3.166248 -1.544404 0.164087 -0.277151 -0.172701 -0.231904 1.611956 -0.039480 0.748160 1.019332 -2.953074 -2.457004 0.299318 1.440051 -1.488877 -0.100571 0.265748 -2.226661 3.314286 -0.508501 0.628385 -0.664977 1.829796 3.377995 3.710787 2.022521 1.877938 0.045737 -0.710894 -1.019632 0.611160 -0.844517 -0.585914 1.241151 1.662137 -1.030650 0.028614 3.384130 -0.570768 0.508270 1.060441 4.018431 1.574648 -1.943354 -2.951879 -0.548787 -4.756729 2.149009 0.467423 1.278098 2.494552 1.351421 2.349343 1.369141 0.068662 1.217025 -3.071068 -0.635124 2.199822 0.228236 -2.304631 2.205312 -4.400958 2.618351 -0.502776 -2.222489 1.590829 -0.913454 0.270227 -1.066962 -0.295943 0.020234 -2.369226 
who 1.623751 3.599922 0.357016 0.761153 2.466148 0.954308 0.005165 -0.880815 -1.439163 -3.612976 0.571865 0.905584 -0.928331 -3.056495 0.763292 2.830966 0.691068 0.593775 -0.183901 -0.938242 -0.750646 1.299108 0.849738 -0.122521 0.439642 0.398546 0.618570 -0.746863 -0.743349 -1.240044 1.154280 0.611089 -1.658128 0.622274 -0.011814 -0.080762 0.352661 1.079226 2.797374 -0.680418 1.275651 -1.437979 0.162496 -0.192787 1.351640 0.612505 -0.598090 -0.004136 0.552538 -2.363606 -0.163746 0.043369 1.576313 0.373362 0.013713 0.039532 -0.549450 1.017061 2.180632 1.159873 -1.498227 -0.231202 0.925063 0.581075 -2.640026 -1.879494 -1.524267 3.279271 0.068397 -0.760290 1.924149 -1.073379 -0.191534 1.084340 0.936555 1.524743 -1.875966 -1.619252 -0.193668 1.045988 -2.084454 0.377652 2.465218 -0.216551 1.412630 -0.844337 -2.328773 1.996907 -0.030863 1.095353 0.117617 0.931511 2.858562 0.958168 -1.549952 -1.540474 1.286917 -0.886835 1.524279 -0.917423 
other 1.235355 -0.547825 0.989631 -0.360079 0.111204 -0.369855 1.482650 1.438457 -0.808514 -1.922580 -0.296960 1.565142 1.385912 -1.606416 0.097604 2.399225 -1.393201 -1.452719 1.834499 0.514460 -0.612252 1.121420 -0.067586 -1.293642 0.200116 -1.471455 3.130126 -0.503710 2.820635 -0.168622 1.272589 -4.494564 -0.323118 0.123027 -1.579193 -2.641648 0.208444 0.498686 -1.399254 0.212690 2.294094 0.936092 0.380610 -1.169931 0.720806 -1.004773 -1.700365 -1.557429 2.497834 -1.475959 1.032387 -0.517982 -0.930156 0.961902 1.746859 -0.055479 -1.262449 0.933574 -0.147128 -0.378141 0.934129 0.116902 -1.515502 -0.464876 -1.060471 -0.725337 0.193679 1.427308 -0.690686 3.966736 -0.050210 -0.534202 1.932496 -1.013472 0.868540 -2.434759 0.016519 -1.116855 -0.547856 1.580333 -0.135672 -1.343603 1.485036 -1.073080 -0.519549 0.733267 -0.704175 -1.881214 0.538190 -0.213177 2.112637 1.845675 1.541173 -0.480514 -0.633437 -1.084210 2.335863 -0.624783 2.605627 2.179517 
but -0.064600 1.530994 1.821647 1.379882 -1.100703 -0.156164 1.208947 -0.527010 -0.416592 -0.883191 -0.092327 1.183219 0.420544 -0.208553 0.700951 -0.033429 -0.449260 -0.252130 -0.149497 0.988878 -1.098902 0.991309 -1.397381 0.366964 0.405688 0.960484 2.085681 -1.409957 1.526152 -0.590971 0.644788 -0.474048 1.817321 1.063130 2.616534 -0.450866 -1.609290 -0.391496 1.536526 -2.402585 2.008842 -1.717380 0.455607 -0.969379 0.626984 0.130523 -0.544171 -1.227522 0.318954 -1.277392 -1.046613 -1.323764 0.562998 -1.648222 0.415080 -0.718817 -0.726290 -0.183120 1.713017 -0.013204 -1.505110 -1.382845 -0.673923 0.649190 0.517135 1.205684 -0.612310 -0.361145 -0.206538 -2.647942 -1.509188 0.201880 -0.870208 0.847416 -0.489161 2.076140 1.273978 -1.973830 -0.706727 -0.230421 -1.446417 2.104471 -0.588888 -3.171452 1.197943 0.545972 -1.424985 -0.222053 1.647686 -0.755215 0.282912 0.118785 0.841707 -0.052185 -0.679853 0.078364 -0.626352 -1.312176 0.190929 -0.130270 
were 0.454848 0.375856 -1.561931 -0.375120 -0.540469 -4.845328 -0.222789 0.713936 -1.296446 -0.107207 0.081579 2.145883 2.034136 -1.362946 -0.523672 -0.861675 0.929769 0.406685 -1.476356 -0.006738 1.089856 2.161730 0.199814 0.398347 1.251614 -2.511502 1.160931 -0.353392 -2.817942 -0.006009 -1.687506 0.804513 3.693510 -1.538446 1.663329 -2.516075 0.289956 1.542606 -1.291602 -1.299728 -1.782982 -1.427649 -0.636185 0.146688 -3.596237 0.894996 1.312991 1.120509 -1.396972 -0.213016 -2.140526 -1.103735 -3.174015 0.954461 -1.009417 -0.420589 -0.931485 1.373362 2.241780 -0.313055 1.369534 0.311633 1.015737 0.430271 -2.568703 1.720254 -0.848505 -1.955963 -0.133291 -0.136038 -2.453364 -3.802155 0.480866 -0.596743 -1.532721 -2.210311 0.414353 -2.680743 0.047012 0.351116 -0.079327 0.138964 2.636149 -0.391405 0.902504 -2.068558 1.596268 2.239754 -1.665025 0.652847 0.746165 -1.317357 0.821883 -1.150065 -0.755022 -2.229763 1.413632 -3.235963 -0.491197 -0.350303 
they -0.400354 0.484982 -2.941885 -0.270862 0.458546 1.788374 0.988740 -2.373032 -2.829891 -1.548825 -0.867386 -0.564962 -0.573413 -0.357018 -2.059530 2.030196 0.085362 1.795096 -0.795519 -1.153998 0.768220 -0.813974 -0.537629 -0.079083 -1.770154 1.636940 3.395363 -0.466623 -2.604918 -0.609474 1.674746 1.059526 -2.673196 -3.365266 1.732582 -2.621197 -0.434471 1.021140 -0.128298 -0.525749 -0.077099 1.463780 1.133242 -0.759782 0.496865 0.989505 -1.042099 1.000514 -1.477927 -0.295311 -1.249287 -0.758046 -1.714929 2.189455 -0.161983 -1.516216 0.594024 0.561153 -1.402755 1.917321 -1.637063 -0.575279 -0.706376 0.512113 -1.539646 2.853435 1.365291 0.032484 -3.555712 -0.759903 0.299348 0.863626 -1.351913 1.061108 0.185565 -0.987212 1.123808 -1.590387 -0.977896 1.926164 -1.302351 0.375681 -0.092195 -0.574678 -0.189486 -0.015198 1.913918 0.019219 1.752467 0.173214 0.802342 0.126427 -0.192207 -2.409606 -2.733830 0.627259 -0.570265 -0.635997 -0.039593 -1.454504 
their -0.482835 0.883574 -2.215097 -0.627612 1.895815 -0.652997 -1.179677 -1.105284 -3.255135 -1.314422 0.989058 1.341789 -0.122850 -0.277841 -1.031627 1.362961 -1.381250 0.458918 0.499085 1.374627 -0.684593 0.321327 0.634571 -0.026927 2.780998 -0.001940 -2.129832 0.787890 -0.440150 -0.036523 0.775117 -0.373551 -1.235067 -1.139969 -0.555706 -3.172856 -1.935800 -1.737589 -1.012793 0.360284 -0.818557 -0.486625 1.708850 0.161090 0.225379 2.514213 0.655233 -1.882402 -1.178982 0.331997 0.317087 -0.938966 -1.861776 -1.120995 -2.346714 -0.893152 0.816093 -2.886863 -2.338192 -0.743630 2.212689 -1.246373 2.856101 0.508105 1.018458 -2.437375 -1.382484 0.214647 -0.477576 0.352097 1.175793 1.017003 -1.164886 -0.255659 1.261856 0.310878 -0.345193 -0.474548 -0.042780 -0.047465 0.514226 -0.178248 -0.700804 -0.086801 1.256061 -0.144629 1.372277 0.829101 0.600800 -0.198818 -2.054573 -0.659230 -1.066016 -0.740746 0.127112 2.294330 0.782251 0.187686 1.784966 -1.109675 
some -0.187447 -0.231897 -0.761330 1.083323 -1.015762 1.110104 -0.765140 -2.764719 -1.673747 -0.659593 1.486619 -0.584487 -1.601577 1.173207 -2.093073 0.043374 0.203603 -1.288282 0.056188 -0.582468 2.735700 -0.452458 1.371283 0.076026 0.227604 -0.582170 -1.207522 0.484428 0.629907 1.162426 -1.336834 0.464606 -0.202505 -0.496673 0.634034 0.319593 1.135136 0.151135 -0.677668 -2.388531 -2.326553 1.250436 1.658515 0.881678 1.318687 0.606059 -1.254652 -0.689613 -1.883490 -0.518986 -0.478906 -0.470400 -3.864755 -0.560399 2.143823 -0.790149 0.067198 -1.837323 -0.657168 -0.964030 1.196384 0.314468 0.752194 2.007978 -2.063480 -0.694558 2.045153 -0.220493 -2.367132 -0.877109 0.040595 0.653827 0.100906 -1.512418 1.518519 -0.083556 1.163197 2.428086 -2.535649 0.827875 -1.862874 -0.559801 0.608528 1.342797 -2.113168 -1.250987 -0.135246 -0.574578 -1.218868 -0.716385 1.898077 -0.011355 0.010065 1.457000 1.567307 0.668949 0.550507 0.441689 1.149633 1.434666 
such -0.645452 -0.310790 -0.388524 3.818659 -2.226177 -1.372252 -0.463568 -0.428877 -4.269262 -3.049454 -2.177327 1.041968 -0.442713 0.164474 -0.649753 0.598616 1.924805 0.071410 0.171913 0.599062 1.927694 -2.368305 1.452769 3.075112 1.873035 -1.322210 1.671798 2.014623 3.269142 -0.560112 -0.555897 -0.584749 -3.678057 -1.159832 1.403194 -2.317615 3.492388 1.031841 -0.775968 0.381250 -1.025317 -0.564510 2.071891 0.355590 0.398177 1.672040 0.673056 0.927795 1.017440 -0.557215 -1.068472 -2.185725 -0.186146 -0.000418 -0.415924 -0.434328 -1.682707 -2.324800 -0.170109 0.297291 -1.036919 2.682553 0.809425 -0.693959 -0.346400 -1.027061 -0.108749 1.976273 -0.503672 0.940823 -0.407626 1.798015 3.471505 -3.268078 -1.461397 -1.197888 -0.126065 3.013629 0.120939 -2.935472 1.963884 0.234592 -1.331866 1.012385 -0.843541 -0.628532 1.888185 0.550088 1.136929 2.093868 1.646038 -0.310356 -0.834760 -2.406974 0.687369 0.079762 -1.082906 0.222889 -3.074918 -0.642677 
all 0.161221 0.211182 1.809708 -2.615764 0.877089 -0.034397 0.955570 -2.691272 -2.100263 1.234160 0.732032 0.424842 -1.911192 -0.834680 -0.826043 1.059519 1.918210 -2.396539 1.071730 0.512697 -0.564907 -0.793572 0.335295 -0.272533 -1.360849 0.013014 0.082946 -1.353647 -0.070310 -2.234508 -1.074534 -0.575782 -0.405336 -0.321692 0.559544 0.553798 -1.353667 0.919510 -0.890339 -1.204875 1.744659 1.168731 -1.241632 -0.809400 -0.195135 -0.115187 0.968642 -0.577832 -1.004469 -1.822572 0.483290 0.042467 -0.462618 0.611268 -1.113265 -1.994339 -0.341957 -1.879822 0.328123 -0.899831 1.081180 0.340996 0.435733 0.348827 -0.562193 1.125480 -0.383803 -0.295375 -2.112913 0.014882 -0.730392 0.432637 -1.992261 0.514592 1.621951 -0.362310 2.376691 1.063479 -0.153622 -0.387186 -0.976315 0.370805 -0.192255 2.013533 -1.137707 0.258631 1.062930 0.550499 -0.967789 -0.621124 1.006335 0.632996 1.048628 -0.445060 0.499248 -0.678005 0.276181 -1.070093 1.376867 -0.573678 
gore 2.114057 2.450361 -2.991215 -0.175276 -1.078364 -0.207236 -1.352307 -1.774572 -2.506663 0.854801 -3.436733 0.364699 2.767160 3.760207 -0.715555 -1.890870 -0.080896 1.647936 -2.439344 1.449952 0.792709 1.612160 -0.659300 0.376993 -1.686227 0.994288 -0.029824 -3.090714 -1.561506 0.771239 2.480542 -0.481916 -3.205692 -0.384675 2.441790 0.450000 1.614342 0.466630 3.104014 -1.267436 1.966726 2.527611 -1.313627 -1.376443 0.279025 -0.381167 -1.667992 -1.747039 0.681237 -1.100974 0.629153 -2.212636 0.023508 1.028922 0.502888 0.042856 -0.518608 1.827843 0.909683 -0.598263 -1.962435 1.010392 -1.685229 0.356475 0.736885 2.090567 -1.795257 0.930001 1.426336 -0.077378 -0.880672 -0.623209 -2.343469 -0.713168 -1.645500 0.819853 -5.468923 1.992074 -4.168945 -0.359559 0.935539 0.877231 -0.398084 1.857048 0.244451 2.185888 -0.451841 2.554423 0.685767 -0.002353 -1.038473 -0.260559 -1.241023 -0.509097 -0.539832 2.089293 1.584922 -2.122634 -0.168734 -0.592658 
most -0.740031 -2.462133 2.092432 0.441830 -0.885396 0.384167 -0.270447 -0.549361 1.240994 -0.623987 0.312468 -2.440595 1.777579 0.627803 -1.409381 2.260538 -0.717712 -2.301129 1.606328 -0.610568 -0.260929 0.018101 -0.241215 0.664156 -0.592217 0.580197 0.659220 0.096999 0.097362 0.240563 -0.852128 -0.752584 -1.278185 -0.185105 -0.556559 1.017662 0.424175 -0.334737 -0.928585 0.572876 2.049859 0.095016 0.160247 -0.067906 -0.187169 2.035941 -1.190748 2.064042 -0.735802 -0.689985 0.556923 -0.997254 -2.196837 0.419269 0.672323 -2.687993 0.918793 -2.576167 0.042212 1.041329 0.681659 -1.108981 0.134169 1.233910 -0.268589 0.079938 2.544910 -0.126044 0.053299 -1.736571 0.352320 -0.127995 1.127734 -2.140729 -0.121003 0.868497 0.777344 1.135659 0.777993 0.785101 -0.199001 -1.045418 1.078583 -0.052000 1.048140 -1.269364 -0.460845 0.301819 -1.160617 -0.633711 0.927779 2.155030 3.448292 -0.501387 -0.039195 -0.818147 -1.501652 -0.038741 2.272947 0.868605 
had -1.234452 2.776430 0.494904 1.313301 -0.139181 -2.797585 1.235079 0.636402 0.326439 -0.051628 1.966062 -0.199265 -2.266962 -1.176537 0.325496 -0.910909 0.433435 0.196473 -0.850831 0.245201 1.048322 0.534827 1.616703 0.098430 0.825093 1.472587 1.012942 -1.714599 -2.228670 -0.180088 -1.039182 -1.719669 0.984642 -0.175096 2.320226 -0.464565 -0.193212 -1.993203 -1.620550 -2.546766 -0.542296 -1.175160 -2.912867 1.974573 -2.225184 1.443645 -1.709139 -0.638647 -1.587716 0.236528 2.476127 2.190600 2.143420 2.163155 0.369581 0.087811 -1.902645 1.439075 0.571634 0.298863 -0.490874 0.529367 -0.011480 -0.908888 0.982028 -0.537339 -1.226793 0.592362 2.904740 1.850125 -1.848123 -0.049887 -0.003806 -4.087032 1.989682 -1.075369 1.998151 1.062006 0.709102 2.830640 0.711876 -0.560127 2.261776 -1.121088 0.388942 0.743520 1.333002 -0.534217 0.591277 -2.681417 1.855466 -1.916286 -0.447348 0.776503 -0.792316 0.765972 2.046626 -0.049684 0.039873 -0.663911 
many -0.273898 -0.262168 0.429346 0.541471 0.600256 0.445212 -0.101313 -1.806166 -1.483064 -0.211133 -0.562481 -0.866549 0.755555 -0.319077 -2.796569 1.010747 0.203166 -0.554600 0.886773 0.434131 1.695615 -0.175976 0.538032 0.359923 0.855360 -0.021207 1.585453 -1.706339 0.577476 0.971012 1.777073 0.302429 -0.613472 0.315564 0.953306 0.433571 0.261762 1.837422 -1.791188 -1.651419 -0.142371 -0.373879 0.674383 -0.265675 1.808298 -1.390281 -1.382103 -0.263559 -2.491920 -1.109234 -0.420736 -0.804787 -1.859878 -0.476778 1.199725 -1.867657 -1.242413 -0.811690 0.897627 0.242233 0.499297 -0.393653 1.142098 2.150237 -0.951248 -0.128374 -0.007679 0.002333 -1.787057 -0.260158 0.520978 -0.564325 -0.475779 -1.655177 -0.148755 -0.150462 0.547857 0.733765 -1.437943 1.187623 -2.442493 -0.045823 0.667451 0.368299 0.512438 -1.055234 1.331718 0.401368 -0.923919 -1.180727 2.261872 0.190050 -0.215229 -1.079047 0.967036 0.805378 -0.765149 0.774255 0.197831 -1.401120 
more 0.317615 1.112761 -2.369950 -0.872669 -0.685084 -0.257522 -0.522000 0.059695 -0.609396 0.816561 -1.712130 -2.441015 0.742518 -0.004921 1.717399 1.854854 -0.575512 -1.109476 -0.207498 0.906144 1.871420 -0.169242 -1.344237 -0.605047 -0.389733 -0.032646 0.034669 0.273352 2.235905 3.044564 -2.916291 0.698562 -0.282422 -0.962099 -1.091738 -1.001432 0.326771 0.407015 -0.724548 1.614666 2.085053 0.981498 0.140490 -1.657382 1.185726 0.062205 -1.689953 1.044529 1.222303 1.648059 -1.405191 -1.032327 -1.764985 0.618552 -1.273147 -1.122953 0.825845 -2.731571 1.970318 -0.410701 -1.532100 -0.712357 -4.022442 0.432500 -0.727629 -0.068442 0.441325 0.684781 -0.374815 -0.256679 0.651156 -1.284578 -0.324563 -1.667238 0.782152 -0.659398 -0.835449 -0.329706 -1.111714 0.358821 -0.678002 -0.876281 2.497975 -4.165012 -1.109815 -0.694299 -0.453563 -0.037601 0.445766 -0.873308 0.867029 0.800914 -0.680861 -0.940604 0.460304 0.923801 -0.606518 0.636531 2.812328 -2.573942 
people -0.558015 0.482777 -0.884153 0.905037 1.173038 0.154521 1.214407 0.853519 -1.342239 -0.763012 -0.610429 1.862193 -1.172758 -2.342447 -0.925983 1.474910 -0.828590 -0.293800 -0.756378 1.085350 1.040961 0.391875 1.261184 1.422182 -0.839141 0.706260 0.453765 0.300581 0.094438 -1.090631 0.865708 0.981003 1.819210 0.963134 -0.051825 -1.553635 -1.197134 -1.123152 0.679967 -1.241645 -0.076151 -0.091898 1.764073 0.309153 0.878679 -2.377142 0.493836 0.501544 -0.050615 0.299998 0.609237 -2.435555 -1.343455 -0.092312 -0.128468 -2.185110 -0.253085 -1.788155 -1.348813 -0.548257 -0.411809 -0.076660 1.632700 0.967140 0.503533 -0.149619 1.806757 -0.078968 0.860629 0.795301 -0.319029 0.282317 -1.850384 -2.883377 0.226404 -1.700300 -2.018910 -1.807293 1.061258 -0.026110 -0.012108 -1.726832 1.013494 2.042020 2.216338 1.659917 1.531023 1.229493 -0.834987 -1.555993 1.123506 -0.560898 0.303503 -0.907653 -0.168059 0.274666 -0.088110 1.085226 0.481722 -0.400341 
been 1.768301 0.765001 2.801500 2.996336 -1.208814 -2.877301 2.326559 -1.543147 -0.656069 1.102469 1.138065 3.041707 0.358636 1.502605 -1.357538 -0.506700 -0.377279 1.305464 -2.812490 1.385969 0.873356 0.372358 -1.067032 -0.414552 0.732922 -0.195935 0.993756 0.329978 0.029264 4.121309 -1.216141 -1.118707 0.861123 -1.684253 2.735998 -1.310974 0.205062 -1.859431 0.886244 -0.189985 -1.815626 -0.905264 -0.335991 0.321660 1.727737 1.287359 -0.572114 -0.607466 -2.516529 -0.477552 -0.000921 -1.766072 -1.643285 -1.394976 4.283998 -1.524629 -0.464316 -0.563959 4.384614 1.012242 -2.639053 0.204601 -1.319787 0.095463 0.540139 1.065545 1.189925 -1.232781 -1.416234 -2.832077 -3.223032 -0.182253 -1.975664 -1.957720 -1.263452 -1.615336 1.382031 0.224385 -1.840825 0.381065 -1.743014 -2.096260 0.247311 3.405401 0.805185 0.369697 -0.507713 -1.395794 -0.080623 0.664880 -2.277464 -1.879567 -0.944387 -0.427647 -0.590134 -0.789043 -0.674575 4.128479 1.389932 1.436165 
its 0.522996 -1.576930 -0.167988 0.504697 1.636706 -3.453391 -2.399398 -2.959593 -1.438508 0.718807 1.043388 -0.372253 -1.398372 0.202644 -1.264329 -0.114190 -1.543035 0.046043 0.844324 1.017747 -1.274537 -0.088561 -0.420107 1.512744 0.703101 -0.230369 -2.338376 0.330460 0.919644 0.000997 -3.005480 -0.983891 -0.727143 -1.499503 -1.159292 -1.482760 0.174734 -1.819672 -1.587963 2.007762 -0.544970 0.369203 -0.587144 0.972229 -0.535276 3.839611 1.443777 -0.233102 -1.248143 -0.259866 0.423906 1.588897 -0.606515 1.527311 0.578151 1.554408 0.154658 -0.435413 1.250633 -0.136570 1.892683 -0.323418 0.703120 -1.192830 -0.532672 -0.950145 1.071953 1.908204 0.724027 1.057527 -0.798561 1.301929 -1.189488 -1.093257 0.526972 1.479322 -0.720019 0.670132 -1.586929 -0.647779 0.132656 -0.010674 -1.022915 -0.354549 1.379885 -0.146471 -0.949645 -2.546590 0.105305 0.535468 -3.483987 0.001619 -1.396836 0.881688 -1.746283 -0.291687 0.060377 2.941764 0.024835 -0.007875 
first -0.571942 -0.905396 3.065567 -0.434732 0.243921 1.760487 -1.118001 -0.285642 1.744412 -1.570329 0.321715 -1.759366 -0.859944 1.164851 0.734315 0.425656 0.354137 -1.293656 1.044507 -0.085122 -0.680807 -1.169952 3.469053 -1.006304 0.215755 -0.600533 0.123402 -0.460115 -1.587335 -0.327369 0.908813 0.383744 -1.919043 2.219718 1.211087 1.748801 1.484498 -0.256252 -0.068416 -1.039172 1.298084 -1.001375 0.281353 1.571261 -0.993259 0.169196 -0.173541 0.831632 -1.462611 -0.134650 -1.265868 1.319334 -0.757498 0.975491 -1.251389 -0.772343 -0.234708 -1.219140 0.532237 0.418271 -0.258443 0.788982 0.858844 0.314930 -1.376296 1.246840 2.398593 0.386597 1.283876 0.248418 -0.609434 0.006602 0.256173 -0.395957 -0.126858 0.188472 1.725942 1.498964 -0.885682 1.103462 0.619052 -0.088118 -1.054372 -0.133347 -1.573295 1.505310 -1.012559 0.451656 -2.316501 -0.541235 1.987500 1.203690 2.044299 -0.123954 -1.464354 -0.045386 -0.944191 0.109711 -0.935353 0.985847 
states -0.960948 -2.893770 2.830699 -2.656851 1.429229 0.458507 -0.348597 -2.410935 -5.263763 -0.352826 -1.146790 -0.249016 -0.518892 -0.084594 0.672760 -0.880063 0.213265 -0.094208 0.813218 -0.498652 3.772593 -1.108152 -0.872089 -0.935476 -2.994331 0.554172 -1.946957 -1.010417 -1.059642 -0.379812 0.507852 0.807968 1.957666 -2.380731 -0.482097 -1.131439 0.737310 -0.232809 1.633224 -2.599705 2.101351 -1.847564 0.779420 -0.701530 0.462481 1.923333 -1.674441 2.534831 -0.924166 -1.903668 0.796200 0.410301 1.741700 2.474052 1.566048 -3.392932 1.003904 0.880832 0.712896 -2.024838 -3.232220 2.185124 -3.626462 -0.117277 -1.741799 0.161873 1.429888 1.263474 -0.592838 -0.018638 -1.610533 -2.020244 -2.169983 0.736742 -0.450826 -1.107590 0.135602 -0.709690 -1.939008 -0.150136 2.717563 1.190639 2.323724 0.862831 -2.039010 -0.466075 -1.456427 -0.791328 -0.596551 0.090987 -1.226749 -1.734895 0.888993 -3.350958 -0.717572 -0.714947 1.395675 -2.940459 -1.080363 3.286147 
world 0.596454 -2.201946 2.612962 -0.867313 1.727081 0.928250 0.682050 0.897020 0.074292 0.368586 -0.735350 -1.533214 -1.641581 -0.662270 -0.488912 0.762335 -0.745694 2.172953 -2.090534 -0.422988 0.061195 -1.068887 -0.014799 -0.034864 -1.364638 -0.442292 -0.268820 0.237714 -1.034698 -0.496642 -0.744608 -0.473452 0.845932 0.210953 1.099161 0.609782 -1.872336 -0.461095 -0.886179 -0.113674 0.231005 0.153922 -0.457081 0.160403 -1.516557 0.506232 -0.255582 1.141062 1.633151 -1.290063 -0.169308 -1.113954 -1.107065 -0.093906 -3.476912 -0.257545 -0.109310 -1.460426 -0.061367 -1.239056 0.613848 -0.568175 -0.105089 1.637697 1.520366 0.418458 2.294426 -1.828241 0.661216 -0.884217 -0.148452 -1.359617 -1.643985 -1.687269 -0.449464 1.451848 1.234892 -0.677057 -0.592274 -0.957082 1.149354 -1.052509 -1.196593 -1.426201 0.253910 2.045237 0.284401 1.234896 -0.666926 -2.070705 1.252490 0.168739 0.000312 -3.617430 0.185343 1.036241 -0.228963 1.394334 0.946590 0.820224 
when 0.278721 1.071160 0.540431 0.764418 -1.541124 0.384597 -0.756939 -0.171320 0.453489 -0.966388 -0.409060 1.026339 0.371051 -0.696858 1.234783 1.403857 0.159130 -0.303888 0.217891 -0.479708 -0.950369 2.013462 0.938234 -1.873742 0.508186 -0.159406 -1.565157 -0.971050 -0.750155 -1.704091 1.132945 -0.205255 -0.836819 2.293194 2.288440 0.741225 0.620490 0.189243 0.282482 0.100305 1.006802 -1.469717 -0.844478 -0.123333 -1.288491 -0.343059 -0.152716 -1.472016 -0.179943 -0.723541 -0.360835 0.055044 2.298158 -1.158823 -0.616636 -2.125322 0.070623 -0.893411 0.646694 -0.732299 0.048942 -0.277696 1.278301 0.629872 -0.125157 -0.740333 0.282796 -0.008784 0.746167 -1.009729 0.558840 -0.390071 0.325591 1.094169 -0.315737 1.918551 0.564280 0.292824 -1.372968 0.195589 -0.644433 0.535561 -1.265640 -0.571729 1.342134 -0.840274 0.013701 0.202344 1.014627 0.286816 -0.405701 0.933146 -0.461879 -0.502955 0.336385 0.734552 0.055061 -0.741859 1.124779 -0.644460 
into -0.318697 0.528229 1.167271 0.352607 -3.074762 0.494514 2.553243 1.508052 -1.301484 1.171350 0.881155 -0.506899 -2.416116 -1.168859 -0.433173 2.258779 0.271134 -0.495664 0.098987 -0.479948 -1.715235 1.014230 0.895847 -1.574626 0.618820 -0.564347 1.077041 0.493156 -0.335403 -2.043942 0.472530 1.127290 -0.168878 -2.679145 0.640111 0.221657 -0.051004 -0.658778 0.756136 2.308759 -2.333909 -0.822406 1.428008 -1.386024 -0.331281 -0.600088 0.621337 0.187705 -0.930958 0.773394 -0.397922 0.179444 2.100367 0.646102 -0.099360 -1.473634 0.667677 1.332979 1.211823 0.563828 -0.574054 -0.502023 -0.968975 -0.941290 -0.057107 0.352115 0.376727 -0.220364 0.208951 -0.580677 -0.834605 -1.280363 1.464773 0.729795 -1.533731 1.165281 2.251500 -0.435656 -1.878842 1.243454 -2.345962 0.553069 0.886420 -0.292830 0.768430 -0.742536 1.336251 -0.387674 1.637849 0.010574 -1.821846 -0.122482 -0.638124 0.191294 -1.027592 0.586125 -0.532231 1.316543 0.789697 0.843635 
war 2.096987 0.147033 2.294106 0.508530 1.856071 -0.598221 -3.091682 -1.177922 -1.365028 0.598349 -1.573931 2.740270 -0.411187 1.150607 2.184923 2.795882 0.897752 0.124978 0.571897 0.701558 1.180215 2.344219 1.669809 -0.908843 -1.458873 -2.106817 0.246965 -1.584465 -2.158739 0.203792 -0.549770 0.033224 -0.744290 1.301299 1.045942 -0.247538 -1.421142 0.341146 -0.740645 -1.072323 -0.034338 0.674785 0.944137 -2.373173 0.488048 3.214025 -1.775037 -1.394959 0.281399 3.603456 -2.149065 -0.677379 -2.682487 1.025060 0.832868 1.347894 -0.449078 2.365563 0.731062 -1.968623 -0.212601 -1.990689 0.410624 0.159721 -0.882791 -2.307250 0.453891 1.012843 0.587934 -0.969022 -0.665487 -0.174897 -0.083030 -0.527515 1.433202 1.459289 -0.461966 2.076129 -0.688447 1.899559 0.598832 -0.822551 -2.899903 -2.002485 0.533279 1.636241 2.033244 1.665522 -0.577707 0.453837 -1.722738 0.766227 1.464425 -4.395784 1.756262 -1.515935 2.237426 -1.489421 -0.648432 -0.309669 
time 1.053671 1.540503 0.694634 -2.479262 0.272762 -1.524979 0.406059 -1.363642 1.126428 -0.707095 -0.286418 0.410978 1.109991 0.348660 2.027364 -1.818681 -0.303850 -1.611060 0.545479 2.136604 0.572750 0.691940 1.131627 -1.603689 -0.743284 -2.880473 0.457185 0.442977 -1.881526 -1.345251 -0.900678 0.885380 0.255220 -0.247310 1.274702 -0.698881 -1.779682 -0.015066 0.603502 -0.166122 1.297692 -0.059787 -0.596060 0.829392 -1.820795 2.640189 1.241530 -0.437742 -0.730968 0.495091 1.365366 0.115204 -1.237864 -0.630079 -1.291178 -0.417434 1.634065 -0.901330 -0.810983 -1.146448 0.197426 -0.823105 -0.899137 -1.391529 -1.462372 0.992679 -0.413011 -1.248535 -0.085516 -0.637573 -0.287661 0.528420 0.539365 -1.558286 2.065044 -1.477233 -0.554446 0.788303 -1.023945 0.851692 -0.622628 1.966275 -0.211279 -1.226565 0.088288 1.712198 -0.338298 1.659004 0.270706 1.461384 -1.095289 0.549302 1.596168 -1.399926 0.199766 -0.877464 1.692203 -0.168858 -0.451325 -0.217601 
her -0.756973 -0.025259 -1.546660 -1.072017 2.431055 -0.934958 -1.999765 -0.932607 -0.411144 -1.868469 2.418937 1.248838 -1.164599 -0.600258 0.420706 1.109575 -0.133569 0.834599 0.279434 -1.340382 0.714967 -1.038221 -0.750204 0.208359 0.540189 -1.784892 -2.198513 -1.423285 0.629686 0.971703 0.121040 -2.326554 -3.879671 -0.131007 0.798518 -1.458982 -0.160815 -1.901783 1.154674 -4.083857 -1.184092 -1.884953 -1.487131 1.784902 0.889214 2.063751 0.551320 -2.075799 -0.919254 -0.388498 -0.146138 3.396017 1.516969 0.235915 -0.751720 -2.310880 0.533291 -1.383146 0.358587 -0.477342 2.469205 -0.432612 0.581993 -0.490420 -0.389970 -0.180601 0.451887 -0.041140 0.345965 0.067928 -0.948153 0.482591 -1.017712 1.381733 0.930840 0.640837 1.809923 -0.759125 0.349958 -0.163228 -1.439131 -1.787771 0.044324 -0.226600 -0.591921 -0.844434 -0.982995 -1.446693 -1.368273 -1.455205 -1.177623 -1.251995 -2.095956 -1.959226 -1.633571 0.837083 1.207284 1.498810 0.577080 0.229672 
after -0.422083 -0.295880 0.353386 0.672804 0.170419 -0.050323 -0.194059 1.471552 -0.887515 0.426177 0.262941 0.318779 -0.293383 -1.200554 0.504308 1.300594 0.309115 0.193679 -0.844963 -0.836715 0.229665 0.280017 1.529020 -3.387377 0.623471 0.020460 -0.642297 -0.995619 -2.296266 -0.755424 1.282631 1.151816 0.635083 1.404569 1.206266 0.405063 -1.310981 1.402896 -0.671980 0.134289 0.295600 -2.179609 0.868547 0.925413 0.191669 0.438250 -0.096343 -0.966206 2.306574 1.320781 -1.675596 -0.240073 -0.782369 -0.883663 -0.787042 0.250595 -0.779396 1.771801 1.305231 0.028618 0.386423 -0.592803 -0.154919 -0.166319 -1.318257 0.742866 -0.245716 -0.268179 -0.282578 -0.286155 -0.513857 -1.166722 1.065389 -0.345739 0.370089 0.536498 -0.383328 1.000674 -1.155717 -0.056227 -0.240186 0.929080 -0.478338 -0.285032 0.011398 1.372092 0.116968 0.677734 -0.282577 -0.277824 1.270535 -0.365321 0.188303 -1.485447 -0.469230 1.455960 -0.811488 -0.683415 -0.367926 0.173475 
would -1.708112 1.365461 -0.454450 -0.509107 -1.792981 -1.134565 0.993171 1.761164 0.730457 1.605663 1.029543 -1.206644 -1.484815 0.057949 -1.948295 2.619162 0.203569 0.529011 -1.433699 0.925985 1.257111 0.071093 2.786647 -1.688676 1.146404 1.522217 1.226035 2.499955 0.390402 -0.879001 -0.606929 0.493970 1.828736 -1.914963 2.362919 -1.827595 -0.353750 -0.285178 0.641614 -1.161204 0.107512 2.226546 -2.734500 -0.635024 0.336492 0.948824 1.203322 -0.004796 -1.449729 0.607410 -0.933504 -1.577012 0.488448 1.095188 1.678834 -2.169056 0.091808 -0.146865 -0.291046 -0.230323 -0.793602 -0.851626 -2.760729 0.232610 2.851285 -1.806117 1.129310 -1.887947 1.430220 -0.730713 -2.959987 0.238853 -1.097928 -1.231296 -1.221889 0.908918 1.040265 -0.092013 0.173627 0.736809 2.410745 1.918616 0.002330 0.557169 -0.163090 2.504041 -0.339841 0.738193 -0.206812 0.747570 0.017482 0.321084 -1.046789 -0.185058 1.024208 1.407528 0.446387 -1.972752 -1.823736 -0.043049 
these -0.160306 -0.171389 -1.261119 -0.334381 3.086689 0.491109 0.378461 -0.084933 -0.642225 -2.223932 0.066242 -0.080256 -0.452348 0.157933 -2.571774 2.156213 0.278022 -1.514513 -0.527523 1.112527 -1.732727 -2.033138 -0.204012 1.208879 0.414251 0.475614 2.630269 -1.685598 0.365745 -0.873714 0.631387 -1.450012 -0.810600 -0.979792 0.937011 -0.888153 0.016786 0.142516 -0.019488 -1.840345 -0.395092 2.593328 -0.098713 -2.324597 -1.126866 -0.381291 -0.007268 0.506500 -0.714213 -1.769843 -1.772462 0.919477 -0.512022 -1.446042 -0.169597 0.758026 -1.142967 0.421663 -1.632915 1.056862 0.946146 0.169323 0.814991 0.599205 -0.819092 0.627424 -0.192929 0.066269 -0.369409 0.884307 1.047627 -0.277812 1.646635 1.260430 1.497091 -0.341128 1.621241 0.656247 -1.495981 1.482919 -0.914619 0.847075 1.059050 0.253919 -1.786599 -0.349712 0.567909 1.133154 0.866798 -0.692801 0.715014 0.636980 0.050457 -1.152403 -0.412343 -1.483629 1.038577 -2.042468 1.880510 -1.817886 
africa 1.200796 0.337613 2.688631 -0.689994 1.723409 1.357938 -0.027849 -2.117024 -0.077531 -0.737251 2.591438 0.725757 1.121565 -0.356070 0.556293 0.191425 -0.439606 1.496092 1.655078 0.245809 0.230679 0.521870 -0.610057 2.253777 -1.161793 -0.571989 0.931095 1.824814 0.954752 2.021265 0.968498 0.438588 1.928016 0.448961 -1.224184 -0.221744 -0.709007 -1.004786 0.857019 0.127448 -0.789913 1.355272 1.893826 -0.648222 -0.613936 0.805759 -0.601622 0.445592 -0.347867 0.899741 0.633243 0.080686 -1.111856 0.936658 -1.170708 -0.264466 0.194786 0.571457 -0.357128 0.079968 -1.096227 -2.184703 0.065371 0.278763 -0.743638 2.259330 2.929637 -2.033050 -0.686140 -0.200110 0.488163 -0.613459 -1.016440 -0.657118 -0.091608 -2.299073 -3.271344 1.157163 -2.205932 1.372066 0.238525 -1.862028 0.812728 -3.021027 0.019265 0.133493 1.275578 0.614179 -0.116319 -1.923384 -0.398735 -0.419654 0.124925 -0.328329 -1.173132 0.938028 0.814270 2.678553 0.355790 1.338316 
state 0.427801 -1.081397 1.979367 0.208789 2.712986 -0.623811 -0.568760 -2.794651 -1.627443 1.241631 -1.342105 1.054168 -1.136420 -0.774714 0.078662 1.134517 1.129700 -0.217542 -0.162185 0.934639 0.110644 0.224636 -0.055775 -1.323720 -0.883104 0.116376 0.987667 0.813358 -0.802480 -1.971118 -0.573640 -0.973601 1.130185 -0.271606 -0.079781 -1.580073 0.741234 -0.080668 1.274290 1.271946 1.877895 0.311947 -0.109604 0.334952 1.562533 0.103953 -1.071498 0.321749 1.409528 -0.307154 0.160788 -0.515105 0.161326 0.783703 0.001915 -0.368669 -0.143380 0.843043 1.370095 0.215211 -1.196606 1.559429 -1.821077 -1.059987 -0.804659 -0.028813 -0.968823 -0.501902 0.161404 0.007599 -0.476098 0.020183 -1.163467 -0.733869 -0.360756 -0.119462 -2.952717 0.360735 0.698880 -1.401840 2.014850 -1.086477 1.711648 0.576071 1.163563 0.623809 1.034707 0.892218 -1.074995 0.558503 0.541252 0.400043 1.724976 -1.875815 -0.743619 -3.001045 1.107080 -0.455992 0.319598 0.393154 
new 1.440135 -1.134322 0.068390 2.542176 -0.006264 -2.182500 -1.501962 -1.636750 2.285596 -0.741503 -0.391487 2.720945 -0.675305 -1.110583 1.911348 0.689467 0.560827 1.460411 0.205891 -0.194676 1.824383 0.323179 -0.047118 -0.849502 0.556349 -0.126668 -1.576066 2.182239 -0.010898 -0.273383 -0.404258 1.257983 -1.123984 1.204649 1.945376 -0.172354 1.836882 0.891519 0.963490 0.319102 -3.164911 1.025697 -0.862750 0.329487 -2.154577 -0.629689 -0.697400 -0.394371 -1.886322 -1.020890 -2.881160 1.759663 0.523326 -0.412358 3.497674 0.508703 -0.802457 0.407396 0.909082 -0.613396 -2.147569 -0.449648 -0.442251 -0.618039 -1.332008 1.009994 0.448141 0.650976 0.025218 1.804449 0.466449 0.956305 1.759252 0.306447 -2.352234 0.017475 0.759562 0.446560 -0.182795 0.478632 0.644296 1.625288 -1.211860 0.074979 0.208258 -1.917624 0.733007 -0.844584 0.262267 -1.105742 -0.043442 0.667854 -0.789017 0.818226 -0.834016 1.279528 0.427323 1.027858 -0.359056 -3.342282 
rand -0.716000 1.967296 -0.615011 -1.162591 2.419958 0.482542 -0.384276 -0.905459 -3.569825 0.085543 2.465820 0.198292 3.154779 -0.855465 -3.037498 -0.361333 -0.034165 0.727582 1.109957 -0.796690 0.443773 -0.154846 -2.562317 0.826400 -1.057341 -2.029325 -1.789811 -2.384014 0.927725 -0.671629 0.906514 -1.976644 -5.097044 0.509912 0.525970 -0.368207 1.675858 -0.701956 1.511462 -1.742012 -0.838319 1.070111 -0.893463 -1.251527 1.467554 -0.669305 1.941009 -2.577563 1.559541 0.543988 0.730264 1.425572 2.436416 -1.199693 0.261705 -2.418019 0.606364 -0.229123 -1.039925 -0.905045 2.729724 0.629181 0.667993 0.565674 2.447830 -1.037049 -0.992113 -1.705942 0.491654 0.273943 -1.355495 -3.692414 -2.234005 -0.501168 -0.984328 0.610956 -0.710075 -1.795324 -2.282925 -2.146949 -2.227472 -2.041478 -0.878168 0.151069 -1.815647 0.204690 -0.951969 -0.546811 -0.419776 -1.234693 0.127409 -0.548525 -2.182566 -3.966394 -1.963929 0.785196 -0.481069 1.209259 0.276032 1.799097 
there 0.306136 1.328472 0.301451 -0.721430 2.565438 -1.168109 -0.063786 -0.289859 -1.400277 -0.473696 0.460716 0.194870 -0.339803 0.508789 -0.204885 0.133395 -0.603583 -0.445412 -1.576729 -0.007959 0.002552 -1.880948 -0.630578 0.433477 -2.349348 1.098423 1.985422 -2.818476 0.982489 -1.372605 -0.245225 0.924731 -0.839304 -1.876099 0.597767 0.225812 -0.725177 1.185236 -0.499680 -1.200069 1.480024 -0.650174 -0.309455 -0.514787 -0.672068 0.162065 -2.319534 1.753361 0.371837 0.604362 0.433704 2.156214 2.715160 -0.927832 -2.191890 0.250264 0.081515 -0.628987 -2.248641 1.170524 0.185106 -0.822034 -0.446120 -0.021112 -1.183977 0.527849 -0.001188 -0.579315 -0.641278 -0.627862 0.128237 -0.528906 -0.306170 -0.598220 -0.051693 1.282654 1.434763 0.673164 -0.731100 1.121709 -0.602783 1.671286 2.596851 -3.105906 0.860590 1.513395 0.503029 1.866978 1.773303 -1.688746 2.258159 0.548719 0.629840 -1.732109 0.049495 1.382069 -1.177863 -1.347013 1.490461 0.154216 
can -0.536182 1.379774 -0.741024 0.034610 -0.846458 -0.422826 0.408072 3.440038 0.970717 0.357631 2.575670 0.927094 -0.475246 -0.695677 -1.297643 3.617700 0.139507 -1.969898 -1.376447 -0.143404 -1.258425 -0.176731 0.162852 1.493670 1.193769 -0.642417 0.065037 1.498508 2.535154 -0.347268 -0.316965 1.000809 2.418518 -1.167460 -0.903859 -2.489564 0.983615 -1.132325 0.293202 -0.371750 -1.258217 0.215006 -0.563710 0.240524 0.050765 1.706049 2.314017 1.067423 0.627462 1.609846 0.662860 -0.666905 1.134905 0.815004 -0.630630 -2.507648 0.467488 -0.956924 -2.729575 -0.904676 2.085777 0.970442 0.971274 -0.965262 1.108757 -0.344287 1.681394 -0.815742 0.360242 0.847040 -1.991101 -0.465733 -0.936742 -2.228838 1.126290 -1.692253 1.953388 0.287429 1.501404 1.788319 2.022136 0.301745 -1.715840 0.085157 -2.705548 3.199692 0.307926 1.275110 2.634223 0.003044 2.579614 2.207753 -2.775252 0.869025 0.987578 1.940829 0.094829 -0.870370 0.131552 0.113803 
american -0.167450 -0.737510 2.785622 0.785692 2.256714 0.879968 -0.100027 0.825564 -1.807060 1.039536 -0.773139 0.754652 1.231144 0.216398 -0.225366 -0.342461 1.258857 2.501657 -0.138363 0.743449 0.076788 0.828526 -0.041418 -0.365312 -1.440122 0.062446 0.673790 -0.851413 -1.375341 0.474970 -0.446040 0.864336 -1.846861 1.270709 -0.812353 -0.699014 -0.248002 -0.908996 0.803882 -0.817169 -0.282453 -1.061126 -0.904013 -0.216976 0.365748 -0.541710 -0.631442 1.569126 0.855959 1.512291 -0.054367 0.435618 -0.385526 0.524719 0.817549 1.742446 1.410028 1.253145 -0.740436 -0.816642 -0.732111 1.815937 0.123110 1.715838 -1.594100 0.388511 -1.201561 -0.627774 -1.971207 0.892600 0.126410 -1.582589 -0.853417 -1.169034 1.292505 -1.841579 -1.529877 0.049106 -0.106987 0.528098 1.063593 0.075552 1.165466 -0.567372 -0.242903 0.432709 -2.171087 -0.125167 -0.155446 0.231121 -0.225478 -0.291848 1.694580 -0.978545 -1.480430 1.232240 -0.300149 -1.373455 1.116210 -0.987849 
only 0.316043 -0.578009 -1.553254 -0.758985 0.065468 -0.001807 0.094010 -0.570113 -1.315199 0.568366 0.359472 1.814974 -1.677507 0.462530 -0.149535 1.368692 0.342564 -0.927156 -0.614908 0.985733 0.502301 -0.634719 0.632221 -0.733789 0.094450 -0.711880 0.470537 -0.242733 -0.147093 -0.351535 -0.506739 -0.090012 1.129049 -0.602363 0.370463 -0.386090 -0.479981 -1.747786 1.168561 0.430579 0.689636 -0.674434 -0.130570 0.019062 1.111078 0.961329 -0.360371 0.993606 -1.176155 -0.700443 -1.104415 -1.767249 -0.254079 -1.099713 0.363173 -1.087861 0.325783 -1.420354 1.234573 -1.071069 -1.410355 0.472657 -0.911798 0.404562 0.359672 -0.005539 0.105963 0.293447 0.052598 -0.386054 0.052200 0.603120 0.835402 0.281040 -0.007390 0.766770 1.637230 0.226609 -0.645855 0.900516 0.970789 -0.651588 0.333164 -0.413186 -0.535515 -0.082182 -1.278220 -0.218645 -0.828125 -1.329885 0.178018 -0.293629 1.087094 -1.621713 -0.205915 -0.457212 0.663337 0.761364 0.590039 0.338681 
than -0.645398 1.142127 -0.323620 2.212037 -0.454852 -0.930920 0.009663 -0.954819 -2.439017 0.531226 -1.550864 -1.616669 -2.239104 -1.136614 1.095170 -2.433840 -1.069111 -2.588453 -0.546294 -2.405962 2.075148 0.216237 1.274585 -2.274104 -0.012447 -0.424139 -2.096462 -1.216265 0.357567 -1.743704 -2.998861 2.728626 2.960842 -1.681832 1.255001 1.215090 -0.824072 -0.762374 0.975000 0.945538 -0.206787 -1.976008 -0.193882 0.068444 2.650228 0.155914 -0.470883 -0.260330 -0.549641 -1.082599 -0.151090 -4.029770 1.239741 1.521889 -0.880311 -0.821198 0.762152 -1.016032 1.119165 -0.125592 0.634739 0.409129 -1.330598 0.146378 0.981265 -2.144605 0.010595 -1.079979 1.218704 -2.398416 2.239518 0.799578 -0.181155 -2.920656 -1.973410 2.256556 -1.420302 -0.719187 -0.266712 -3.808740 0.079030 1.465326 1.319014 -1.545605 0.170254 0.375601 0.464712 1.668065 1.625996 1.194005 1.480308 1.090290 1.125170 0.348795 2.209489 3.466245 -0.786619 -0.725113 2.079857 -2.043865 
autism 1.541447 2.755525 -1.626319 0.721202 1.595384 -0.687285 -1.972763 -0.552601 -0.796561 -0.773877 0.034927 3.083181 1.112927 1.081676 -0.785393 -0.451300 -2.645109 0.364928 -1.354602 -0.095396 1.310243 2.107030 -0.086686 0.785781 -2.852857 -1.086829 -0.096831 -1.547122 1.382436 3.142009 -0.816191 0.627825 -3.005123 -0.851998 -0.483289 -0.391587 0.383619 0.768476 1.186358 -2.077923 0.667361 1.790855 0.085175 -1.971090 2.047497 -2.492261 0.655810 -1.293705 1.370656 -0.252027 -0.412853 0.230102 -1.667644 -1.421460 2.592246 1.188287 1.713733 -1.231091 -2.224262 -0.352783 -0.686896 -0.309919 0.899632 0.659693 -0.203209 0.281119 -0.577129 1.329060 1.709016 0.290870 0.801878 -0.118150 -4.034341 -1.841401 -1.839252 0.754484 -3.341893 -1.619533 -0.463818 0.693848 -0.671419 0.786426 1.432982 -0.996413 -1.943105 0.715624 -1.806372 3.119791 -0.090934 -1.114413 2.022990 0.151744 -0.522980 2.447674 -0.708804 0.380072 1.880595 -1.335631 -0.338339 0.886724 
about 1.870043 1.693599 -1.043348 -0.434982 0.815037 1.666388 0.032996 0.609053 -0.259031 1.155324 0.280182 -0.849136 -0.612290 -0.813967 1.403259 0.175246 0.168240 -0.235960 -0.795664 -0.018780 -0.027729 0.866434 1.209530 -1.250131 -0.317056 -1.244298 -0.686381 -0.431412 -0.904020 -0.779774 -0.853510 1.155880 1.142695 0.706455 -0.050697 1.048481 -1.800008 0.454331 -0.510449 1.496486 0.572300 0.807281 -0.733544 0.708924 0.176499 0.000830 0.253623 -0.143483 -0.129546 -0.675864 -0.541977 -1.456918 -1.510910 -1.030397 -0.859500 -0.756936 1.131689 -0.119865 -0.896631 0.286349 0.429911 -1.753101 -0.459224 0.874703 0.859307 -0.544385 -0.202824 -0.450172 -0.146174 -1.457435 1.271589 -1.512380 1.151799 0.316466 0.121747 0.544325 -0.563762 -0.034442 0.172556 -0.223600 -1.270440 -0.087656 1.488240 -1.085631 -0.113815 1.374998 1.209940 1.214645 -0.008623 0.088692 1.203930 0.138287 0.179383 0.249252 0.689107 -0.132742 1.146137 0.956430 2.293230 -1.389897 
united -1.860273 -0.667496 1.927669 1.592795 1.235779 -0.979420 -0.582084 0.200697 -2.966324 0.682006 2.832588 3.022956 1.999546 2.493095 -1.047260 2.211382 0.230602 -1.279368 1.537485 1.654929 0.032996 1.303932 0.905539 1.292904 1.350821 3.522518 -0.656350 -2.085451 0.195659 -2.918114 3.679735 -2.289623 0.524453 3.710553 0.605562 -1.633249 0.291340 -0.670404 -1.644424 -1.325732 -1.987682 0.966483 0.961319 -0.248659 -0.571814 -1.860082 -3.449364 -1.403033 1.307636 0.754261 0.740633 0.408469 -0.433209 -2.117042 1.317351 -0.323043 -1.531898 -1.597298 -1.565031 0.523514 -1.234677 2.240788 1.987115 -0.845960 -0.325952 -0.442318 -1.694736 -0.838451 1.118433 1.562585 0.577152 -0.930036 0.122686 -2.251223 1.529117 2.549122 -1.926285 -1.254548 0.015780 -2.219302 -0.521513 -1.958915 -1.137793 -0.379987 -2.067462 1.815578 1.076614 -0.536267 -0.211443 -0.675693 0.302542 1.101312 -2.136661 -1.726757 -0.813470 0.933564 0.210282 -1.091153 0.737334 0.044000 
she -0.265050 0.557093 -3.279962 1.056507 0.577735 -0.031286 -1.167841 -0.273301 -0.371671 -0.889858 2.406505 0.871453 -0.347304 -1.278762 -1.459456 0.573214 -0.887153 1.251450 -0.159694 -1.365436 0.680009 -0.056118 -0.647412 -0.071535 -1.125767 -1.359039 0.033915 -0.637997 -1.728037 -0.233965 -0.815211 -1.288596 -4.609648 0.836470 1.106396 -0.734025 -0.578368 -0.281551 0.699033 -1.866396 -0.636429 -1.795542 -1.168676 0.946211 -0.612736 0.311986 0.486774 -0.555933 -1.518712 -1.224844 1.053264 0.882127 1.362316 1.607967 -0.192290 -0.566855 -1.355295 -0.803793 -0.196227 0.900838 0.198693 0.325853 -0.216251 -0.929941 -0.270099 1.484600 0.013102 0.663479 -0.135111 0.429210 -0.856780 0.281646 0.476710 -0.444275 -0.195998 1.237056 1.101029 -1.077206 0.642497 -1.057157 -1.504686 -1.265015 -0.623341 -1.089394 -0.754766 -1.215873 -0.782033 -2.096447 -0.630918 -1.163548 0.580727 -0.852938 -0.542005 -1.544811 -2.589153 -0.800843 -1.200570 1.210386 0.647965 0.169949 
history 1.686768 -1.330058 3.411423 0.259554 2.470873 -0.032382 -0.807820 -0.161354 0.561926 0.862846 0.186667 0.000079 -1.624026 -0.275724 0.859174 -1.886223 1.335242 1.509864 0.746786 -0.301350 0.199999 -1.355236 0.258820 0.135407 -0.252563 -0.718012 -0.183275 -0.519950 -1.521397 0.138641 -1.661162 1.071128 -0.131847 0.552155 0.699491 0.622751 -0.687386 -0.515068 -0.104375 0.933639 -0.849201 -0.125037 -1.383125 0.651640 -0.198890 -0.014676 1.491514 0.326107 -0.239027 -0.701207 -1.954921 -0.113809 -0.732622 -0.100560 1.061099 -0.297811 1.129496 -0.722787 0.506476 -0.791755 1.198907 0.144063 0.147126 2.487279 -0.262211 -0.169771 -0.417129 0.071958 -0.402342 -0.189949 -1.355673 -1.249760 -1.501366 -1.190524 -0.224714 -1.017710 0.383641 -0.139204 -0.248415 -0.094152 0.997617 -0.357081 -0.586538 -1.588324 -0.608101 1.894023 0.954714 0.075613 -1.450396 -0.930691 -0.122766 -1.289873 -0.479484 -1.002070 -0.256898 -0.984567 0.030570 1.936483 -0.607505 -1.328845 
him 1.303417 1.071314 -3.526138 0.026959 -0.712260 -0.808195 0.337272 0.723274 0.110072 0.226653 -0.112149 0.260885 -1.555145 -0.020611 0.825700 1.762621 -0.208130 1.365304 -2.404740 1.263594 0.337937 0.505874 -0.906854 -1.485138 -0.084328 0.070624 -0.727434 -0.045439 -0.920521 1.274545 -0.001096 -1.181315 -2.031927 0.287566 2.225772 -1.821164 0.125522 -1.027572 -0.041824 -2.692222 0.099918 0.728651 -1.602915 0.799706 -0.100728 1.642893 -1.273010 -0.117139 -1.758984 -1.395905 1.033678 -1.320571 0.692996 2.335844 -0.156847 -1.720211 -0.542384 -1.386627 1.454920 -0.516760 0.448455 -0.748598 -1.865030 0.481576 -0.592900 0.035523 0.350714 -0.729161 -0.938134 -0.873326 -2.136727 0.408021 -0.774403 0.902242 0.677098 1.262391 -0.141981 -0.518849 -0.164714 -0.064095 -0.593175 -1.145087 0.012049 0.617715 0.625161 -0.270121 0.372371 1.359096 -0.113296 0.419067 -1.231940 0.052285 -0.713460 -0.973223 -0.285104 0.934738 1.030069 -0.545996 2.136785 -0.269369 
no 0.382989 0.656426 -0.390818 0.687594 0.235756 -1.407456 0.114099 -0.046097 -1.788382 1.497599 0.434905 1.298059 -0.500367 0.182197 -0.949550 1.027250 -1.484361 -1.699742 1.235824 -0.849545 -0.312583 0.060417 -0.801022 -2.132032 -1.732974 -0.626795 -0.822470 -1.188198 -0.748970 0.090731 -2.782988 -0.043667 -0.798393 0.510542 -0.589302 1.793378 -0.632643 -0.050303 -1.704283 2.362586 0.228960 0.221671 -0.693053 -0.247347 0.492294 -0.071521 -1.751549 0.256788 -1.006233 -1.431946 -1.202940 0.204521 -0.263582 -0.038386 0.911393 -1.084881 -0.394726 -2.087427 2.838208 -0.363721 -0.869971 1.521935 1.132763 0.251670 -0.559245 1.297740 0.972978 0.918002 -1.913818 -1.105734 -1.493923 -0.574359 -0.435507 0.372743 -1.780848 1.256033 0.917491 -0.474029 0.034187 -2.573568 0.238193 -1.497510 -0.857653 -0.037020 -1.690946 1.069248 -2.288624 -0.493154 -1.914446 -2.045365 1.761957 0.307731 -0.206868 1.474468 0.971396 0.610494 0.104529 0.071862 1.123436 -0.436376 
aristotle 1.597618 1.768792 -1.542861 -1.444078 0.640496 -1.261939 -0.556671 -0.306039 0.051783 -0.982749 1.958699 -0.453095 0.392959 0.034588 -0.747117 -1.745921 -0.991909 -0.060910 -1.004282 -0.183384 -3.328214 0.040468 -0.061745 0.768300 -0.676146 -2.756086 2.216932 0.111255 -0.044921 -0.347837 0.646990 -0.994911 -4.526638 -0.444016 2.220982 -0.659859 -0.474481 0.404226 1.096548 -0.318492 2.017662 -0.309889 -1.374631 0.792396 -0.225340 -0.991971 0.275685 -0.722804 0.266745 -0.518712 0.616226 -1.415307 0.663779 -0.528984 -0.288556 -0.028736 2.243648 -0.217913 0.390724 0.173900 1.914393 0.224963 0.796877 0.264641 -0.127791 0.109630 -1.176121 -1.320501 0.083991 0.651855 -1.501872 -1.173592 0.102940 -1.033754 0.049132 -0.866584 -0.321064 0.034561 -1.332841 -0.245607 -0.672574 -0.576300 0.556853 -0.804582 -0.454371 1.237930 0.674001 1.827160 -2.092237 -0.919521 0.464000 -1.121963 0.846254 -1.614147 -1.247081 -1.203740 1.437765 0.486604 0.234389 1.419872 
may -0.745682 1.581628 1.114237 -1.190342 -1.370362 0.431126 -0.367494 -0.012316 -0.808186 1.518050 2.259730 1.248302 -0.927498 0.076682 -0.772166 2.998940 -0.063215 0.038596 -2.118151 -0.669819 0.604594 0.658812 0.774595 -0.701848 2.211269 -0.491357 0.905605 0.661765 2.172146 0.267741 0.632078 1.440607 3.241481 -1.500302 0.557053 -1.610842 1.275090 -0.607498 1.802515 -1.075894 -0.464226 1.241852 -0.678048 -0.119810 0.854445 0.188977 1.165543 -0.105251 -0.296303 2.378914 0.016887 -0.842894 0.872676 0.350253 0.554405 -1.509875 1.193299 -0.080800 -2.584066 -0.483309 -0.299255 -0.074530 -0.252616 -0.234354 0.770776 -0.866469 0.317718 -1.288349 0.631386 0.041184 -2.089237 0.915299 -0.955852 -0.478742 -1.029475 -1.211539 2.609805 0.121608 -0.285448 2.295247 1.951791 1.566214 0.094719 0.400646 -2.551378 2.057205 0.209804 0.485711 1.918947 0.822293 1.203563 0.772853 -1.885245 0.901534 1.034801 0.679483 0.570579 -1.634359 -0.683814 1.489862 
however -0.774020 1.209109 2.658788 0.367952 -0.417641 -0.170942 0.874764 -0.093748 0.310845 0.466244 -1.352913 0.334085 -0.331279 -0.298530 -0.435452 0.917012 -0.391479 -1.064901 -0.223501 1.232546 0.293236 0.539914 -0.172367 -0.965315 0.560185 0.062371 1.016412 -1.287504 0.327651 0.114408 0.320497 -0.173690 -0.428408 0.450217 0.417742 -0.827559 0.123966 -0.565861 -0.111998 -0.181266 0.316720 -0.563351 0.235342 0.212144 0.039809 -1.762515 -0.464931 -0.522479 -1.686400 -0.267582 -0.359141 -0.182859 1.150316 -1.086152 -0.030986 -0.803108 -1.243893 -0.668652 -0.111888 0.723215 -0.275385 -0.457719 -0.647883 -0.004146 -0.523265 0.257864 0.360270 -1.345546 -0.273148 -1.159033 0.780923 -0.332098 -0.280314 0.238368 -0.595102 0.838384 -0.052786 -0.022041 -0.310879 -0.026167 -0.263098 0.468566 0.929610 -0.065643 0.559196 0.361377 -0.436573 0.177928 0.069067 -0.418995 -0.580607 -0.319875 -0.453449 0.499095 0.706178 -0.574759 0.583357 0.184417 0.127756 -0.658141 
australia -0.145233 -2.447918 3.033745 -0.325185 3.678292 -2.643562 -1.018665 -2.414800 -1.433718 1.318135 -0.208709 1.788460 1.178453 1.901106 -0.916811 -0.087510 -1.048544 -1.131621 0.776310 1.973701 0.450737 -2.591977 -1.342004 0.989593 -0.188018 -0.657668 -0.534038 -0.918360 0.072864 0.146376 0.344150 0.464473 0.553315 -0.769806 0.207985 1.657272 1.336930 0.642356 -1.325476 2.804952 0.174262 -0.387266 -0.197116 -0.343169 0.302279 -0.875357 -1.443095 -0.034908 0.291803 1.200884 1.663153 1.596139 1.596124 -0.629792 -0.078671 -0.283021 0.111050 -0.404021 1.133160 -0.020713 -1.008511 1.157803 -1.261945 -1.642284 -0.192202 1.801085 2.331684 -1.547288 0.457195 -1.642111 -0.629373 -0.884061 -1.046956 -1.766141 -1.084182 0.815706 -2.349766 0.984862 -1.885744 -0.007782 -1.197855 0.059605 0.843141 -0.560854 -0.658751 1.594582 -0.159853 -0.854375 -0.030773 -1.362084 -0.552982 0.746652 -0.942409 -0.583956 -1.950524 -0.189269 -0.659840 2.049715 -0.300796 1.868472 
often -0.024615 1.782765 -0.155406 0.218518 0.450579 1.478155 0.074267 -0.213539 -0.433124 -1.404788 -0.751089 0.822625 -1.305231 0.970319 0.131900 1.882151 0.637195 -0.444937 0.292000 1.473552 -0.465953 -0.523391 0.360086 1.751521 0.037154 -0.825155 0.745403 -0.525034 -0.053021 0.519722 -0.154941 0.016766 -1.081713 0.288181 -1.136729 -0.226813 0.105659 0.755775 -0.362737 0.258972 -0.704233 -0.080473 0.356681 0.547676 0.205173 0.829719 -0.606486 1.011246 -0.838419 -0.400752 0.642149 -1.036362 -0.125574 0.346079 0.065293 0.547785 -0.027212 -1.741492 -0.090999 0.069871 0.359224 0.496316 1.262944 0.956823 -0.892969 -0.289790 0.524634 1.703984 -1.396791 -0.532527 0.623476 0.348230 -0.630484 -0.992940 1.807449 -0.711507 -1.227406 0.813411 -0.692239 1.871671 -0.188548 0.607230 1.845075 -0.717986 0.377011 -0.788874 1.121013 0.708164 0.675342 -0.152035 0.153996 0.178665 0.531012 -0.023868 -0.609386 -2.153590 1.841065 0.172393 0.266523 0.058490 
while 0.225286 1.858104 0.210407 0.538858 -0.247017 0.698650 -0.791895 -0.482855 0.230689 -0.646911 0.387176 -0.609243 -0.891188 -1.334920 -0.132055 0.610825 -0.003804 0.178117 0.274034 -0.474454 -0.025658 1.659165 0.726779 -1.507665 0.787462 -0.615813 0.191296 0.638059 -0.320259 -0.482644 -0.443582 0.548609 0.429941 0.059854 -0.346717 -0.764803 -0.201771 -0.722587 0.527448 -0.249416 0.341415 -0.660498 0.001837 0.904098 -0.077242 -0.700474 0.414449 0.062167 -0.271659 0.271248 -0.532556 0.329794 0.352060 0.604362 -0.290579 -0.854808 -0.064459 -0.826268 0.366634 -0.015096 -0.007216 -0.834191 -0.053060 0.685409 -1.412928 -0.758872 -0.341355 -0.619002 0.582015 0.203436 0.900243 -0.384417 0.372886 0.038754 0.327560 0.243591 -1.165028 -0.276086 -0.037193 -0.450562 0.883679 -0.106953 1.528385 -1.026101 1.107938 -0.554022 -0.480429 0.220497 0.171172 0.063316 -0.985864 0.486458 0.351425 -0.224498 0.019953 -0.204183 0.744028 0.346748 0.493386 -0.675403 
apollo 1.758472 1.438300 -3.650906 -0.167657 -0.095283 -0.143029 -0.727215 0.018151 -0.274390 -2.397424 4.301614 0.122334 0.011401 1.507008 0.207393 2.157811 -0.122011 2.621460 -1.272782 -0.046852 -1.535760 -0.973243 -0.585284 0.887824 0.116193 -0.310156 0.897549 1.184586 -0.715582 0.063567 2.780276 -1.393850 -2.649595 0.619759 4.228771 -1.590817 0.340169 -2.119889 1.602734 -2.392301 -0.215436 -1.023285 -1.480571 0.189813 -1.317336 -0.504490 -0.762442 -0.950298 0.145900 1.716158 0.969103 -0.205885 1.524454 1.296056 0.403718 -1.850177 0.376355 -1.006329 1.848326 0.297906 0.249970 0.227700 1.347430 -0.202729 -2.447094 1.233830 0.139992 0.571327 1.765837 0.468708 -3.105181 0.374196 1.682040 -0.322724 2.080311 0.661192 -2.391490 -0.936599 -0.913548 -1.072737 -2.031271 -0.881652 0.767161 -0.754760 0.727311 -0.672678 0.862009 0.800818 -1.147349 1.009669 -2.321231 -0.571306 0.491427 -2.901265 -2.141503 -0.086945 1.140061 -0.052359 1.178648 2.538478 
see 0.140468 0.136713 1.996089 -0.016466 -1.961229 1.895078 0.305710 -0.469275 -0.267363 1.137680 0.296439 0.716538 1.778430 0.649906 1.705810 -0.465128 0.524165 -1.040073 -2.560220 -2.502303 -0.635261 2.551121 -2.254044 -0.416378 -1.142845 -0.140604 1.155006 0.212138 2.049379 1.853644 -0.041944 -0.293182 0.868753 0.993626 -1.325371 0.899991 0.587680 -0.169155 0.108387 -2.701026 1.629187 -2.324473 1.855244 -0.153024 -0.050156 2.904825 0.397945 1.985332 2.896728 -1.047278 0.678487 -1.152790 -0.966033 0.056073 -0.804369 0.784913 -0.239716 -0.762205 -0.214746 1.191944 -1.082050 -0.561083 1.700524 -0.597319 -1.218860 -0.195958 -0.390439 -0.469442 -1.115455 -0.135502 -0.055252 1.026902 -1.459452 -2.159014 0.324730 -2.528954 -0.814961 -0.189135 0.722748 -0.851066 -0.399993 0.308813 -1.295754 -0.531674 0.923495 0.917190 2.295753 1.002379 2.517707 0.721501 1.429917 -0.214319 0.455218 0.646332 1.191592 1.225604 -1.139814 -1.066261 0.034134 0.405190 
during -0.343004 0.041291 3.070599 -0.497669 -1.522093 0.255293 0.089246 0.850114 0.263281 0.038126 -0.224808 -0.157279 0.620177 1.249065 0.728840 0.917004 -0.642782 0.783651 -0.349866 1.307428 1.224756 1.136637 1.407037 -1.635500 2.197389 0.321442 -1.508893 1.080239 -1.282663 0.570678 2.265798 2.090295 0.133661 0.717409 1.617917 0.182006 -1.781826 2.261610 0.273936 0.204685 -0.016313 0.401995 0.348728 0.266149 0.218963 0.753227 -0.023256 -1.505557 0.895344 1.068177 -0.906354 -2.798693 -1.347050 -0.614033 -1.540342 -0.137870 0.455325 -0.858827 0.439089 1.014548 0.204074 -0.632226 0.424012 1.135830 0.117618 0.575271 0.264252 0.815060 1.365434 -0.690806 -0.334247 -0.056195 -0.031291 -2.859961 -0.029147 0.576769 -1.037667 1.575448 -1.366126 0.815264 -0.554695 0.459332 -1.423686 -0.076054 0.969062 0.975009 1.040818 1.263579 -1.341842 -0.910874 0.271917 -0.428480 -1.096575 -1.127270 0.986619 1.933705 0.798503 -0.291290 -0.729964 0.928932 
will -0.795091 1.396559 -1.579880 -0.098219 -1.003348 -1.186105 0.539916 2.242985 0.342577 1.989547 -0.324213 1.014533 -0.149973 -1.005186 -0.755710 3.249439 -0.764337 -0.832665 -0.450385 1.441178 -0.111643 0.953947 1.751096 -1.082306 0.754997 -0.963805 -0.568440 1.023867 1.018981 -0.821852 -1.846860 0.710810 1.612106 -0.867216 0.574988 -1.515455 -0.100781 0.801958 1.196238 -0.303449 0.128714 1.708861 -1.561939 -0.632301 1.297485 2.152929 1.666272 0.079624 -0.660678 0.673226 -0.126685 -1.402836 0.220257 0.586616 -1.415267 -1.435084 1.585043 0.104686 -0.906405 -1.538371 -0.722941 0.632646 -1.068865 -1.345690 2.387585 -0.864237 1.785681 0.373200 0.159964 -1.226855 -1.966377 1.255923 -0.830491 0.135037 -0.568037 0.591368 0.808815 0.281139 0.201258 0.951633 1.000297 1.155050 -1.463400 0.186282 -1.693483 1.623642 -0.413406 0.789742 1.429610 0.699598 1.207320 2.238743 -1.042328 0.997687 1.206044 0.709375 0.327730 -0.718392 -0.773593 0.118338 
what -0.430293 0.556374 0.994727 0.987400 0.680385 1.962914 -0.126880 -0.997982 -0.231086 -0.619623 -0.151249 0.545869 0.108194 1.194678 0.556438 1.676779 0.353446 0.810791 0.029369 -1.014282 -1.596029 1.019767 0.658605 -0.153460 -1.704579 -1.778246 1.726753 -1.308609 -1.725237 -0.912634 0.847804 -1.785032 -3.245769 1.973194 0.282459 -0.749199 1.391046 -1.251135 -0.270873 0.655162 0.933251 -0.252445 0.557938 0.486763 -2.339495 -0.188177 -0.803103 1.849678 -2.117790 -2.000461 0.486868 -1.523077 0.521068 0.297789 0.164878 -1.764608 -0.915274 -3.370303 -0.413572 -0.401829 -0.548678 0.059991 1.642933 -0.182852 -1.842014 -1.728155 -0.926008 -0.170208 -1.360019 -1.598074 0.897009 -0.385233 -1.276438 0.548295 1.847417 0.587894 -0.126074 -1.115208 0.333857 0.984416 -0.994420 -1.071229 -1.624509 0.014744 1.005902 0.785316 0.884163 0.783889 1.184125 1.185216 -1.244049 0.472144 1.139528 -0.763069 0.233419 -1.309947 1.289059 -0.020422 1.240170 -0.044629 
used 0.165032 0.502363 0.212972 -0.648285 0.244950 1.921526 -1.508937 -0.785904 0.992997 -1.080893 0.798625 -0.914211 -0.888092 1.585394 -1.470945 0.884112 0.296903 0.024959 -0.337961 -0.553834 0.212188 -1.887255 0.211876 0.533093 -0.019678 -0.408436 -0.204736 -0.628666 0.237019 0.374322 0.725924 -0.347022 0.421350 0.515254 0.560390 0.824360 1.742044 -0.935292 -0.305888 -0.388703 -0.133786 0.146576 -0.063491 0.857555 -0.080947 0.215590 0.393515 0.565198 -1.010526 -0.864843 -0.049915 -0.281035 1.214789 -0.180745 1.920069 0.169132 0.130884 -1.749906 -0.434945 -1.748965 -0.349681 -0.280720 1.120227 -0.400750 -0.146676 -1.506122 -0.306829 0.158421 2.130797 0.542867 -0.459647 -0.034242 0.208784 -1.509600 1.366165 -0.439543 -0.177854 0.390667 -0.449852 -0.077475 -0.439374 0.450816 0.588793 -1.346601 -0.792343 0.992042 -0.784621 -0.523967 1.767170 1.378097 0.037949 0.513934 0.164672 0.411082 1.088201 -0.871510 0.763438 0.292738 -0.053884 1.266827 
them 0.005183 -0.175853 -1.916240 0.747946 1.391226 -0.477710 -0.463956 0.688176 -0.537205 -1.041167 -0.963548 1.209340 -1.458465 -0.532532 -0.458159 2.254206 -0.886167 0.980367 -1.956783 0.544090 0.555689 0.397632 0.297404 0.453563 0.918923 -1.626758 -0.159417 0.223726 1.098266 0.523340 0.304713 -0.789726 1.147645 -0.762818 0.517490 -2.040236 -0.372336 -0.432336 0.411043 -1.829826 -0.296892 -0.034667 1.018162 0.343369 1.217927 0.509370 -0.252043 -0.706015 -1.223760 -1.861625 -1.101784 -0.763207 -0.839539 1.252151 -0.627774 -1.082003 -0.586474 -1.033065 -0.341619 -1.171618 -0.090212 -0.510063 -0.659184 -0.208711 -0.475068 -0.290480 0.140322 1.093204 -0.268561 0.376793 -0.754144 0.715324 -0.110449 0.634310 0.724248 -0.657552 0.412883 -0.516001 -0.513705 0.873451 0.379962 0.482615 0.411161 -0.325189 -1.016063 -0.376952 -0.391246 0.585277 0.796643 -0.569049 0.301090 0.652444 -0.498381 0.046545 0.598403 -0.480904 1.700595 0.431434 0.761618 0.031341 
i 0.718278 3.523394 -1.032278 -0.776579 0.076369 -0.012020 1.036127 -2.313577 -1.829023 1.326751 -0.663993 -1.681695 -0.256572 -0.382783 0.461819 0.648281 -0.953091 0.561442 -0.770786 -0.760384 0.690930 1.439385 -1.211906 -3.480339 -3.540482 0.487119 1.350658 1.558972 -1.509901 -0.377065 -0.852187 -1.450993 -2.202219 -0.964485 -0.763439 1.279743 1.052059 -0.141845 0.422376 -1.077246 1.556343 2.778012 -1.425519 -2.239156 0.229179 1.474740 1.167543 2.545035 0.592625 0.193920 -0.647316 0.143888 -1.686179 1.369676 -0.863190 -1.355356 -0.222382 -0.414712 2.038313 0.646702 -1.483723 -1.290169 -0.528640 0.350742 -1.314414 -0.877841 2.068883 -0.525644 -0.220296 -0.809597 1.046229 0.285695 -0.851117 0.711062 0.313978 1.622222 0.216343 -0.342119 0.347466 -0.681730 0.927415 -1.446192 -2.146416 -0.749014 -0.191990 0.339587 0.963549 0.902937 0.664056 1.671291 -0.871954 -0.278996 -0.151003 -2.897299 0.520537 0.379752 1.425375 -0.432005 0.560881 0.707735 
years 1.169302 0.885405 -1.213642 0.172561 2.827409 -0.454097 -0.589207 0.876781 -0.441663 -0.402838 -2.009194 -0.247254 -0.850083 -0.055295 0.480083 0.929648 -0.636424 -0.903815 -1.888487 0.767446 1.161015 -1.821476 1.053577 -2.203876 0.769028 -0.686840 -1.283689 -1.585981 -0.003488 0.046385 -1.538836 0.601940 1.175304 -0.730698 3.256791 0.559693 -0.732161 0.743959 0.164384 0.448609 -0.870212 -0.747033 -1.104900 1.120023 0.539098 0.818660 0.442539 -0.909159 0.680048 -0.232775 -1.946152 -0.520794 -0.883253 0.015897 -0.329405 -0.353002 -0.462955 -1.388851 -0.835172 -1.210289 0.113117 0.605086 -0.382919 -0.116723 -0.204203 1.250924 0.528078 0.910633 0.838640 -0.288581 0.515851 -0.094831 0.653419 -0.375460 0.634937 -0.485235 -0.264831 2.766544 -1.893424 -0.287420 -0.066098 1.467483 -0.326852 0.268848 -0.756807 0.351354 -0.133856 1.970309 -1.192955 -1.556654 1.423838 -1.459642 0.013167 -0.221154 -0.028560 1.586801 0.579273 2.418951 0.978862 -2.267763 
anthropology 1.897227 -0.763545 1.923679 1.393913 1.005528 1.459913 -0.933199 -0.320876 -2.053653 -0.377291 0.500873 1.616552 2.347055 -2.304267 1.648635 -1.003510 -0.540942 1.363812 -0.759812 -0.809582 -0.103306 -1.541304 -2.633413 -0.172761 -1.108851 -0.008471 -0.630003 1.990737 -2.665850 0.083735 -0.858501 0.821808 -3.183869 -2.024063 0.400874 -0.754266 -0.887263 -0.103559 2.547919 2.617015 -0.638262 -0.741293 1.733113 -1.077872 0.188178 -0.149740 -0.662389 2.269670 1.169069 -0.595398 0.920976 -1.091291 -1.075171 0.949789 2.053488 0.582318 2.270441 -1.045202 -1.730356 -1.966438 -0.483549 1.564070 0.168466 0.713847 2.020616 1.879838 -0.863236 -1.007950 -0.493470 -0.732897 -0.148858 -0.797674 -1.735210 -2.216208 0.042921 -3.250307 -0.776687 -0.256121 0.410112 1.248749 2.932516 -1.123621 -1.719336 -1.673070 -1.638748 0.245204 0.466815 1.606416 0.500945 -0.937690 0.049788 -1.481367 -0.691538 -1.367339 -1.663852 1.575326 -0.062936 0.399316 -0.100000 -1.590807 
th 1.823473 -1.441010 2.753170 -0.847523 1.531261 -0.681841 -2.586636 -0.111678 -2.749339 -0.981644 0.338714 0.899221 0.050605 0.086109 0.282012 0.892159 -2.145998 2.150156 -0.008518 0.052117 -1.150537 0.202745 0.698830 0.419675 2.050844 -1.443589 -2.043261 -0.274626 -1.393638 -0.110367 1.717142 1.564847 1.958114 0.895630 2.984251 1.749697 0.583004 2.348252 1.066564 -0.898052 1.095561 1.107778 -1.525782 -1.956879 -2.255076 0.595143 0.229966 -1.457667 -1.177721 -1.522594 -2.440720 -1.659707 0.429808 0.704582 2.204312 1.088549 0.657970 0.434074 0.736990 0.635675 -1.394888 0.012635 0.953786 0.578403 0.905528 -0.365476 0.217832 3.949522 2.893248 2.780241 -1.557203 -1.270611 2.114814 -1.441048 -1.061399 -0.852380 1.250146 0.651070 -1.685094 -1.265375 -1.363731 1.096937 -0.886542 0.942585 -0.624754 0.216003 0.136003 -0.289908 -0.868181 0.881711 0.334702 -1.339922 2.677566 -0.977673 0.233716 -1.168100 1.796009 -0.809205 1.417923 1.555707 
government -0.437866 -1.751006 0.709466 0.189395 0.694315 -0.865665 0.341960 -1.512514 -2.541493 1.909785 -1.708402 1.483858 -0.918562 0.037077 -0.851611 0.409258 0.529249 0.188443 -0.277515 1.211861 0.820488 0.706905 -1.265488 -0.587201 0.367643 0.252865 -0.977576 -1.272511 0.018991 -0.495406 -0.582650 -1.195627 0.963752 -0.738474 -0.580573 -1.603445 0.573934 -1.313141 1.140156 0.863433 0.618353 0.502817 0.932158 -0.246472 2.380990 -0.158573 -2.000520 -1.774355 0.165740 0.567027 -0.054804 0.355817 -0.925904 0.408958 -0.608583 -0.016797 -0.169392 0.472274 0.621495 -1.413065 -0.941352 1.508368 -1.324305 0.024834 -0.393459 1.453391 0.349080 -1.413298 0.469969 0.148319 -1.671603 -0.330391 -0.799087 0.141083 -1.455320 0.680419 -2.085464 0.402315 -0.704310 -1.892116 1.953365 -1.979506 1.349333 1.128842 0.041374 -0.261162 -0.585731 -1.293661 0.501126 -0.656435 -0.321934 -0.068011 -0.452679 -1.495895 -0.781342 -1.095008 -0.697664 -0.092686 0.227274 0.686047 
